{"learner":{"attributes":{"best_iteration":"999","best_ntree_limit":"1000","scikit_learn":"{\"n_estimators\": 1000, \"objective\": \"reg:squarederror\", \"max_depth\": 5, \"learning_rate\": 0.01, \"verbosity\": null, \"booster\": null, \"tree_method\": null, \"gamma\": null, \"min_child_weight\": null, \"max_delta_step\": null, \"subsample\": null, \"colsample_bytree\": 1, \"colsample_bylevel\": null, \"colsample_bynode\": null, \"reg_alpha\": null, \"reg_lambda\": null, \"scale_pos_weight\": null, \"base_score\": null, \"missing\": NaN, \"num_parallel_tree\": null, \"random_state\": null, \"n_jobs\": null, \"monotone_constraints\": null, \"interaction_constraints\": null, \"importance_type\": null, \"gpu_id\": null, \"validate_parameters\": null, \"predictor\": null, \"enable_categorical\": false, \"kwargs\": {\"alpha\": 1}, \"_estimator_type\": \"regressor\"}"},"feature_names":[],"feature_types":[],"gradient_booster":{"model":{"gbtree_model_param":{"num_trees":"1000","size_leaf_vector":"0"},"tree_info":[0,0,0,0,0,0,0,0,0,0,0,0,0,0,0,0,0,0,0,0,0,0,0,0,0,0,0,0,0,0,0,0,0,0,0,0,0,0,0,0,0,0,0,0,0,0,0,0,0,0,0,0,0,0,0,0,0,0,0,0,0,0,0,0,0,0,0,0,0,0,0,0,0,0,0,0,0,0,0,0,0,0,0,0,0,0,0,0,0,0,0,0,0,0,0,0,0,0,0,0,0,0,0,0,0,0,0,0,0,0,0,0,0,0,0,0,0,0,0,0,0,0,0,0,0,0,0,0,0,0,0,0,0,0,0,0,0,0,0,0,0,0,0,0,0,0,0,0,0,0,0,0,0,0,0,0,0,0,0,0,0,0,0,0,0,0,0,0,0,0,0,0,0,0,0,0,0,0,0,0,0,0,0,0,0,0,0,0,0,0,0,0,0,0,0,0,0,0,0,0,0,0,0,0,0,0,0,0,0,0,0,0,0,0,0,0,0,0,0,0,0,0,0,0,0,0,0,0,0,0,0,0,0,0,0,0,0,0,0,0,0,0,0,0,0,0,0,0,0,0,0,0,0,0,0,0,0,0,0,0,0,0,0,0,0,0,0,0,0,0,0,0,0,0,0,0,0,0,0,0,0,0,0,0,0,0,0,0,0,0,0,0,0,0,0,0,0,0,0,0,0,0,0,0,0,0,0,0,0,0,0,0,0,0,0,0,0,0,0,0,0,0,0,0,0,0,0,0,0,0,0,0,0,0,0,0,0,0,0,0,0,0,0,0,0,0,0,0,0,0,0,0,0,0,0,0,0,0,0,0,0,0,0,0,0,0,0,0,0,0,0,0,0,0,0,0,0,0,0,0,0,0,0,0,0,0,0,0,0,0,0,0,0,0,0,0,0,0,0,0,0,0,0,0,0,0,0,0,0,0,0,0,0,0,0,0,0,0,0,0,0,0,0,0,0,0,0,0,0,0,0,0,0,0,0,0,0,0,0,0,0,0,0,0,0,0,0,0,0,0,0,0,0,0,0,0,0,0,0,0,0,0,0,0,0,0,0,0,0,0,0,0,0,0,0,0,0,0,0,0,0,0,0,0,0,0,0,0,0,0,0,0,0,0,0,0,0,0,0,0,0,0,0,0,0,0,0,0,0,0,0,0,0,0,0,0,0,0,0,0,0,0,0,0,0,0,0,0,0,0,0,0,0,0,0,0,0,0,0,0,0,0,0,0,0,0,0,0,0,0,0,0,0,0,0,0,0,0,0,0,0,0,0,0,0,0,0,0,0,0,0,0,0,0,0,0,0,0,0,0,0,0,0,0,0,0,0,0,0,0,0,0,0,0,0,0,0,0,0,0,0,0,0,0,0,0,0,0,0,0,0,0,0,0,0,0,0,0,0,0,0,0,0,0,0,0,0,0,0,0,0,0,0,0,0,0,0,0,0,0,0,0,0,0,0,0,0,0,0,0,0,0,0,0,0,0,0,0,0,0,0,0,0,0,0,0,0,0,0,0,0,0,0,0,0,0,0,0,0,0,0,0,0,0,0,0,0,0,0,0,0,0,0,0,0,0,0,0,0,0,0,0,0,0,0,0,0,0,0,0,0,0,0,0,0,0,0,0,0,0,0,0,0,0,0,0,0,0,0,0,0,0,0,0,0,0,0,0,0,0,0,0,0,0,0,0,0,0,0,0,0,0,0,0,0,0,0,0,0,0,0,0,0,0,0,0,0,0,0,0,0,0,0,0,0,0,0,0,0,0,0,0,0,0,0,0,0,0,0,0,0,0,0,0,0,0,0,0,0,0,0,0,0,0,0,0,0,0,0,0,0,0,0,0,0,0,0,0,0,0,0,0,0,0,0,0,0,0,0,0,0,0,0,0,0,0,0,0,0,0,0,0,0,0,0,0,0,0,0,0,0,0,0,0,0,0,0,0,0,0,0,0,0,0,0,0,0,0,0,0,0,0,0,0,0,0,0,0,0,0,0,0,0,0,0,0,0,0,0,0,0,0,0,0,0,0,0,0,0,0,0,0,0,0,0,0,0,0,0,0,0,0,0,0,0,0,0,0,0,0,0,0,0,0,0,0,0,0,0,0,0,0,0,0,0,0,0,0,0,0,0,0,0,0,0,0,0,0,0,0,0,0,0,0,0,0,0,0,0,0,0,0,0,0,0,0,0,0,0,0,0,0,0,0,0,0,0,0,0,0,0,0,0,0,0,0,0,0,0,0,0,0,0,0,0,0,0,0,0,0],"trees":[{"base_weights":[1.4898645E3,1.4883987E3,1.4932992E3,1.4902795E3,1.4863586E3,1.4889312E3,1.5000055E3,1.4856709E3,1.494286E3,1.4465431E3,1.4892015E3],"categories":[],"categories_nodes":[],"categories_segments":[],"categories_sizes":[],"default_left":[true,true,true,false,true,true,false,false,false,false,false],"id":0,"left_children":[1,3,5,-1,7,9,-1,-1,-1,-1,-1],"loss_changes":[6.815744E6,2.62144E6,1.31072E7,0E0,1.048576E6,1.507328E6,0E0,0E0,0E0,0E0,0E0],"parents":[2147483647,0,0,1,1,2,2,4,4,5,5],"right_children":[2,4,6,-1,8,10,-1,-1,-1,-1,-1],"split_conditions":[4.7590756E-1,-2.0292258E-1,-1.2818221E0,1.4902795E1,1.3836246E0,-2.1793877E2,1.5000054E1,1.4856709E1,1.494286E1,1.446543E1,1.4892015E1],"split_indices":[3,3,2,0,1,5,0,0,0,0,0],"split_type":[0,0,0,0,0,0,0,0,0,0,0],"sum_hessian":[1.75E6,1.226846E6,5.23154E5,6.37947E5,5.88899E5,3.1694E5,2.06214E5,5.42064E5,4.6835E4,2.043E3,3.14897E5],"tree_param":{"num_deleted":"0","num_feature":"8","num_nodes":"11","size_leaf_vector":"0"}},{"base_weights":[1.474966E3,1.4734637E3,1.4783629E3,1.4751786E3,1.4712229E3,1.4740673E3,1.4846974E3,1.4704758E3,1.4793585E3,1.4335132E3,1.4743396E3,1.486264E3,1.4775752E3],"categories":[],"categories_nodes":[],"categories_segments":[],"categories_sizes":[],"default_left":[true,true,true,false,true,true,true,false,false,false,false,false,false],"id":1,"left_children":[1,3,5,-1,7,9,11,-1,-1,-1,-1,-1,-1],"loss_changes":[7.077888E6,2.62144E6,1.245184E7,0E0,1.048576E6,1.441792E6,2.29376E5,0E0,0E0,0E0,0E0,0E0,0E0],"parents":[2147483647,0,0,1,1,2,2,4,4,5,5,6,6],"right_children":[2,4,6,-1,8,10,12,-1,-1,-1,-1,-1,-1],"split_conditions":[4.407453E-1,-1.6284591E-1,-1.2713313E0,1.4751785E1,1.3936632E0,-1.4502072E2,5.44557E-1,1.4704758E1,1.4793585E1,1.4335132E1,1.4743396E1,1.486264E1,1.4775752E1],"split_indices":[3,3,2,0,1,5,1,0,0,0,0,0,0],"split_type":[0,0,0,0,0,0,0,0,0,0,0,0,0],"sum_hessian":[1.75E6,1.213711E6,5.36289E5,6.87157E5,5.26554E5,3.19713E5,2.16576E5,4.8243E5,4.4124E4,2.168E3,3.17545E5,1.77356E5,3.922E4],"tree_param":{"num_deleted":"0","num_feature":"8","num_nodes":"13","size_leaf_vector":"0"}},{"base_weights":[1.4602163E3,1.4587732E3,1.4635835E3,1.4604714E3,1.4566791E3,1.4592919E3,1.4701187E3,1.4559832E3,1.4645834E3,1.4180492E3,1.4595585E3],"categories":[],"categories_nodes":[],"categories_segments":[],"categories_sizes":[],"default_left":[true,true,true,false,true,true,false,false,false,false,false],"id":2,"left_children":[1,3,5,-1,7,9,-1,-1,-1,-1,-1],"loss_changes":[6.815744E6,2.359296E6,1.2582912E7,0E0,9.17504E5,1.441792E6,0E0,0E0,0E0,0E0,0E0],"parents":[2147483647,0,0,1,1,2,2,4,4,5,5],"right_children":[2,4,6,-1,8,10,-1,-1,-1,-1,-1],"split_conditions":[4.7189084E-1,-1.7177889E-1,-1.3106815E0,1.4604714E1,1.4304907E0,-2.0225171E2,1.4701186E1,1.4559832E1,1.4645833E1,1.4180491E1,1.4595584E1],"split_indices":[3,3,2,0,1,5,0,0,0,0,0],"split_type":[0,0,0,0,0,0,0,0,0,0,0],"sum_hessian":[1.75E6,1.225298E6,5.24702E5,6.76242E5,5.49056E5,3.16853E5,2.07849E5,5.04799E5,4.4257E4,2.069E3,3.14784E5],"tree_param":{"num_deleted":"0","num_feature":"8","num_nodes":"11","size_leaf_vector":"0"}},{"base_weights":[1.4456143E3,1.4441848E3,1.4489481E3,1.4458928E3,1.4421224E3,1.4447062E3,1.4554188E3,1.4414347E3,1.4499325E3,1.4052241E3,1.4449761E3],"categories":[],"categories_nodes":[],"categories_segments":[],"categories_sizes":[],"default_left":[true,true,true,false,true,true,false,false,false,false,false],"id":3,"left_children":[1,3,5,-1,7,9,-1,-1,-1,-1,-1],"loss_changes":[6.5536E6,2.359296E6,1.2320768E7,0E0,9.17504E5,1.376256E6,0E0,0E0,0E0,0E0,0E0],"parents":[2147483647,0,0,1,1,2,2,4,4,5,5],"right_children":[2,4,6,-1,8,10,-1,-1,-1,-1,-1],"split_conditions":[4.715115E-1,-1.7696783E-1,-1.2853817E0,1.4458928E1,1.4198773E0,-1.3281717E2,1.4554188E1,1.4414347E1,1.4499325E1,1.4052241E1,1.444976E1],"split_indices":[3,3,2,0,1,5,0,0,0,0,0],"split_type":[0,0,0,0,0,0,0,0,0,0,0],"sum_hessian":[1.75E6,1.225162E6,5.24838E5,6.69779E5,5.55383E5,3.17149E5,2.07689E5,5.10609E5,4.4774E4,2.189E3,3.1496E5],"tree_param":{"num_deleted":"0","num_feature":"8","num_nodes":"11","size_leaf_vector":"0"}},{"base_weights":[1.4311581E3,1.4297095E3,1.4344604E3,1.431504E3,1.4276321E3,1.4302065E3,1.4406324E3,1.4269331E3,1.4353999E3,1.3904373E3,1.4304714E3,1.4421792E3,1.433985E3],"categories":[],"categories_nodes":[],"categories_segments":[],"categories_sizes":[],"default_left":[true,true,true,false,true,true,true,false,false,false,false,false,false],"id":4,"left_children":[1,3,5,-1,7,9,11,-1,-1,-1,-1,-1,-1],"loss_changes":[6.5536E6,2.62144E6,1.1927552E7,0E0,1.048576E6,1.376256E6,1.96608E5,0E0,0E0,0E0,0E0,0E0,0E0],"parents":[2147483647,0,0,1,1,2,2,4,4,5,5,6,6],"right_children":[2,4,6,-1,8,10,12,-1,-1,-1,-1,-1,-1],"split_conditions":[4.4905075E-1,-1.9113287E-1,-1.4801483E0,1.431504E1,1.3568978E0,-1.6983356E2,5.2951896E-1,1.4269331E1,1.4353999E1,1.3904372E1,1.4304714E1,1.4421792E1,1.4339849E1],"split_indices":[3,3,2,0,1,5,1,0,0,0,0,0,0],"split_type":[0,0,0,0,0,0,0,0,0,0,0,0,0],"sum_hessian":[1.75E6,1.216702E6,5.33298E5,6.52403E5,5.64299E5,3.15845E5,2.17453E5,5.17882E5,4.6417E4,2.124E3,3.13721E5,1.76231E5,4.1222E4],"tree_param":{"num_deleted":"0","num_feature":"8","num_nodes":"13","size_leaf_vector":"0"}},{"base_weights":[1.4168466E3,1.4154045E3,1.4201139E3,1.4173256E3,1.4134215E3,1.4159053E3,1.426172E3,1.4127675E3,1.4210787E3,1.3772385E3,1.4161702E3,1.4276898E3,1.4193682E3,1.41215E3,1.4189657E3],"categories":[],"categories_nodes":[],"categories_segments":[],"categories_sizes":[],"default_left":[true,true,true,false,true,true,true,true,false,false,false,false,false,false,false],"id":5,"left_children":[1,3,5,-1,7,9,11,13,-1,-1,-1,-1,-1,-1,-1],"loss_changes":[6.5536E6,2.62144E6,1.1665408E7,0E0,1.048576E6,1.31072E6,2.62144E5,1.31072E5,0E0,0E0,0E0,0E0,0E0,0E0,0E0],"parents":[2147483647,0,0,1,1,2,2,4,4,5,5,6,6,7,7],"right_children":[2,4,6,-1,8,10,12,14,-1,-1,-1,-1,-1,-1,-1],"split_conditions":[4.427674E-1,-2.2055882E-1,-1.4801927E0,1.4173255E1,1.4220076E0,-1.3312949E2,5.426347E-1,4.36215E-1,1.4210787E1,1.3772385E1,1.4161701E1,1.4276897E1,1.4193682E1,1.41215E1,1.4189656E1],"split_indices":[3,3,2,0,1,5,1,4,0,0,0,0,0,0,0],"split_type":[0,0,0,0,0,0,0,0,0,0,0,0,0,0,0],"sum_hessian":[1.75E6,1.214433E6,5.35567E5,6.16502E5,5.97931E5,3.1616E5,2.19407E5,5.51048E5,4.6883E4,2.186E3,3.13974E5,1.79217E5,4.019E4,5.01335E5,4.9713E4],"tree_param":{"num_deleted":"0","num_feature":"8","num_nodes":"15","size_leaf_vector":"0"}},{"base_weights":[1.4026781E3,1.4012229E3,1.4058933E3,1.4029896E3,1.3990842E3,1.4026088E3,1.4133678E3,1.398357E3,1.4067678E3,1.3631451E3,1.4028312E3,1.4039626E3,1.3969341E3],"categories":[],"categories_nodes":[],"categories_segments":[],"categories_sizes":[],"default_left":[true,true,true,false,true,true,false,false,false,false,true,false,false],"id":6,"left_children":[1,3,5,-1,7,9,-1,-1,-1,-1,11,-1,-1],"loss_changes":[6.5536E6,2.62144E6,1.1403264E7,0E0,1.114112E6,1.441792E6,0E0,0E0,0E0,0E0,5.89824E5,0E0,0E0],"parents":[2147483647,0,0,1,1,2,2,4,4,5,5,10,10],"right_children":[2,4,6,-1,8,10,-1,-1,-1,-1,12,-1,-1],"split_conditions":[4.1644776E-1,-1.8525667E-1,-3.6007336E-1,1.4029896E1,1.2565756E0,-1.5032417E2,1.41336775E1,1.398357E1,1.40676775E1,1.3631451E1,5.164408E0,1.4039626E1,1.396934E1],"split_indices":[3,3,0,0,1,5,0,0,0,0,4,0,0],"split_type":[0,0,0,0,0,0,0,0,0,0,0,0,0],"sum_hessian":[1.75E6,1.205032E6,5.44968E5,6.59564E5,5.45468E5,3.7873E5,1.66238E5,4.98475E5,4.6993E4,2.157E3,3.76573E5,3.15754E5,6.0819E4],"tree_param":{"num_deleted":"0","num_feature":"8","num_nodes":"13","size_leaf_vector":"0"}},{"base_weights":[1.3886515E3,1.3872535E3,1.3918579E3,1.3889587E3,1.3852386E3,1.3877682E3,1.3979518E3,1.3845502E3,1.3927314E3,1.3485079E3,1.3880208E3,1.3992605E3,1.3906799E3],"categories":[],"categories_nodes":[],"categories_segments":[],"categories_sizes":[],"default_left":[true,true,true,false,true,true,true,false,false,false,false,false,false],"id":7,"left_children":[1,3,5,-1,7,9,11,-1,-1,-1,-1,-1,-1],"loss_changes":[6.029312E6,2.359296E6,1.1337728E7,0E0,9.8304E5,1.31072E6,9.8304E4,0E0,0E0,0E0,0E0,0E0,0E0],"parents":[2147483647,0,0,1,1,2,2,4,4,5,5,6,6],"right_children":[2,4,6,-1,8,10,12,-1,-1,-1,-1,-1,-1],"split_conditions":[4.5510918E-1,-1.850489E-1,-1.303044E0,1.3889587E1,1.3001761E0,-2.0290314E2,5.8198035E-1,1.3845501E1,1.3927314E1,1.3485079E1,1.3880207E1,1.3992604E1,1.3906799E1],"split_indices":[3,3,2,0,1,5,1,0,0,0,0,0,0],"split_type":[0,0,0,0,0,0,0,0,0,0,0,0,0],"sum_hessian":[1.75E6,1.218976E6,5.31024E5,6.59841E5,5.59135E5,3.17907E5,2.13117E5,5.12252E5,4.6883E4,2.066E3,3.15841E5,1.80451E5,3.2666E4],"tree_param":{"num_deleted":"0","num_feature":"8","num_nodes":"13","size_leaf_vector":"0"}},{"base_weights":[1.374765E3,1.3733956E3,1.3779392E3,1.3749746E3,1.3713827E3,1.3738439E3,1.3840107E3,1.370708E3,1.378868E3,1.3361221E3,1.3741007E3],"categories":[],"categories_nodes":[],"categories_segments":[],"categories_sizes":[],"default_left":[true,true,true,false,true,true,false,false,false,false,false],"id":8,"left_children":[1,3,5,-1,7,9,-1,-1,-1,-1,-1],"loss_changes":[6.029312E6,2.097152E6,1.1206656E7,0E0,8.51968E5,1.245184E6,0E0,0E0,0E0,0E0,0E0],"parents":[2147483647,0,0,1,1,2,2,4,4,5,5],"right_children":[2,4,6,-1,8,10,-1,-1,-1,-1,-1],"split_conditions":[4.653767E-1,-1.6473632E-1,-1.4808656E0,1.3749745E1,1.3994179E0,-1.4595937E2,1.3840107E1,1.370708E1,1.378868E1,1.336122E1,1.3741007E1],"split_indices":[3,3,2,0,1,5,0,0,0,0,0],"split_type":[0,0,0,0,0,0,0,0,0,0,0],"sum_hessian":[1.75E6,1.222865E6,5.27135E5,6.84891E5,5.37974E5,3.14934E5,2.12201E5,4.93662E5,4.4312E4,2.165E3,3.12769E5],"tree_param":{"num_deleted":"0","num_feature":"8","num_nodes":"11","size_leaf_vector":"0"}},{"base_weights":[1.3610175E3,1.3596268E3,1.3641578E3,1.361292E3,1.3575905E3,1.3609705E3,1.3715476E3,1.3568977E3,1.3650189E3,1.3222648E3,1.3611869E3,1.3623138E3,1.3553213E3],"categories":[],"categories_nodes":[],"categories_segments":[],"categories_sizes":[],"default_left":[true,true,true,false,true,true,false,false,false,false,true,false,false],"id":9,"left_children":[1,3,5,-1,7,9,-1,-1,-1,-1,11,-1,-1],"loss_changes":[6.029312E6,2.359296E6,1.081344E7,0E0,9.8304E5,1.376256E6,0E0,0E0,0E0,0E0,6.5536E5,0E0,0E0],"parents":[2147483647,0,0,1,1,2,2,4,4,5,5,10,10],"right_children":[2,4,6,-1,8,10,-1,-1,-1,-1,12,-1,-1],"split_conditions":[4.393682E-1,-1.7915496E-1,-3.601451E-1,1.361292E1,1.297811E0,-1.7195639E2,1.3715476E1,1.3568976E1,1.3650188E1,1.3222648E1,5.172616E0,1.3623138E1,1.3553212E1],"split_indices":[3,3,0,0,1,5,0,0,0,0,4,0,0],"split_type":[0,0,0,0,0,0,0,0,0,0,0,0,0],"sum_hessian":[1.75E6,1.21322E6,5.3678E5,6.67053E5,5.46167E5,3.75151E5,1.61629E5,4.99742E5,4.6425E4,2.12E3,3.73031E5,3.12718E5,6.0313E4],"tree_param":{"num_deleted":"0","num_feature":"8","num_nodes":"13","size_leaf_vector":"0"}},{"base_weights":[1.3474072E3,1.3460482E3,1.350519E3,1.3478607E3,1.344173E3,1.3464991E3,1.3563856E3,1.3435334E3,1.3513893E3,1.3076566E3,1.346742E3,1.3577023E3,1.3493286E3,1.3429117E3,1.3495194E3,1.3479263E3,1.3417404E3],"categories":[],"categories_nodes":[],"categories_segments":[],"categories_sizes":[],"default_left":[true,true,true,false,true,true,true,true,false,false,true,false,false,false,false,false,false],"id":10,"left_children":[1,3,5,-1,7,9,11,13,-1,-1,15,-1,-1,-1,-1,-1,-1],"loss_changes":[5.767168E6,2.359296E6,1.0747904E7,0E0,9.8304E5,1.245184E6,1.96608E5,2.62144E5,0E0,0E0,6.5536E4,0E0,0E0,0E0,0E0,0E0,0E0],"parents":[2147483647,0,0,1,1,2,2,4,4,5,5,6,6,7,7,10,10],"right_children":[2,4,6,-1,8,10,12,14,-1,-1,16,-1,-1,-1,-1,-1,-1],"split_conditions":[4.535179E-1,-2.184014E-1,-1.4801927E0,1.3478607E1,1.316925E0,-2.4980127E2,5.7605326E-1,4.1248143E-1,1.3513892E1,1.3076566E1,5.1749096E0,1.3577023E1,1.3493286E1,1.3429117E1,1.34951935E1,1.3479262E1,1.3417403E1],"split_indices":[3,3,2,0,1,5,1,4,0,0,4,0,0,0,0,0,0],"split_type":[0,0,0,0,0,0,0,0,0,0,0,0,0,0,0,0,0],"sum_hessian":[1.75E6,1.218345E6,5.31655E5,6.19175E5,5.9917E5,3.15618E5,2.16037E5,5.50563E5,4.8607E4,1.994E3,3.13624E5,1.81908E5,3.4129E4,4.98961E5,5.1602E4,2.53362E5,6.0262E4],"tree_param":{"num_deleted":"0","num_feature":"8","num_nodes":"17","size_leaf_vector":"0"}},{"base_weights":[1.3339332E3,1.3325933E3,1.3370153E3,1.3342698E3,1.3306823E3,1.333034E3,1.3428596E3,1.3300295E3,1.3378604E3,1.2960679E3,1.3332814E3,1.34414E3,1.3359203E3,1.3294352E3,1.3358668E3,1.3344634E3,1.3283733E3],"categories":[],"categories_nodes":[],"categories_segments":[],"categories_sizes":[],"default_left":[true,true,true,false,true,true,true,true,false,false,true,false,false,false,false,false,false],"id":11,"left_children":[1,3,5,-1,7,9,11,13,-1,-1,15,-1,-1,-1,-1,-1,-1],"loss_changes":[5.767168E6,2.228224E6,1.0551296E7,0E0,9.17504E5,1.179648E6,1.31072E5,6.5536E4,0E0,0E0,6.5536E4,0E0,0E0,0E0,0E0,0E0,0E0],"parents":[2147483647,0,0,1,1,2,2,4,4,5,5,6,6,7,7,10,10],"right_children":[2,4,6,-1,8,10,12,14,-1,-1,16,-1,-1,-1,-1,-1,-1],"split_conditions":[4.577519E-1,-1.9349454E-1,-1.4804001E0,1.3342697E1,1.3031198E0,-1.6674469E2,5.756776E-1,3.88308E-1,1.3378603E1,1.2960678E1,5.161933E0,1.34414E1,1.3359202E1,1.3294352E1,1.3358668E1,1.3344633E1,1.3283732E1],"split_indices":[3,3,2,0,1,5,1,4,0,0,4,0,0,0,0,0,0],"split_type":[0,0,0,0,0,0,0,0,0,0,0,0,0,0,0,0,0],"sum_hessian":[1.75E6,1.220002E6,5.29998E5,6.49528E5,5.70474E5,3.15389E5,2.14609E5,5.23094E5,4.738E4,2.131E3,3.13258E5,1.81018E5,3.3591E4,4.74968E5,4.8126E4,2.52243E5,6.1015E4],"tree_param":{"num_deleted":"0","num_feature":"8","num_nodes":"17","size_leaf_vector":"0"}},{"base_weights":[1.320594E3,1.3192655E3,1.3236449E3,1.3209496E3,1.3173802E3,1.3197435E3,1.3294573E3,1.3167345E3,1.3244742E3,1.2824758E3,1.3199841E3,1.3308378E3,1.3229546E3,1.3161758E3,1.3227472E3,1.3211361E3,1.3150465E3],"categories":[],"categories_nodes":[],"categories_segments":[],"categories_sizes":[],"default_left":[true,true,true,false,true,true,true,true,false,false,true,false,false,false,false,false,false],"id":12,"left_children":[1,3,5,-1,7,9,11,13,-1,-1,15,-1,-1,-1,-1,-1,-1],"loss_changes":[5.505024E6,2.228224E6,1.0289152E7,0E0,9.17504E5,1.179648E6,1.6384E5,6.5536E4,0E0,0E0,6.5536E4,0E0,0E0,0E0,0E0,0E0,0E0],"parents":[2147483647,0,0,1,1,2,2,4,4,5,5,6,6,7,7,10,10],"right_children":[2,4,6,-1,8,10,12,14,-1,-1,16,-1,-1,-1,-1,-1,-1],"split_conditions":[4.5625466E-1,-1.9817424E-1,-1.3306088E0,1.3209496E1,1.2884542E0,-2.0208069E2,5.4441464E-1,4.379228E-1,1.3244742E1,1.2824758E1,5.1787057E0,1.3308377E1,1.3229546E1,1.3161757E1,1.3227471E1,1.3211361E1,1.3150465E1],"split_indices":[3,3,2,0,1,5,1,4,0,0,4,0,0,0,0,0,0],"split_type":[0,0,0,0,0,0,0,0,0,0,0,0,0,0,0,0,0],"sum_hessian":[1.75E6,1.219445E6,5.30555E5,6.4373E5,5.75715E5,3.17601E5,2.12954E5,5.27852E5,4.7863E4,2.071E3,3.1553E5,1.75493E5,3.7461E4,4.83171E5,4.4681E4,2.55622E5,5.9908E4],"tree_param":{"num_deleted":"0","num_feature":"8","num_nodes":"17","size_leaf_vector":"0"}},{"base_weights":[1.3073882E3,1.3060732E3,1.3104086E3,1.3049614E3,1.3090029E3,1.3065541E3,1.3161704E3,1.3086948E3,1.3042223E3,1.2694026E3,1.3067909E3,1.3175502E3,1.3097664E3,1.3036488E3,1.3112218E3,1.3079487E3,1.3019191E3],"categories":[],"categories_nodes":[],"categories_segments":[],"categories_sizes":[],"default_left":[true,true,true,true,false,true,true,false,true,false,true,false,false,false,false,false,false],"id":13,"left_children":[1,3,5,7,-1,9,11,-1,13,-1,15,-1,-1,-1,-1,-1,-1],"loss_changes":[5.505024E6,2.359296E6,1.0092544E7,7.86432E5,0E0,1.14688E6,1.6384E5,0E0,1.31072E6,0E0,9.8304E4,0E0,0E0,0E0,0E0,0E0,0E0],"parents":[2147483647,0,0,1,1,2,2,3,3,5,5,6,6,8,8,10,10],"right_children":[2,4,6,8,-1,10,12,-1,14,-1,16,-1,-1,-1,-1,-1,-1],"split_conditions":[4.5645732E-1,2.0797984E-1,-1.2891352E0,-5.309404E-1,1.3090029E1,-2.1615475E2,5.4068285E-1,1.3086948E1,1.2762048E0,1.2694026E1,5.164996E0,1.3175502E1,1.3097663E1,1.3036488E1,1.3112218E1,1.3079487E1,1.3019191E1],"split_indices":[3,4,2,3,0,5,1,0,1,0,4,0,0,0,0,0,0],"split_type":[0,0,0,0,0,0,0,0,0,0,0,0,0,0,0,0,0],"sum_hessian":[1.75E6,1.219526E6,5.30474E5,8.84358E5,3.35168E5,3.17978E5,2.12496E5,1.45854E5,7.38504E5,2.048E3,3.1593E5,1.74661E5,3.7835E4,6.82759E5,5.5745E4,2.55045E5,6.0885E4],"tree_param":{"num_deleted":"0","num_feature":"8","num_nodes":"17","size_leaf_vector":"0"}},{"base_weights":[1.2943143E3,1.293021E3,1.297304E3,1.2919772E3,1.2960188E3,1.2934624E3,1.30303E3,1.2955055E3,1.2912255E3,1.2556167E3,1.2936929E3,1.3043658E3,1.2967439E3,1.290688E3,1.2981748E3,1.2948527E3,1.2888937E3],"categories":[],"categories_nodes":[],"categories_segments":[],"categories_sizes":[],"default_left":[true,true,true,true,false,true,true,false,true,false,true,false,false,false,false,false,false],"id":14,"left_children":[1,3,5,7,-1,9,11,-1,13,-1,15,-1,-1,-1,-1,-1,-1],"loss_changes":[5.24288E6,2.228224E6,9.961472E6,7.86432E5,0E0,1.14688E6,9.8304E4,0E0,1.179648E6,0E0,9.8304E4,0E0,0E0,0E0,0E0,0E0,0E0],"parents":[2147483647,0,0,1,1,2,2,3,3,5,5,6,6,8,8,10,10],"right_children":[2,4,6,8,-1,10,12,-1,14,-1,16,-1,-1,-1,-1,-1,-1],"split_conditions":[4.6261746E-1,2.4785164E-1,-1.4444255E0,-5.157938E-1,1.2960188E1,-2.8288623E2,5.4082596E-1,1.2955054E1,1.3594176E0,1.2556167E1,5.159312E0,1.3043658E1,1.2967439E1,1.2906879E1,1.2981748E1,1.2948526E1,1.2888936E1],"split_indices":[3,4,2,3,0,5,1,0,1,0,4,0,0,0,0,0,0],"split_type":[0,0,0,0,0,0,0,0,0,0,0,0,0,0,0,0,0],"sum_hessian":[1.75E6,1.221862E6,5.28138E5,9.06592E5,3.1527E5,3.1622E5,2.11918E5,1.58922E5,7.4767E5,1.947E3,3.14273E5,1.74607E5,3.7311E4,6.94174E5,5.3496E4,2.52889E5,6.1384E4],"tree_param":{"num_deleted":"0","num_feature":"8","num_nodes":"17","size_leaf_vector":"0"}},{"base_weights":[1.2813712E3,1.2800582E3,1.2843319E3,1.2817007E3,1.2781486E3,1.2813033E3,1.2913431E3,1.2775013E3,1.2851305E3,1.2431774E3,1.2814996E3,1.2769183E3,1.2832961E3,1.2825834E3,1.2760256E3],"categories":[],"categories_nodes":[],"categories_segments":[],"categories_sizes":[],"default_left":[true,true,true,false,true,true,false,true,false,false,true,false,false,false,false],"id":15,"left_children":[1,3,5,-1,7,9,-1,11,-1,-1,13,-1,-1,-1,-1],"loss_changes":[5.505024E6,2.228224E6,9.764864E6,0E0,9.17504E5,1.245184E6,0E0,1.31072E5,0E0,0E0,5.89824E5,0E0,0E0,0E0,0E0],"parents":[2147483647,0,0,1,1,2,2,4,4,5,5,7,7,10,10],"right_children":[2,4,6,-1,8,10,-1,12,-1,-1,14,-1,-1,-1,-1],"split_conditions":[4.3776977E-1,-1.9179302E-1,-3.601302E-1,1.2817006E1,1.2758049E0,-2.7799976E2,1.2913431E1,3.8966644E-1,1.2851305E1,1.2431773E1,5.1513786E0,1.2769183E1,1.2832961E1,1.2825833E1,1.2760256E1],"split_indices":[3,3,0,0,1,5,0,4,0,0,4,0,0,0,0],"split_type":[0,0,0,0,0,0,0,0,0,0,0,0,0,0,0],"sum_hessian":[1.75E6,1.212616E6,5.37384E5,6.51547E5,5.61069E5,3.75407E5,1.61977E5,5.1364E5,4.7429E4,1.956E3,3.73451E5,4.66889E5,4.6751E4,3.11542E5,6.1909E4],"tree_param":{"num_deleted":"0","num_feature":"8","num_nodes":"15","size_leaf_vector":"0"}},{"base_weights":[1.2685576E3,1.2672698E3,1.2714889E3,1.2689812E3,1.265458E3,1.2685042E3,1.2784575E3,1.2648402E3,1.2722842E3,1.2328942E3,1.2687081E3,1.2642366E3,1.27047E3,1.2697434E3,1.2632329E3,1.26705E3,1.2717056E3],"categories":[],"categories_nodes":[],"categories_segments":[],"categories_sizes":[],"default_left":[true,true,true,false,true,true,false,true,false,false,true,false,false,true,false,false,false],"id":16,"left_children":[1,3,5,-1,7,9,-1,11,-1,-1,13,-1,-1,15,-1,-1,-1],"loss_changes":[5.24288E6,2.228224E6,9.50272E6,0E0,9.17504E5,1.179648E6,0E0,2.62144E5,0E0,0E0,5.24288E5,0E0,0E0,3.2768E4,0E0,0E0,0E0],"parents":[2147483647,0,0,1,1,2,2,4,4,5,5,7,7,10,10,13,13],"right_children":[2,4,6,-1,8,10,-1,12,-1,-1,14,-1,-1,16,-1,-1,-1],"split_conditions":[4.4746637E-1,-2.1350808E-1,-3.6024874E-1,1.2689812E1,1.2732534E0,-1.461889E2,1.27845745E1,3.917033E-1,1.2722841E1,1.2328941E1,5.186458E0,1.2642365E1,1.27046995E1,-2.2907336E-1,1.2632329E1,1.26705E1,1.2717055E1],"split_indices":[3,3,0,0,1,5,0,4,0,0,4,0,0,5,0,0,0],"split_type":[0,0,0,0,0,0,0,0,0,0,0,0,0,0,0,0,0],"sum_hessian":[1.75E6,1.216129E6,5.33871E5,6.24994E5,5.91135E5,3.73905E5,1.59966E5,5.42244E5,4.8891E4,2.164E3,3.71741E5,4.89936E5,5.2308E4,3.12429E5,5.9312E4,1.31946E5,1.80483E5],"tree_param":{"num_deleted":"0","num_feature":"8","num_nodes":"17","size_leaf_vector":"0"}},{"base_weights":[1.2558721E3,1.254592E3,1.2587742E3,1.2535386E3,1.2575282E3,1.2557815E3,1.2656025E3,1.2573512E3,1.2528284E3,1.219426E3,1.2559795E3,1.2522914E3,1.2595756E3,1.2570242E3,1.2506056E3,1.2543579E3,1.2589724E3],"categories":[],"categories_nodes":[],"categories_segments":[],"categories_sizes":[],"default_left":[true,true,true,true,false,true,false,false,true,false,true,false,false,true,false,false,false],"id":17,"left_children":[1,3,5,7,-1,9,-1,-1,11,-1,13,-1,-1,15,-1,-1,-1],"loss_changes":[5.24288E6,2.228224E6,9.371648E6,9.17504E5,0E0,1.179648E6,0E0,0E0,1.179648E6,0E0,5.24288E5,0E0,0E0,3.2768E4,0E0,0E0,0E0],"parents":[2147483647,0,0,1,1,2,2,3,3,5,5,8,8,10,10,13,13],"right_children":[2,4,6,8,-1,10,-1,-1,12,-1,14,-1,-1,16,-1,-1,-1],"split_conditions":[4.4338053E-1,2.3586732E-1,-4.0350384E-1,-5.504646E-1,1.2575282E1,-2.136157E2,1.2656025E1,1.2573512E1,1.2869804E0,1.219426E1,5.1716275E0,1.2522914E1,1.2595756E1,-2.2908702E-1,1.2506056E1,1.2543579E1,1.2589724E1],"split_indices":[3,4,0,3,0,5,0,0,1,0,4,0,0,5,0,0,0],"split_type":[0,0,0,0,0,0,0,0,0,0,0,0,0,0,0,0,0],"sum_hessian":[1.75E6,1.214648E6,5.35352E5,8.94254E5,3.20394E5,3.72348E5,1.63004E5,1.40161E5,7.54093E5,2.051E3,3.70297E5,6.98683E5,5.541E4,3.09836E5,6.0461E4,1.31087E5,1.78749E5],"tree_param":{"num_deleted":"0","num_feature":"8","num_nodes":"17","size_leaf_vector":"0"}},{"base_weights":[1.2433135E3,1.2420673E3,1.2461876E3,1.2437433E3,1.2403193E3,1.2424619E3,1.2516761E3,1.2397225E3,1.2469645E3,1.2068253E3,1.2426871E3,1.2528572E3,1.2449565E3,1.2391715E3,1.245362E3,1.2438075E3,1.2381471E3],"categories":[],"categories_nodes":[],"categories_segments":[],"categories_sizes":[],"default_left":[true,true,true,false,true,true,true,true,false,false,true,false,false,false,false,false,false],"id":18,"left_children":[1,3,5,-1,7,9,11,13,-1,-1,15,-1,-1,-1,-1,-1,-1],"loss_changes":[4.980736E6,2.097152E6,9.240576E6,0E0,8.51968E5,1.048576E6,1.6384E5,1.96608E5,0E0,0E0,6.5536E4,0E0,0E0,0E0,0E0,0E0,0E0],"parents":[2147483647,0,0,1,1,2,2,4,4,5,5,6,6,7,7,10,10],"right_children":[2,4,6,-1,8,10,12,14,-1,-1,16,-1,-1,-1,-1,-1,-1],"split_conditions":[4.6030763E-1,-2.1525782E-1,-1.4802424E0,1.2437432E1,1.2710807E0,-2.3696832E2,5.847019E-1,4.4109142E-1,1.2469645E1,1.2068253E1,5.1462502E0,1.2528571E1,1.2449565E1,1.2391715E1,1.245362E1,1.2438075E1,1.2381471E1],"split_indices":[3,3,2,0,1,5,1,4,0,0,4,0,0,0,0,0,0],"split_type":[0,0,0,0,0,0,0,0,0,0,0,0,0,0,0,0,0],"sum_hessian":[1.75E6,1.221011E6,5.28989E5,6.22941E5,5.9807E5,3.15236E5,2.13753E5,5.48953E5,4.9117E4,2.013E3,3.13223E5,1.81644E5,3.2109E4,5.00293E5,4.866E4,2.51009E5,6.2214E4],"tree_param":{"num_deleted":"0","num_feature":"8","num_nodes":"17","size_leaf_vector":"0"}},{"base_weights":[1.2308804E3,1.2296486E3,1.2337252E3,1.2286619E3,1.2325784E3,1.2300863E3,1.2392084E3,1.2320093E3,1.2279285E3,1.1935431E3,1.2303018E3,1.240508E3,1.23307E3,1.2274209E3,1.234575E3,1.2314059E3,1.2257153E3,1.2242285E3,1.237876E3],"categories":[],"categories_nodes":[],"categories_segments":[],"categories_sizes":[],"default_left":[true,true,true,true,false,true,true,false,true,false,true,false,true,false,false,false,false,false,false],"id":19,"left_children":[1,3,5,7,-1,9,11,-1,13,-1,15,-1,17,-1,-1,-1,-1,-1,-1],"loss_changes":[4.718592E6,2.097152E6,9.043968E6,7.86432E5,0E0,1.048576E6,1.6384E5,0E0,1.048576E6,0E0,9.8304E4,0E0,5.7344E4,0E0,0E0,0E0,0E0,0E0,0E0],"parents":[2147483647,0,0,1,1,2,2,3,3,5,5,6,6,8,8,10,10,12,12],"right_children":[2,4,6,8,-1,10,12,-1,14,-1,16,-1,18,-1,-1,-1,-1,-1,-1],"split_conditions":[4.616754E-1,2.6349196E-1,-1.2810315E0,-5.1072454E-1,1.2325784E1,-3.2152368E2,5.415237E-1,1.2320092E1,1.3747957E0,1.1935431E1,5.1582413E0,1.240508E1,-3.7642038E-1,1.2274209E1,1.2345749E1,1.2314058E1,1.22571535E1,1.2242285E1,1.2378759E1],"split_indices":[3,4,2,3,0,5,1,0,1,0,4,0,4,0,0,0,0,0,0],"split_type":[0,0,0,0,0,0,0,0,0,0,0,0,0,0,0,0,0,0,0],"sum_hessian":[1.75E6,1.221513E6,5.28487E5,9.14117E5,3.07396E5,3.17797E5,2.1069E5,1.63982E5,7.50135E5,1.896E3,3.15901E5,1.7371E5,3.698E4,6.97077E5,5.3058E4,2.54394E5,6.1507E4,1.3113E4,2.3867E4],"tree_param":{"num_deleted":"0","num_feature":"8","num_nodes":"19","size_leaf_vector":"0"}},{"base_weights":[1.2185717E3,1.217306E3,1.2213868E3,1.2190266E3,1.2155199E3,1.2184824E3,1.228031E3,1.2149142E3,1.22214E3,1.1832603E3,1.2186721E3,1.2143062E3,1.2204893E3,1.2196544E3,1.2134431E3,1.2170535E3,1.2215325E3],"categories":[],"categories_nodes":[],"categories_segments":[],"categories_sizes":[],"default_left":[true,true,true,false,true,true,false,true,false,false,true,false,false,true,false,false,false],"id":20,"left_children":[1,3,5,-1,7,9,-1,11,-1,-1,13,-1,-1,15,-1,-1,-1],"loss_changes":[4.980736E6,2.228224E6,8.978432E6,0E0,9.17504E5,1.114112E6,0E0,3.93216E5,0E0,0E0,4.58752E5,0E0,0E0,3.2768E4,0E0,0E0,0E0],"parents":[2147483647,0,0,1,1,2,2,4,4,5,5,7,7,10,10,13,13],"right_children":[2,4,6,-1,8,10,-1,12,-1,-1,14,-1,-1,16,-1,-1,-1],"split_conditions":[4.238002E-1,-2.2205418E-1,-3.6036035E-1,1.2190266E1,1.2468154E0,-2.1115881E2,1.228031E1,3.9529616E-1,1.22214E1,1.18326025E1,5.183921E0,1.2143062E1,1.2204892E1,-2.2907336E-1,1.2134431E1,1.2170534E1,1.2215324E1],"split_indices":[3,3,0,0,1,5,0,4,0,0,4,0,0,5,0,0,0],"split_type":[0,0,0,0,0,0,0,0,0,0,0,0,0,0,0,0,0],"sum_hessian":[1.75E6,1.207565E6,5.42435E5,6.14737E5,5.92828E5,3.77574E5,1.64861E5,5.43299E5,4.9529E4,2.056E3,3.75518E5,4.90075E5,5.3224E4,3.1594E5,5.9578E4,1.32752E5,1.83188E5],"tree_param":{"num_deleted":"0","num_feature":"8","num_nodes":"17","size_leaf_vector":"0"}},{"base_weights":[1.206386E3,1.2051373E3,1.2091742E3,1.2068444E3,1.2033844E3,1.2063027E3,1.2157675E3,1.2028073E3,1.2099932E3,1.1713267E3,1.2064905E3,1.202202E3,1.2082466E3,1.2074928E3,1.2013502E3,1.2049017E3,1.209371E3],"categories":[],"categories_nodes":[],"categories_segments":[],"categories_sizes":[],"default_left":[true,true,true,false,true,true,false,true,false,false,true,false,false,true,false,false,false],"id":21,"left_children":[1,3,5,-1,7,9,-1,11,-1,-1,13,-1,-1,15,-1,-1,-1],"loss_changes":[4.980736E6,2.228224E6,8.781824E6,0E0,8.51968E5,1.081344E6,0E0,3.93216E5,0E0,0E0,4.9152E5,0E0,0E0,6.5536E4,0E0,0E0,0E0],"parents":[2147483647,0,0,1,1,2,2,4,4,5,5,7,7,10,10,13,13],"right_children":[2,4,6,-1,8,10,-1,12,-1,-1,14,-1,-1,16,-1,-1,-1],"split_conditions":[4.2793834E-1,-2.242561E-1,-3.6007065E-1,1.2068443E1,1.3745308E0,-2.1733516E2,1.2157674E1,3.8797903E-1,1.2099932E1,1.1713266E1,5.1579304E0,1.202202E1,1.2082465E1,-2.2907336E-1,1.2013502E1,1.2049017E1,1.2093709E1],"split_indices":[3,3,0,0,1,5,0,4,0,0,4,0,0,5,0,0,0],"split_type":[0,0,0,0,0,0,0,0,0,0,0,0,0,0,0,0,0],"sum_hessian":[1.75E6,1.209016E6,5.40984E5,6.12184E5,5.96832E5,3.76982E5,1.64002E5,5.4906E5,4.7772E4,2.046E3,3.74936E5,4.94285E5,5.4775E4,3.13556E5,6.138E4,1.32036E5,1.8152E5],"tree_param":{"num_deleted":"0","num_feature":"8","num_nodes":"17","size_leaf_vector":"0"}},{"base_weights":[1.1943221E3,1.1930946E3,1.1970844E3,1.1947136E3,1.1913322E3,1.1942466E3,1.2036328E3,1.1907325E3,1.1978029E3,1.1575941E3,1.1944247E3,1.1901404E3,1.1960038E3,1.1954313E3,1.1892998E3,1.1928568E3,1.1973038E3],"categories":[],"categories_nodes":[],"categories_segments":[],"categories_sizes":[],"default_left":[true,true,true,false,true,true,false,true,false,false,true,false,false,true,false,false,false],"id":22,"left_children":[1,3,5,-1,7,9,-1,11,-1,-1,13,-1,-1,15,-1,-1,-1],"loss_changes":[4.718592E6,2.097152E6,8.585216E6,0E0,8.51968E5,1.081344E6,0E0,2.62144E5,0E0,0E0,5.24288E5,0E0,0E0,6.5536E4,0E0,0E0,0E0],"parents":[2147483647,0,0,1,1,2,2,4,4,5,5,7,7,10,10,13,13],"right_children":[2,4,6,-1,8,10,-1,12,-1,-1,14,-1,-1,16,-1,-1,-1],"split_conditions":[4.3570477E-1,-2.083468E-1,-3.6430997E-1,1.1947136E1,1.2293593E0,-3.6004132E2,1.2036328E1,3.64708E-1,1.1978028E1,1.1575941E1,5.1583858E0,1.1901403E1,1.1960037E1,-2.2907336E-1,1.1892998E1,1.1928568E1,1.1973038E1],"split_indices":[3,3,0,0,1,5,0,4,0,0,4,0,0,5,0,0,0],"split_type":[0,0,0,0,0,0,0,0,0,0,0,0,0,0,0,0,0],"sum_hessian":[1.75E6,1.211872E6,5.38128E5,6.31292E5,5.8058E5,3.75562E5,1.62566E5,5.3151E5,4.907E4,1.848E3,3.73714E5,4.78039E5,5.3471E4,3.12169E5,6.1545E4,1.31716E5,1.80453E5],"tree_param":{"num_deleted":"0","num_feature":"8","num_nodes":"17","size_leaf_vector":"0"}},{"base_weights":[1.182379E3,1.1811741E3,1.1851134E3,1.1801729E3,1.1840063E3,1.1823186E3,1.191619E3,1.1835231E3,1.1794602E3,1.1472815E3,1.1825012E3,1.1789395E3,1.1858894E3,1.1835151E3,1.1774718E3,1.1809469E3,1.1853918E3],"categories":[],"categories_nodes":[],"categories_segments":[],"categories_sizes":[],"default_left":[true,true,true,true,false,true,false,false,true,false,true,false,false,true,false,false,false],"id":23,"left_children":[1,3,5,7,-1,9,-1,-1,11,-1,13,-1,-1,15,-1,-1,-1],"loss_changes":[4.718592E6,2.097152E6,8.323072E6,7.86432E5,0E0,1.048576E6,0E0,0E0,1.114112E6,0E0,5.24288E5,0E0,0E0,9.8304E4,0E0,0E0,0E0],"parents":[2147483647,0,0,1,1,2,2,3,3,5,5,8,8,10,10,13,13],"right_children":[2,4,6,8,-1,10,-1,-1,12,-1,14,-1,-1,16,-1,-1,-1],"split_conditions":[4.443975E-1,2.4244386E-1,-3.614239E-1,-5.175754E-1,1.1840063E1,-2.6491962E2,1.191619E1,1.1835231E1,1.2888296E0,1.1472815E1,5.139739E0,1.1789394E1,1.1858893E1,-2.2912502E-1,1.1774717E1,1.1809468E1,1.1853918E1],"split_indices":[3,4,0,3,0,5,0,0,1,0,4,0,0,5,0,0,0],"split_type":[0,0,0,0,0,0,0,0,0,0,0,0,0,0,0,0,0],"sum_hessian":[1.75E6,1.21503E6,5.3497E5,8.97996E5,3.17034E5,3.74337E5,1.60633E5,1.57221E5,7.40775E5,1.974E3,3.72363E5,6.8544E5,5.5335E4,3.09696E5,6.2667E4,1.31025E5,1.78671E5],"tree_param":{"num_deleted":"0","num_feature":"8","num_nodes":"17","size_leaf_vector":"0"}},{"base_weights":[1.1705553E3,1.1693616E3,1.1732627E3,1.1683331E3,1.1720991E3,1.170452E3,1.1796234E3,1.1718417E3,1.1676504E3,1.136223E3,1.1706356E3,1.1671282E3,1.1740132E3,1.1716177E3,1.1656532E3,1.1690858E3,1.1734739E3],"categories":[],"categories_nodes":[],"categories_segments":[],"categories_sizes":[],"default_left":[true,true,true,true,false,true,false,false,true,false,true,false,false,true,false,false,false],"id":24,"left_children":[1,3,5,7,-1,9,-1,-1,11,-1,13,-1,-1,15,-1,-1,-1],"loss_changes":[4.456448E6,2.097152E6,8.192E6,7.86432E5,0E0,1.015808E6,0E0,0E0,1.114112E6,0E0,4.58752E5,0E0,0E0,6.5536E4,0E0,0E0,0E0],"parents":[2147483647,0,0,1,1,2,2,3,3,5,5,8,8,10,10,13,13],"right_children":[2,4,6,8,-1,10,-1,-1,12,-1,14,-1,-1,16,-1,-1,-1],"split_conditions":[4.4384378E-1,2.1422729E-1,-4.2279452E-1,-5.372807E-1,1.1720991E1,-2.366594E2,1.1796234E1,1.1718416E1,1.2648768E0,1.136223E1,5.163868E0,1.1671282E1,1.1740131E1,-2.2907336E-1,1.1656531E1,1.1690858E1,1.1734738E1],"split_indices":[3,4,0,3,0,5,0,0,1,0,4,0,0,5,0,0,0],"split_type":[0,0,0,0,0,0,0,0,0,0,0,0,0,0,0,0,0],"sum_hessian":[1.75E6,1.21482E6,5.3518E5,8.83365E5,3.31455E5,3.71299E5,1.63881E5,1.43619E5,7.39746E5,2.014E3,3.69285E5,6.83811E5,5.5935E4,3.0829E5,6.0995E4,1.3068E5,1.7761E5],"tree_param":{"num_deleted":"0","num_feature":"8","num_nodes":"17","size_leaf_vector":"0"}},{"base_weights":[1.1588497E3,1.1576526E3,1.1615306E3,1.1566262E3,1.1603842E3,1.1587286E3,1.1677812E3,1.1600608E3,1.155935E3,1.1232899E3,1.1589031E3,1.1554119E3,1.1622773E3,1.1598843E3,1.1539943E3,1.1573872E3,1.1617094E3],"categories":[],"categories_nodes":[],"categories_segments":[],"categories_sizes":[],"default_left":[true,true,true,true,false,true,false,false,true,false,true,false,false,true,false,false,false],"id":25,"left_children":[1,3,5,7,-1,9,-1,-1,11,-1,13,-1,-1,15,-1,-1,-1],"loss_changes":[4.456448E6,2.097152E6,8.126464E6,7.86432E5,0E0,1.015808E6,0E0,0E0,1.114112E6,0E0,4.58752E5,0E0,0E0,6.5536E4,0E0,0E0,0E0],"parents":[2147483647,0,0,1,1,2,2,3,3,5,5,8,8,10,10,13,13],"right_children":[2,4,6,8,-1,10,-1,-1,12,-1,14,-1,-1,16,-1,-1,-1],"split_conditions":[4.309023E-1,2.1539645E-1,-4.280139E-1,-5.30221E-1,1.1603841E1,-3.5452148E2,1.1677813E1,1.1600608E1,1.268654E0,1.1232899E1,5.1511946E0,1.1554118E1,1.1622773E1,-2.2907336E-1,1.1539943E1,1.1573872E1,1.1617093E1],"split_indices":[3,4,0,3,0,5,0,0,1,0,4,0,0,5,0,0,0],"split_type":[0,0,0,0,0,0,0,0,0,0,0,0,0,0,0,0,0],"sum_hessian":[1.75E6,1.21006E6,5.3994E5,8.79875E5,3.30185E5,3.72944E5,1.66996E5,1.47106E5,7.32769E5,1.858E3,3.71086E5,6.77087E5,5.5682E4,3.09072E5,6.2014E4,1.30778E5,1.78294E5],"tree_param":{"num_deleted":"0","num_feature":"8","num_nodes":"17","size_leaf_vector":"0"}},{"base_weights":[1.1472614E3,1.1460912E3,1.1499153E3,1.1476478E3,1.1443898E3,1.1472017E3,1.1562278E3,1.1438185E3,1.1506293E3,1.1135386E3,1.14738E3,1.1433016E3,1.1491936E3,1.1483335E3,1.1424424E3,1.1458551E3,1.1501393E3],"categories":[],"categories_nodes":[],"categories_segments":[],"categories_sizes":[],"default_left":[true,true,true,false,true,true,false,true,false,false,true,false,false,true,false,false,false],"id":26,"left_children":[1,3,5,-1,7,9,-1,11,-1,-1,13,-1,-1,15,-1,-1,-1],"loss_changes":[4.456448E6,1.96608E6,7.86432E6,0E0,7.86432E5,9.8304E5,0E0,1.96608E5,0E0,0E0,4.58752E5,0E0,0E0,6.5536E4,0E0,0E0,0E0],"parents":[2147483647,0,0,1,1,2,2,4,4,5,5,7,7,10,10,13,13],"right_children":[2,4,6,-1,8,10,-1,12,-1,-1,14,-1,-1,16,-1,-1,-1],"split_conditions":[4.4383115E-1,-2.0607199E-1,-3.6143863E-1,1.1476478E1,1.2641346E0,-2.431526E2,1.1562278E1,4.328869E-1,1.1506292E1,1.11353855E1,5.171944E0,1.1433016E1,1.1491936E1,-2.2907336E-1,1.1424423E1,1.145855E1,1.1501392E1],"split_indices":[3,3,0,0,1,5,0,4,0,0,4,0,0,5,0,0,0],"split_type":[0,0,0,0,0,0,0,0,0,0,0,0,0,0,0,0,0],"sum_hessian":[1.75E6,1.214814E6,5.35186E5,6.34046E5,5.80768E5,3.74417E5,1.60769E5,5.32213E5,4.8555E4,2.006E3,3.72411E5,4.85729E5,4.6484E4,3.11941E5,6.047E4,1.31749E5,1.80192E5],"tree_param":{"num_deleted":"0","num_feature":"8","num_nodes":"17","size_leaf_vector":"0"}},{"base_weights":[1.1357888E3,1.1346537E3,1.13842E3,1.1361971E3,1.1330326E3,1.1346951E3,1.1431035E3,1.1324912E3,1.1391594E3,1.1022512E3,1.1349126E3,1.1439778E3,1.1366582E3,1.1319673E3,1.1375417E3],"categories":[],"categories_nodes":[],"categories_segments":[],"categories_sizes":[],"default_left":[true,true,true,false,true,true,true,true,false,false,false,false,false,false,false],"id":27,"left_children":[1,3,5,-1,7,9,11,13,-1,-1,-1,-1,-1,-1,-1],"loss_changes":[4.194304E6,1.835008E6,7.86432E6,0E0,7.20896E5,8.51968E5,3.2768E4,1.96608E5,0E0,0E0,0E0,0E0,0E0,0E0,0E0],"parents":[2147483647,0,0,1,1,2,2,4,4,5,5,6,6,7,7],"right_children":[2,4,6,-1,8,10,12,14,-1,-1,-1,-1,-1,-1,-1],"split_conditions":[4.6541774E-1,-2.1258643E-1,-3.28611E0,1.1361971E1,1.3228449E0,-2.516771E2,6.2207925E-1,4.0657258E-1,1.1391594E1,1.1022512E1,1.1349126E1,1.1439777E1,1.1366582E1,1.1319673E1,1.1375417E1],"split_indices":[3,3,0,0,1,5,1,4,0,0,0,0,0,0,0],"split_type":[0,0,0,0,0,0,0,0,0,0,0,0,0,0,0],"sum_hessian":[1.75E6,1.222882E6,5.27118E5,6.26088E5,5.96794E5,2.93737E5,2.33381E5,5.48514E5,4.828E4,1.991E3,2.91746E5,2.0535E5,2.8031E4,4.97158E5,5.1356E4],"tree_param":{"num_deleted":"0","num_feature":"8","num_nodes":"15","size_leaf_vector":"0"}},{"base_weights":[1.1244309E3,1.1232894E3,1.127034E3,1.1223153E3,1.125974E3,1.1242438E3,1.1329984E3,1.1257938E3,1.1216631E3,1.0911213E3,1.1244221E3,1.1211815E3,1.1277992E3,1.1254098E3,1.1197489E3,1.1229349E3,1.127261E3],"categories":[],"categories_nodes":[],"categories_segments":[],"categories_sizes":[],"default_left":[true,true,true,true,false,true,false,false,true,false,true,false,false,true,false,false,false],"id":28,"left_children":[1,3,5,7,-1,9,-1,-1,11,-1,13,-1,-1,15,-1,-1,-1],"loss_changes":[4.194304E6,1.96608E6,7.602176E6,7.86432E5,0E0,9.50272E5,0E0,0E0,9.8304E5,0E0,4.25984E5,0E0,0E0,9.8304E4,0E0,0E0,0E0],"parents":[2147483647,0,0,1,1,2,2,3,3,5,5,8,8,10,10,13,13],"right_children":[2,4,6,8,-1,10,-1,-1,12,-1,14,-1,-1,16,-1,-1,-1],"split_conditions":[4.4938222E-1,2.2998838E-1,-5.3419495E-1,-5.476504E-1,1.125974E1,-2.6078424E2,1.1329984E1,1.1257938E1,1.3184868E0,1.0911213E1,5.130368E0,1.1211815E1,1.1277991E1,-2.2907336E-1,1.1197489E1,1.1229349E1,1.127261E1],"split_indices":[3,4,0,3,0,5,0,0,1,0,4,0,0,5,0,0,0],"split_type":[0,0,0,0,0,0,0,0,0,0,0,0,0,0,0,0,0],"sum_hessian":[1.75E6,1.216835E6,5.33165E5,8.93152E5,3.23683E5,3.63363E5,1.69802E5,1.40765E5,7.52387E5,1.979E3,3.61384E5,6.97808E5,5.4579E4,2.98131E5,6.3253E4,1.27835E5,1.70296E5],"tree_param":{"num_deleted":"0","num_feature":"8","num_nodes":"17","size_leaf_vector":"0"}},{"base_weights":[1.1131868E3,1.112019E3,1.1157625E3,1.113489E3,1.1102456E3,1.1130885E3,1.1218384E3,1.1096831E3,1.1165304E3,1.0803689E3,1.1132588E3,1.1091962E3,1.1151451E3,1.1142039E3,1.1085541E3,1.1088877E3,1.1150756E3],"categories":[],"categories_nodes":[],"categories_segments":[],"categories_sizes":[],"default_left":[true,true,true,false,true,true,false,true,false,false,true,false,false,true,false,false,false],"id":29,"left_children":[1,3,5,-1,7,9,-1,11,-1,-1,13,-1,-1,15,-1,-1,-1],"loss_changes":[4.063232E6,1.96608E6,7.602176E6,0E0,7.20896E5,9.50272E5,0E0,1.31072E5,0E0,0E0,4.58752E5,0E0,0E0,2.29376E5,0E0,0E0,0E0],"parents":[2147483647,0,0,1,1,2,2,4,4,5,5,7,7,10,10,13,13],"right_children":[2,4,6,-1,8,10,-1,12,-1,-1,14,-1,-1,16,-1,-1,-1],"split_conditions":[4.1476494E-1,-1.8639408E-1,-3.6007065E-1,1.113489E1,1.423088E0,-2.4929784E2,1.1218384E1,4.3505746E-1,1.1165303E1,1.0803689E1,5.130056E0,1.1091962E1,1.1151451E1,7.709923E-1,1.1085541E1,1.1088877E1,1.1150755E1],"split_indices":[3,3,0,0,1,5,0,4,0,0,4,0,0,3,0,0,0],"split_type":[0,0,0,0,0,0,0,0,0,0,0,0,0,0,0,0,0],"sum_hessian":[1.75E6,1.20441E6,5.4559E5,6.58194E5,5.46216E5,3.78988E5,1.66602E5,5.01501E5,4.4715E4,1.995E3,3.76993E5,4.60646E5,4.0855E4,3.13733E5,6.326E4,4.4377E4,2.69356E5],"tree_param":{"num_deleted":"0","num_feature":"8","num_nodes":"17","size_leaf_vector":"0"}},{"base_weights":[1.1020549E3,1.100923E3,1.104607E3,1.0999474E3,1.1035714E3,1.1019836E3,1.1106797E3,1.1036989E3,1.0993331E3,1.068878E3,1.1021514E3,1.0988584E3,1.1053324E3,1.103083E3,1.0973959E3,1.0977389E3,1.1038989E3],"categories":[],"categories_nodes":[],"categories_segments":[],"categories_sizes":[],"default_left":[true,true,true,true,false,true,false,false,true,false,true,false,false,true,false,false,false],"id":30,"left_children":[1,3,5,7,-1,9,-1,-1,11,-1,13,-1,-1,15,-1,-1,-1],"loss_changes":[4.063232E6,1.96608E6,7.340032E6,8.51968E5,0E0,9.17504E5,0E0,0E0,9.8304E5,0E0,4.58752E5,0E0,0E0,1.6384E5,0E0,0E0,0E0],"parents":[2147483647,0,0,1,1,2,2,3,3,5,5,8,8,10,10,13,13],"right_children":[2,4,6,8,-1,10,-1,-1,12,-1,14,-1,-1,16,-1,-1,-1],"split_conditions":[4.3780765E-1,2.2408295E-1,-3.6053777E-1,-5.844822E-1,1.1035714E1,-3.0021173E2,1.1106796E1,1.1036988E1,1.2752254E0,1.068878E1,5.159879E0,1.0988584E1,1.1053324E1,7.7923715E-1,1.0973959E1,1.0977388E1,1.1038989E1],"split_indices":[3,4,0,3,0,5,0,0,1,0,4,0,0,3,0,0,0],"split_type":[0,0,0,0,0,0,0,0,0,0,0,0,0,0,0,0,0],"sum_hessian":[1.75E6,1.212631E6,5.37369E5,8.86496E5,3.26135E5,3.75382E5,1.61987E5,1.24491E5,7.62005E5,1.925E3,3.73457E5,7.06304E5,5.5701E4,3.12091E5,6.1366E4,4.1518E4,2.70573E5],"tree_param":{"num_deleted":"0","num_feature":"8","num_nodes":"17","size_leaf_vector":"0"}},{"base_weights":[1.0910344E3,1.0898818E3,1.0935532E3,1.0913397E3,1.0881163E3,1.091076E3,1.099828E3,1.087556E3,1.0943025E3,1.0579784E3,1.0912341E3,1.0870743E3,1.0929802E3,1.0921342E3,1.0864358E3,1.0869299E3,1.0930276E3],"categories":[],"categories_nodes":[],"categories_segments":[],"categories_sizes":[],"default_left":[true,true,true,false,true,true,false,true,false,false,true,false,false,true,false,false,false],"id":31,"left_children":[1,3,5,-1,7,9,-1,11,-1,-1,13,-1,-1,15,-1,-1,-1],"loss_changes":[4.063232E6,1.96608E6,7.340032E6,0E0,7.20896E5,9.17504E5,0E0,1.31072E5,0E0,0E0,5.24288E5,0E0,0E0,3.60448E5,0E0,0E0,0E0],"parents":[2147483647,0,0,1,1,2,2,4,4,5,5,7,7,10,10,13,13],"right_children":[2,4,6,-1,8,10,-1,12,-1,-1,14,-1,-1,16,-1,-1,-1],"split_conditions":[4.0513864E-1,-1.8706453E-1,-2.055017E-1,1.0913397E1,1.4013225E0,-3.182968E2,1.099828E1,4.3739772E-1,1.0943025E1,1.0579783E1,5.149557E0,1.0870743E1,1.0929802E1,7.3732495E-1,1.0864358E1,1.0869299E1,1.0930276E1],"split_indices":[3,3,0,0,1,5,0,4,0,0,4,0,0,3,0,0,0],"split_type":[0,0,0,0,0,0,0,0,0,0,0,0,0,0,0,0,0],"sum_hessian":[1.75E6,1.200938E6,5.49062E5,6.57435E5,5.43503E5,3.93776E5,1.55286E5,4.98526E5,4.4977E4,1.903E3,3.91873E5,4.58047E5,4.0479E4,3.29784E5,6.2089E4,4.8495E4,2.81289E5],"tree_param":{"num_deleted":"0","num_feature":"8","num_nodes":"17","size_leaf_vector":"0"}},{"base_weights":[1.0801241E3,1.0790226E3,1.0826237E3,1.0780989E3,1.081684E3,1.0790446E3,1.0869803E3,1.0813618E3,1.0774489E3,1.0476117E3,1.0792482E3,1.0879619E3,1.0809209E3,1.0769681E3,1.083314E3,1.0734279E3,1.0857698E3],"categories":[],"categories_nodes":[],"categories_segments":[],"categories_sizes":[],"default_left":[true,true,true,true,false,true,true,false,true,false,false,false,true,false,false,false,false],"id":32,"left_children":[1,3,5,7,-1,9,11,-1,13,-1,-1,-1,15,-1,-1,-1,-1],"loss_changes":[3.801088E6,1.835008E6,7.143424E6,7.86432E5,0E0,7.86432E5,2.62144E5,0E0,9.8304E5,0E0,0E0,0E0,6.144E4,0E0,0E0,0E0,0E0],"parents":[2147483647,0,0,1,1,2,2,3,3,5,5,6,6,8,8,12,12],"right_children":[2,4,6,8,-1,10,12,-1,14,-1,-1,-1,16,-1,-1,-1,-1],"split_conditions":[4.44263E-1,2.5089097E-1,-3.28611E0,-5.3480864E-1,1.0816839E1,-3.0044043E2,5.945934E-1,1.0813618E1,1.2280028E0,1.0476117E1,1.0792481E1,1.0879619E1,-3.3978724E-1,1.0769681E1,1.0833139E1,1.0734279E1,1.08576975E1],"split_indices":[3,4,0,3,0,5,1,0,1,0,0,0,4,0,0,0,0],"split_type":[0,0,0,0,0,0,0,0,0,0,0,0,0,0,0,0,0],"sum_hessian":[1.75E6,1.21498E6,5.3502E5,9.02238E5,3.12742E5,2.9386E5,2.4116E5,1.49588E5,7.5265E5,1.924E3,2.91936E5,2.07385E5,3.3775E4,6.95798E5,5.6852E4,1.3357E4,2.0418E4],"tree_param":{"num_deleted":"0","num_feature":"8","num_nodes":"17","size_leaf_vector":"0"}},{"base_weights":[1.069323E3,1.0682E3,1.0717982E3,1.0695741E3,1.0664404E3,1.0692218E3,1.0776499E3,1.0658936E3,1.0725515E3,1.0375309E3,1.0693842E3,1.0654075E3,1.0709443E3,1.0702805E3,1.0647822E3,1.0652561E3,1.0711373E3],"categories":[],"categories_nodes":[],"categories_segments":[],"categories_sizes":[],"default_left":[true,true,true,false,true,true,false,true,false,false,true,false,false,true,false,false,false],"id":33,"left_children":[1,3,5,-1,7,9,-1,11,-1,-1,13,-1,-1,15,-1,-1,-1],"loss_changes":[3.93216E6,1.835008E6,7.077888E6,0E0,6.5536E5,8.51968E5,0E0,6.5536E4,0E0,0E0,4.25984E5,0E0,0E0,2.29376E5,0E0,0E0,0E0],"parents":[2147483647,0,0,1,1,2,2,4,4,5,5,7,7,10,10,13,13],"right_children":[2,4,6,-1,8,10,-1,12,-1,-1,14,-1,-1,16,-1,-1,-1],"split_conditions":[4.1399843E-1,-1.7219031E-1,-3.6007065E-1,1.0695741E1,1.4572251E0,-2.705523E2,1.0776499E1,3.7987107E-1,1.0725515E1,1.0375309E1,5.154621E0,1.0654075E1,1.0709443E1,7.896712E-1,1.0647822E1,1.0652561E1,1.0711373E1],"split_indices":[3,3,0,0,1,5,0,4,0,0,4,0,0,3,0,0,0],"split_type":[0,0,0,0,0,0,0,0,0,0,0,0,0,0,0,0,0],"sum_hessian":[1.75E6,1.20412E6,5.4588E5,6.75728E5,5.28392E5,3.7913E5,1.6675E5,4.85144E5,4.3248E4,1.965E3,3.77165E5,4.42749E5,4.2395E4,3.15482E5,6.1683E4,4.6145E4,2.69337E5],"tree_param":{"num_deleted":"0","num_feature":"8","num_nodes":"17","size_leaf_vector":"0"}},{"base_weights":[1.0586298E3,1.0575352E3,1.061082E3,1.0590044E3,1.0559108E3,1.0585459E3,1.0669164E3,1.0553688E3,1.0617336E3,1.0262052E3,1.0587042E3,1.0548849E3,1.060481E3,1.0596254E3,1.054166E3,1.0545886E3,1.0604567E3],"categories":[],"categories_nodes":[],"categories_segments":[],"categories_sizes":[],"default_left":[true,true,true,false,true,true,false,true,false,false,true,false,false,true,false,false,false],"id":34,"left_children":[1,3,5,-1,7,9,-1,11,-1,-1,13,-1,-1,15,-1,-1,-1],"loss_changes":[3.670016E6,1.835008E6,6.88128E6,0E0,7.20896E5,8.51968E5,0E0,1.96608E5,0E0,0E0,4.58752E5,0E0,0E0,1.96608E5,0E0,0E0,0E0],"parents":[2147483647,0,0,1,1,2,2,4,4,5,5,7,7,10,10,13,13],"right_children":[2,4,6,-1,8,10,-1,12,-1,-1,14,-1,-1,16,-1,-1,-1],"split_conditions":[4.3134427E-1,-2.0522955E-1,-3.6194056E-1,1.0590044E1,1.2298272E0,-3.454575E2,1.0669164E1,4.398456E-1,1.0617336E1,1.0262052E1,5.130156E0,1.0548849E1,1.060481E1,7.9954016E-1,1.054166E1,1.0545886E1,1.0604567E1],"split_indices":[3,3,0,0,1,5,0,4,0,0,4,0,0,3,0,0,0],"split_type":[0,0,0,0,0,0,0,0,0,0,0,0,0,0,0,0,0],"sum_hessian":[1.75E6,1.210207E6,5.39793E5,6.3508E5,5.75127E5,3.7637E5,1.63423E5,5.26316E5,4.8811E4,1.866E3,3.74504E5,4.80997E5,4.5319E4,3.11127E5,6.3377E4,4.4258E4,2.66869E5],"tree_param":{"num_deleted":"0","num_feature":"8","num_nodes":"17","size_leaf_vector":"0"}},{"base_weights":[1.0480435E3,1.0469658E3,1.0504708E3,1.0484929E3,1.045418E3,1.046974E3,1.0546805E3,1.0448995E3,1.05114E3,1.01606836E3,1.0471693E3,1.0558015E3,1.0493301E3,1.0443823E3,1.0498281E3,1.0415258E3,1.0536246E3],"categories":[],"categories_nodes":[],"categories_segments":[],"categories_sizes":[],"default_left":[true,true,true,false,true,true,true,true,false,false,false,false,true,false,false,false,false],"id":35,"left_children":[1,3,5,-1,7,9,11,13,-1,-1,-1,-1,15,-1,-1,-1,-1],"loss_changes":[3.670016E6,1.835008E6,6.815744E6,0E0,7.20896E5,7.20896E5,3.60448E5,3.2768E5,0E0,0E0,0E0,0E0,3.23584E5,0E0,0E0,0E0,0E0],"parents":[2147483647,0,0,1,1,2,2,4,4,5,5,6,6,7,7,12,12],"right_children":[2,4,6,-1,8,10,12,14,-1,-1,-1,-1,16,-1,-1,-1,-1],"split_conditions":[4.366729E-1,-2.2622883E-1,-3.2864614E0,1.0484929E1,1.25103E0,-3.3576434E2,5.4071784E-1,4.192781E-1,1.05114E1,1.0160684E1,1.0471693E1,1.0558015E1,-3.765456E-1,1.0443823E1,1.04982815E1,1.0415257E1,1.0536246E1],"split_indices":[3,3,0,0,1,5,1,4,0,0,0,0,4,0,0,0,0],"split_type":[0,0,0,0,0,0,0,0,0,0,0,0,0,0,0,0,0],"sum_hessian":[1.75E6,1.212233E6,5.37767E5,6.09871E5,6.02362E5,2.93893E5,2.43874E5,5.52493E5,4.9869E4,1.879E3,2.92014E5,2.01467E5,4.2407E4,5.00209E5,5.2284E4,1.5139E4,2.7268E4],"tree_param":{"num_deleted":"0","num_feature":"8","num_nodes":"17","size_leaf_vector":"0"}},{"base_weights":[1.0375631E3,1.0364799E3,1.0399678E3,1.0379557E3,1.0348818E3,1.0374683E3,1.0456759E3,1.0343488E3,1.0406051E3,1.0059131E3,1.0376233E3,1.0338468E3,1.0393263E3,1.038529E3,1.0331644E3,1.0333711E3,1.0393508E3],"categories":[],"categories_nodes":[],"categories_segments":[],"categories_sizes":[],"default_left":[true,true,true,false,true,true,false,true,false,false,true,false,false,true,false,false,false],"id":36,"left_children":[1,3,5,-1,7,9,-1,11,-1,-1,13,-1,-1,15,-1,-1,-1],"loss_changes":[3.538944E6,1.835008E6,6.684672E6,0E0,7.20896E5,8.192E5,0E0,2.62144E5,0E0,0E0,4.58752E5,0E0,0E0,2.62144E5,0E0,0E0,0E0],"parents":[2147483647,0,0,1,1,2,2,4,4,5,5,7,7,10,10,13,13],"right_children":[2,4,6,-1,8,10,-1,12,-1,-1,14,-1,-1,16,-1,-1,-1],"split_conditions":[4.214121E-1,-2.1184961E-1,-3.6008507E-1,1.0379557E1,1.2215116E0,-3.3576434E2,1.04567585E1,4.1704935E-1,1.0406051E1,1.0059131E1,5.1249876E0,1.0338468E1,1.0393263E1,7.685584E-1,1.0331644E1,1.0333711E1,1.0393508E1],"split_indices":[3,3,0,0,1,5,0,4,0,0,4,0,0,3,0,0,0],"split_type":[0,0,0,0,0,0,0,0,0,0,0,0,0,0,0,0,0],"sum_hessian":[1.75E6,1.206754E6,5.43246E5,6.27021E5,5.79733E5,3.7794E5,1.65306E5,5.30503E5,4.923E4,1.879E3,3.76061E5,4.82105E5,4.8398E4,3.12375E5,6.3686E4,4.3102E4,2.69273E5],"tree_param":{"num_deleted":"0","num_feature":"8","num_nodes":"17","size_leaf_vector":"0"}},{"base_weights":[1.0271876E3,1.0261112E3,1.0295675E3,1.0275944E3,1.024532E3,1.0270897E3,1.0352091E3,1.0240321E3,1.0302865E3,9.957651E2,1.0272424E3,1.0235457E3,1.029012E3,1.0281095E3,1.02275854E3,1.02327625E3,1.0289401E3],"categories":[],"categories_nodes":[],"categories_segments":[],"categories_sizes":[],"default_left":[true,true,true,false,true,true,false,true,false,false,true,false,false,true,false,false,false],"id":37,"left_children":[1,3,5,-1,7,9,-1,11,-1,-1,13,-1,-1,15,-1,-1,-1],"loss_changes":[3.538944E6,1.835008E6,6.5536E6,0E0,6.5536E5,8.192E5,0E0,2.62144E5,0E0,0E0,4.25984E5,0E0,0E0,2.29376E5,0E0,0E0,0E0],"parents":[2147483647,0,0,1,1,2,2,4,4,5,5,7,7,10,10,13,13],"right_children":[2,4,6,-1,8,10,-1,12,-1,-1,14,-1,-1,16,-1,-1,-1],"split_conditions":[4.1716123E-1,-2.16717E-1,-3.6007065E-1,1.0275944E1,1.4158721E0,-3.439051E2,1.0352091E1,4.4008732E-1,1.0302865E1,9.95765E0,5.1623735E0,1.0235456E1,1.0290119E1,7.997968E-1,1.0227585E1,1.0232762E1,1.02894E1],"split_indices":[3,3,0,0,1,5,0,4,0,0,4,0,0,3,0,0,0],"split_type":[0,0,0,0,0,0,0,0,0,0,0,0,0,0,0,0,0],"sum_hessian":[1.75E6,1.205285E6,5.44715E5,6.21209E5,5.84076E5,3.78612E5,1.66103E5,5.3756E5,4.6516E4,1.869E3,3.76743E5,4.89923E5,4.7637E4,3.15508E5,6.1235E4,4.6453E4,2.69055E5],"tree_param":{"num_deleted":"0","num_feature":"8","num_nodes":"17","size_leaf_vector":"0"}},{"base_weights":[1.0169158E3,1.015875E3,1.01927094E3,1.0149224E3,1.0183433E3,1.0158555E3,1.0234116E3,1.01831494E3,1.014322E3,9.857358E2,1.016044E3,1.0243956E3,1.01769916E3,1.0138658E3,1.0199834E3,1.0105126E3,1.0223003E3],"categories":[],"categories_nodes":[],"categories_segments":[],"categories_sizes":[],"default_left":[true,true,true,true,false,true,true,false,true,false,false,false,true,false,false,false,false],"id":38,"left_children":[1,3,5,7,-1,9,11,-1,13,-1,-1,-1,15,-1,-1,-1,-1],"loss_changes":[3.407872E6,1.835008E6,6.488064E6,7.86432E5,0E0,6.88128E5,3.2768E5,0E0,9.17504E5,0E0,0E0,0E0,1.47456E5,0E0,0E0,0E0,0E0],"parents":[2147483647,0,0,1,1,2,2,3,3,5,5,6,6,8,8,12,12],"right_children":[2,4,6,8,-1,10,12,-1,14,-1,-1,-1,16,-1,-1,-1,-1],"split_conditions":[4.4151986E-1,2.0126635E-1,-3.28611E0,-5.61658E-1,1.0183433E1,-3.525869E2,5.8179E-1,1.0183149E1,1.288624E0,9.857358E0,1.01604395E1,1.0243956E1,-3.3890727E-1,1.0138658E1,1.0199834E1,1.0105125E1,1.0223002E1],"split_indices":[3,4,0,3,0,5,1,0,1,0,0,0,4,0,0,0,0],"split_type":[0,0,0,0,0,0,0,0,0,0,0,0,0,0,0,0,0],"sum_hessian":[1.75E6,1.213982E6,5.36018E5,8.76236E5,3.37746E5,2.93869E5,2.42149E5,1.31501E5,7.44735E5,1.86E3,2.92009E5,2.06416E5,3.5733E4,6.89365E5,5.537E4,1.4034E4,2.1699E4],"tree_param":{"num_deleted":"0","num_feature":"8","num_nodes":"17","size_leaf_vector":"0"}},{"base_weights":[1.00674664E3,1.0057153E3,1.0090783E3,1.0071854E3,1.004229E3,1.00569714E3,1.0131716E3,1.00373804E3,1.00975165E3,9.7668274E2,1.00588763E3,1.014275E3,1.00810333E3,1.0032119E3,1.0082735E3,1.00035986E3,1.012193E3],"categories":[],"categories_nodes":[],"categories_segments":[],"categories_sizes":[],"default_left":[true,true,true,false,true,true,true,true,false,false,false,false,true,false,false,false,false],"id":39,"left_children":[1,3,5,-1,7,9,11,13,-1,-1,-1,-1,15,-1,-1,-1,-1],"loss_changes":[3.2768E6,1.703936E6,6.422528E6,0E0,6.5536E5,6.5536E5,3.44064E5,3.2768E5,0E0,0E0,0E0,0E0,3.64544E5,0E0,0E0,0E0,0E0],"parents":[2147483647,0,0,1,1,2,2,4,4,5,5,6,6,7,7,12,12],"right_children":[2,4,6,-1,8,10,12,14,-1,-1,-1,-1,16,-1,-1,-1,-1],"split_conditions":[4.40507E-1,-2.26295E-1,-3.28611E0,1.0071854E1,1.306495E0,-2.8136755E2,5.297595E-1,3.7294483E-1,1.0097516E1,9.766828E0,1.0058876E1,1.014275E1,-3.8137394E-1,1.0032119E1,1.0082735E1,1.0003598E1,1.012193E1],"split_indices":[3,3,0,0,1,5,1,4,0,0,0,0,4,0,0,0,0],"split_type":[0,0,0,0,0,0,0,0,0,0,0,0,0,0,0,0,0],"sum_hessian":[1.75E6,1.213625E6,5.36375E5,6.09791E5,6.03834E5,2.93874E5,2.42501E5,5.54705E5,4.9129E4,1.95E3,2.91924E5,1.98981E5,4.352E4,4.97244E5,5.7461E4,1.5126E4,2.8394E4],"tree_param":{"num_deleted":"0","num_feature":"8","num_nodes":"17","size_leaf_vector":"0"}},{"base_weights":[9.9667926E2,9.956268E2,9.989889E2,9.947258E2,9.981922E2,9.967106E2,1.0047914E3,9.979757E2,9.9410156E2,9.9765735E2,9.917984E2,9.9364856E2,9.996645E2,9.9254944E2,9.9848975E2,9.96717E2,1.00514966E3],"categories":[],"categories_nodes":[],"categories_segments":[],"categories_sizes":[],"default_left":[true,true,true,true,false,true,false,false,true,true,false,false,false,false,true,false,false],"id":40,"left_children":[1,3,5,7,-1,9,-1,-1,11,13,-1,-1,-1,-1,15,-1,-1],"loss_changes":[3.407872E6,1.835008E6,6.258688E6,8.51968E5,0E0,8.51968E5,0E0,0E0,9.17504E5,4.25984E5,0E0,0E0,0E0,0E0,2.326528E6,0E0,0E0],"parents":[2147483647,0,0,1,1,2,2,3,3,5,5,8,8,9,9,14,14],"right_children":[2,4,6,8,-1,10,-1,-1,12,14,-1,-1,-1,-1,16,-1,-1],"split_conditions":[4.0949076E-1,2.4867296E-1,-1.9851276E-1,-5.4732424E-1,9.981922E0,5.1462765E0,1.0047914E1,9.979757E0,1.2427711E0,7.2310865E-1,9.917984E0,9.936485E0,9.996645E0,9.925494E0,-3.28611E0,9.96717E0,1.00514965E1],"split_indices":[3,4,0,3,0,4,0,0,1,3,0,0,0,0,0,0,0],"split_type":[0,0,0,0,0,0,0,0,0,0,0,0,0,0,0,0,0],"sum_hessian":[1.75E6,1.202485E6,5.47515E5,8.90236E5,3.12249E5,3.9327E5,1.54245E5,1.43195E5,7.47041E5,3.29549E5,6.3721E4,6.90959E5,5.6082E4,4.6345E4,2.83204E5,2.23787E5,5.9417E4],"tree_param":{"num_deleted":"0","num_feature":"8","num_nodes":"17","size_leaf_vector":"0"}},{"base_weights":[9.8671246E2,9.8568445E2,9.8900024E2,9.84744E2,9.8811395E2,9.859525E2,9.9328503E2,9.880701E2,9.841483E2,9.574593E2,9.861308E2,9.947788E2,9.881657E2,9.8369147E2,9.896663E2,9.841391E2,9.8793964E2,9.807224E2,9.920588E2],"categories":[],"categories_nodes":[],"categories_segments":[],"categories_sizes":[],"default_left":[true,true,true,true,false,true,true,false,true,false,true,false,true,false,false,false,false,false,false],"id":41,"left_children":[1,3,5,7,-1,9,11,-1,13,-1,15,-1,17,-1,-1,-1,-1,-1,-1],"loss_changes":[3.2768E6,1.835008E6,6.094848E6,7.86432E5,0E0,6.88128E5,7.53664E5,0E0,9.17504E5,0E0,1.31072E5,0E0,5.03808E5,0E0,0E0,0E0,0E0,0E0,0E0],"parents":[2147483647,0,0,1,1,2,2,3,3,5,5,6,6,8,8,10,10,12,12],"right_children":[2,4,6,8,-1,10,12,-1,14,-1,16,-1,18,-1,-1,-1,-1,-1,-1],"split_conditions":[4.243114E-1,2.0158023E-1,-1.4801927E0,-5.60341E-1,9.88114E0,-2.4343442E2,4.9218816E-1,9.880701E0,1.2411385E0,9.574593E0,-2.2907075E-1,9.947788E0,-3.875828E-1,9.836914E0,9.896663E0,9.841391E0,9.879396E0,9.807224E0,9.920588E0],"split_indices":[3,4,2,3,0,5,1,0,1,0,5,0,4,0,0,0,0,0,0],"split_type":[0,0,0,0,0,0,0,0,0,0,0,0,0,0,0,0,0,0,0],"sum_hessian":[1.75E6,1.207732E6,5.42268E5,8.70981E5,3.36751E5,3.17013E5,2.25255E5,1.32038E5,7.38943E5,2.005E3,3.15008E5,1.74226E5,5.1029E4,6.82602E5,5.6341E4,1.50184E5,1.64824E5,1.7611E4,3.3418E4],"tree_param":{"num_deleted":"0","num_feature":"8","num_nodes":"19","size_leaf_vector":"0"}},{"base_weights":[9.768454E2,9.758318E2,9.791096E2,9.7494934E2,9.7830927E2,9.7609235E2,9.833729E2,9.7815466E2,9.743529E2,9.4689764E2,9.762645E2,9.8480237E2,9.782418E2,9.7391797E2,9.797898E2,9.742901E2,9.7806036E2,9.707288E2,9.820961E2],"categories":[],"categories_nodes":[],"categories_segments":[],"categories_sizes":[],"default_left":[true,true,true,true,false,true,true,false,true,false,true,false,true,false,false,false,false,false,false],"id":42,"left_children":[1,3,5,7,-1,9,11,-1,13,-1,15,-1,17,-1,-1,-1,-1,-1,-1],"loss_changes":[3.145728E6,1.703936E6,5.996544E6,7.86432E5,0E0,6.88128E5,6.88128E5,0E0,8.51968E5,0E0,1.31072E5,0E0,4.62848E5,0E0,0E0,0E0,0E0,0E0,0E0],"parents":[2147483647,0,0,1,1,2,2,3,3,5,5,6,6,8,8,10,10,12,12],"right_children":[2,4,6,8,-1,10,12,-1,14,-1,16,-1,18,-1,-1,-1,-1,-1,-1],"split_conditions":[4.2834604E-1,2.4042577E-1,-1.4801927E0,-5.528449E-1,9.7830925E0,-3.2532056E2,5.0101423E-1,9.781547E0,1.2748308E0,9.468976E0,-2.2907075E-1,9.848023E0,-3.9998248E-1,9.73918E0,9.797897E0,9.742901E0,9.780603E0,9.707288E0,9.820961E0],"split_indices":[3,4,2,3,0,5,1,0,1,0,5,0,4,0,0,0,0,0,0],"split_type":[0,0,0,0,0,0,0,0,0,0,0,0,0,0,0,0,0,0,0],"sum_hessian":[1.75E6,1.209144E6,5.40856E5,8.91858E5,3.17286E5,3.16847E5,2.24009E5,1.3966E5,7.52198E5,1.89E3,3.14957E5,1.75051E5,4.8958E4,6.96646E5,5.5552E4,1.50278E5,1.64679E5,1.6686E4,3.2272E4],"tree_param":{"num_deleted":"0","num_feature":"8","num_nodes":"19","size_leaf_vector":"0"}},{"base_weights":[9.67077E2,9.660659E2,9.6932007E2,9.6517334E2,9.685027E2,9.6697815E2,9.7466626E2,9.684461E2,9.6458734E2,9.6792664E2,9.622647E2,9.641537E2,9.6999084E2,9.6552124E2,9.696742E2,9.6386914E2,9.7086316E2],"categories":[],"categories_nodes":[],"categories_segments":[],"categories_sizes":[],"default_left":[true,true,true,true,false,true,false,false,true,true,false,false,false,false,true,false,false],"id":43,"left_children":[1,3,5,7,-1,9,-1,-1,11,13,-1,-1,-1,-1,15,-1,-1],"loss_changes":[3.145728E6,1.703936E6,5.865472E6,7.86432E5,0E0,7.86432E5,0E0,0E0,8.51968E5,3.93216E5,0E0,0E0,0E0,0E0,3.2768E5,0E0,0E0],"parents":[2147483647,0,0,1,1,2,2,3,3,5,5,8,8,9,9,14,14],"right_children":[2,4,6,8,-1,10,-1,-1,12,14,-1,-1,-1,-1,16,-1,-1],"split_conditions":[4.208756E-1,2.2831073E-1,-3.6007065E-1,-5.628638E-1,9.685026E0,5.1494627E0,9.746662E0,9.684461E0,1.2733829E0,-2.2907336E-1,9.622647E0,9.641537E0,9.699908E0,9.655212E0,8.249155E-1,9.638691E0,9.7086315E0],"split_indices":[3,4,0,3,0,4,0,0,1,5,0,0,0,0,3,0,0],"split_type":[0,0,0,0,0,0,0,0,0,0,0,0,0,0,0,0,0],"sum_hessian":[1.75E6,1.206548E6,5.43452E5,8.83375E5,3.23173E5,3.78035E5,1.65417E5,1.339E5,7.49475E5,3.14537E5,6.3498E4,6.93964E5,5.5511E4,1.32592E5,1.81945E5,3.1069E4,1.50876E5],"tree_param":{"num_deleted":"0","num_feature":"8","num_nodes":"17","size_leaf_vector":"0"}},{"base_weights":[9.574063E2,9.564095E2,9.5962646E2,9.578612E2,9.5495074E2,9.5639667E2,9.634502E2,9.544892E2,9.60299E2,9.2747437E2,9.565772E2,9.6446344E2,9.5796643E2,9.5397577E2,9.589052E2,9.514307E2,9.622397E2],"categories":[],"categories_nodes":[],"categories_segments":[],"categories_sizes":[],"default_left":[true,true,true,false,true,true,true,true,false,false,false,false,true,false,false,false,false],"id":44,"left_children":[1,3,5,-1,7,9,11,13,-1,-1,-1,-1,15,-1,-1,-1,-1],"loss_changes":[3.014656E6,1.703936E6,5.767168E6,0E0,5.89824E5,6.5536E5,4.58752E5,3.60448E5,0E0,0E0,0E0,0E0,1.67936E5,0E0,0E0,0E0,0E0],"parents":[2147483647,0,0,1,1,2,2,4,4,5,5,6,6,7,7,12,12],"right_children":[2,4,6,-1,8,10,12,14,-1,-1,-1,-1,16,-1,-1,-1,-1],"split_conditions":[4.25165E-1,-2.3026775E-1,-3.28611E0,9.578611E0,1.3926241E0,-3.5614783E2,5.7622933E-1,3.7600005E-1,9.60299E0,9.274743E0,9.565772E0,9.644634E0,-3.3915317E-1,9.539758E0,9.589052E0,9.514307E0,9.622396E0],"split_indices":[3,3,0,0,1,5,1,4,0,0,0,0,4,0,0,0,0],"split_type":[0,0,0,0,0,0,0,0,0,0,0,0,0,0,0,0,0],"sum_hessian":[1.75E6,1.208039E6,5.41961E5,6.05148E5,6.02891E5,2.93933E5,2.48028E5,5.55167E5,4.7724E4,1.855E3,2.92078E5,2.092E5,3.8828E4,4.97532E5,5.7635E4,1.5439E4,2.3389E4],"tree_param":{"num_deleted":"0","num_feature":"8","num_nodes":"17","size_leaf_vector":"0"}},{"base_weights":[9.478323E2,9.4683734E2,9.50031E2,9.459263E2,9.491945E2,9.4785046E2,9.5555945E2,9.492496E2,9.453557E2,9.487541E2,9.43033E2,9.449218E2,9.50689E2,9.43768E2,9.49558E2,9.478623E2,9.5610767E2],"categories":[],"categories_nodes":[],"categories_segments":[],"categories_sizes":[],"default_left":[true,true,true,true,false,true,false,false,true,true,false,false,false,false,true,false,false],"id":45,"left_children":[1,3,5,7,-1,9,-1,-1,11,13,-1,-1,-1,-1,15,-1,-1],"loss_changes":[3.014656E6,1.703936E6,5.668864E6,7.86432E5,0E0,8.192E5,0E0,0E0,8.51968E5,4.25984E5,0E0,0E0,0E0,0E0,2.244608E6,0E0,0E0],"parents":[2147483647,0,0,1,1,2,2,3,3,5,5,8,8,9,9,14,14],"right_children":[2,4,6,8,-1,10,-1,-1,12,14,-1,-1,-1,-1,16,-1,-1],"split_conditions":[4.166182E-1,2.031453E-1,-2.1326898E-1,-5.7258004E-1,9.491945E0,5.1728516E0,9.555594E0,9.492496E0,1.2643399E0,7.36711E-1,9.43033E0,9.449218E0,9.50689E0,9.43768E0,-3.2881796E0,9.478622E0,9.561076E0],"split_indices":[3,4,0,3,0,4,0,0,1,3,0,0,0,0,0,0,0],"split_type":[0,0,0,0,0,0,0,0,0,0,0,0,0,0,0,0,0],"sum_hessian":[1.75E6,1.205104E6,5.44896E5,8.69449E5,3.35655E5,3.90891E5,1.54005E5,1.2715E5,7.42299E5,3.28987E5,6.1904E4,6.86617E5,5.5682E4,4.5842E4,2.83145E5,2.25031E5,5.8114E4],"tree_param":{"num_deleted":"0","num_feature":"8","num_nodes":"17","size_leaf_vector":"0"}},{"base_weights":[9.38354E2,9.37362E2,9.4053064E2,9.364387E2,9.3967664E2,9.383584E2,9.460105E2,9.39857E2,9.35881E2,9.392731E2,9.3367584E2,9.3544696E2,9.4117676E2,9.343605E2,9.4009796E2,9.3841364E2,9.4654755E2],"categories":[],"categories_nodes":[],"categories_segments":[],"categories_sizes":[],"default_left":[true,true,true,true,false,true,false,false,true,true,false,false,false,false,true,false,false],"id":46,"left_children":[1,3,5,7,-1,9,-1,-1,11,13,-1,-1,-1,-1,15,-1,-1],"loss_changes":[3.014656E6,1.703936E6,5.636096E6,7.86432E5,0E0,8.192E5,0E0,0E0,8.51968E5,4.58752E5,0E0,0E0,0E0,0E0,2.162688E6,0E0,0E0],"parents":[2147483647,0,0,1,1,2,2,3,3,5,5,8,8,9,9,14,14],"right_children":[2,4,6,8,-1,10,-1,-1,12,14,-1,-1,-1,-1,16,-1,-1],"split_conditions":[4.09267E-1,1.890795E-1,-2.1587867E-1,-5.8703804E-1,9.396766E0,5.137603E0,9.460105E0,9.39857E0,1.2532467E0,7.366358E-1,9.336759E0,9.354469E0,9.411767E0,9.343604E0,-3.28611E0,9.384136E0,9.465475E0],"split_indices":[3,4,0,3,0,4,0,0,1,3,0,0,0,0,0,0,0],"split_type":[0,0,0,0,0,0,0,0,0,0,0,0,0,0,0,0,0],"sum_hessian":[1.75E6,1.202406E6,5.47594E5,8.59852E5,3.42554E5,3.9227E5,1.55324E5,1.20379E5,7.39473E5,3.28E5,6.427E4,6.83618E5,5.5855E4,4.732E4,2.8068E5,2.22676E5,5.8004E4],"tree_param":{"num_deleted":"0","num_feature":"8","num_nodes":"17","size_leaf_vector":"0"}},{"base_weights":[9.289705E2,9.279934E2,9.311263E2,9.270414E2,9.3019037E2,9.2898456E2,9.365463E2,9.3032764E2,9.264777E2,9.298705E2,9.242681E2,9.260359E2,9.3178217E2,9.2494946E2,9.3065955E2,9.289999E2,9.370524E2],"categories":[],"categories_nodes":[],"categories_segments":[],"categories_sizes":[],"default_left":[true,true,true,true,false,true,false,false,true,true,false,false,false,false,true,false,false],"id":47,"left_children":[1,3,5,7,-1,9,-1,-1,11,13,-1,-1,-1,-1,15,-1,-1],"loss_changes":[2.883584E6,1.703936E6,5.472256E6,7.20896E5,0E0,7.86432E5,0E0,0E0,8.51968E5,4.25984E5,0E0,0E0,0E0,0E0,2.12992E6,0E0,0E0],"parents":[2147483647,0,0,1,1,2,2,3,3,5,5,8,8,9,9,14,14],"right_children":[2,4,6,8,-1,10,-1,-1,12,14,-1,-1,-1,-1,16,-1,-1],"split_conditions":[4.1502523E-1,1.4866675E-1,-2.1476331E-1,-5.724616E-1,9.301904E0,5.171541E0,9.365463E0,9.303276E0,1.2899272E0,7.3136616E-1,9.2426815E0,9.260359E0,9.3178215E0,9.249495E0,-3.28611E0,9.289999E0,9.370524E0],"split_indices":[3,4,0,3,0,4,0,0,1,3,0,0,0,0,0,0,0],"split_type":[0,0,0,0,0,0,0,0,0,0,0,0,0,0,0,0,0],"sum_hessian":[1.75E6,1.204503E6,5.45497E5,8.40634E5,3.63869E5,3.91121E5,1.54376E5,1.22837E5,7.17797E5,3.29107E5,6.2014E4,6.6277E5,5.5027E4,4.564E4,2.83467E5,2.2516E5,5.8307E4],"tree_param":{"num_deleted":"0","num_feature":"8","num_nodes":"17","size_leaf_vector":"0"}},{"base_weights":[9.1968085E2,9.187331E2,9.218118E2,9.178606E2,9.2100464E2,9.187132E2,9.255324E2,9.211197E2,9.173213E2,8.893087E2,9.1888745E2,9.2665936E2,9.210344E2,9.169059E2,9.2245026E2,9.1701117E2,9.2056573E2,9.137756E2,9.2469366E2],"categories":[],"categories_nodes":[],"categories_segments":[],"categories_sizes":[],"default_left":[true,true,true,true,false,true,true,false,true,false,true,false,true,false,false,false,false,false,false],"id":48,"left_children":[1,3,5,7,-1,9,11,-1,13,-1,15,-1,17,-1,-1,-1,-1,-1,-1],"loss_changes":[2.752512E6,1.572864E6,5.341184E6,7.20896E5,0E0,7.04512E5,3.93216E5,0E0,7.86432E5,0E0,6.5536E4,0E0,4.58752E5,0E0,0E0,0E0,0E0,0E0,0E0],"parents":[2147483647,0,0,1,1,2,2,3,3,5,5,6,6,8,8,10,10,12,12],"right_children":[2,4,6,8,-1,10,12,-1,14,-1,16,-1,18,-1,-1,-1,-1,-1,-1],"split_conditions":[4.3490958E-1,2.0433152E-1,-3.28611E0,-5.806297E-1,9.210046E0,-4.3282666E2,4.9987617E-1,9.211197E0,1.2549055E0,8.893087E0,-2.2907075E-1,9.266593E0,-3.8642067E-1,9.169059E0,9.224503E0,9.170112E0,9.205657E0,9.137755E0,9.246937E0],"split_indices":[3,4,0,3,0,5,1,0,1,0,5,0,4,0,0,0,0,0,0],"split_type":[0,0,0,0,0,0,0,0,0,0,0,0,0,0,0,0,0,0,0],"sum_hessian":[1.75E6,1.211578E6,5.38422E5,8.75648E5,3.3593E5,2.93901E5,2.44521E5,1.24089E5,7.51559E5,1.762E3,2.92139E5,1.95368E5,4.9153E4,6.95417E5,5.6142E4,1.38192E5,1.53947E5,1.6558E4,3.2595E4],"tree_param":{"num_deleted":"0","num_feature":"8","num_nodes":"19","size_leaf_vector":"0"}},{"base_weights":[9.1048413E2,9.0953754E2,9.1259515E2,9.109036E2,9.0810315E2,9.097758E2,9.165704E2,9.096528E2,9.119915E2,9.076468E2,9.1320685E2,8.808486E2,9.099393E2,9.1792975E2,9.1166473E2,9.072058E2,9.121381E2,9.080211E2,9.1168445E2,9.0468896E2,9.1538324E2],"categories":[],"categories_nodes":[],"categories_segments":[],"categories_sizes":[],"default_left":[true,true,true,true,true,true,true,false,false,true,false,false,true,false,true,false,false,false,false,false,false],"id":49,"left_children":[1,3,5,7,9,11,13,-1,-1,15,-1,-1,17,-1,19,-1,-1,-1,-1,-1,-1],"loss_changes":[2.752512E6,1.572864E6,5.24288E6,3.2768E4,5.57056E5,7.04512E5,6.71744E5,0E0,0E0,2.62144E5,0E0,0E0,2.29376E5,0E0,4.38272E5,0E0,0E0,0E0,0E0,0E0,0E0],"parents":[2147483647,0,0,1,1,2,2,3,3,4,4,5,5,6,6,9,9,12,12,14,14],"right_children":[2,4,6,8,10,12,14,-1,-1,16,-1,-1,18,-1,20,-1,-1,-1,-1,-1,-1],"split_conditions":[4.265055E-1,-2.1881798E-1,-1.4801483E0,-1.0527628E-2,1.3241904E0,-3.924146E2,5.0345385E-1,9.096527E0,9.119915E0,4.426676E-1,9.132069E0,8.808486E0,-2.2907075E-1,9.179297E0,-3.8530028E-1,9.072058E0,9.121381E0,9.080211E0,9.116844E0,9.046889E0,9.153832E0],"split_indices":[3,3,2,5,1,5,1,0,0,4,0,0,5,0,4,0,0,0,0,0,0],"split_type":[0,0,0,0,0,0,0,0,0,0,0,0,0,0,0,0,0,0,0,0,0],"sum_hessian":[1.75E6,1.208532E6,5.41468E5,6.18667E5,5.89865E5,3.16929E5,2.24539E5,2.88167E5,3.305E5,5.41613E5,4.8252E4,1.811E3,3.15118E5,1.75674E5,4.8865E4,4.93375E5,4.8238E4,1.50367E5,1.64751E5,1.7076E4,3.1789E4],"tree_param":{"num_deleted":"0","num_feature":"8","num_nodes":"21","size_leaf_vector":"0"}},{"base_weights":[9.0137933E2,9.0042664E2,9.034719E2,9.018573E2,8.990215E2,9.013804E2,9.0875256E2,8.9856964E2,9.040725E2,9.0226917E2,8.9681323E2,8.9809247E2,9.030527E2,8.973815E2,9.030659E2,8.7135376E2,8.973009E2,9.014455E2,9.092322E2],"categories":[],"categories_nodes":[],"categories_segments":[],"categories_sizes":[],"default_left":[true,true,true,false,true,true,false,true,false,true,true,false,false,false,true,false,false,false,false],"id":50,"left_children":[1,3,5,-1,7,9,-1,11,-1,13,15,-1,-1,-1,17,-1,-1,-1,-1],"loss_changes":[2.752512E6,1.6384E6,5.24288E6,0E0,5.89824E5,7.86432E5,0E0,3.93216E5,0E0,4.75136E5,1.2288E4,0E0,0E0,0E0,1.998848E6,0E0,0E0,0E0,0E0],"parents":[2147483647,0,0,1,1,2,2,4,4,5,5,7,7,9,9,10,10,14,14],"right_children":[2,4,6,-1,8,10,-1,12,-1,14,16,-1,-1,-1,18,-1,-1,-1,-1],"split_conditions":[4.105622E-1,-2.3815453E-1,-2.1543008E-1,9.018573E0,1.2878125E0,5.141347E0,9.087525E0,4.333127E-1,9.040725E0,7.2676307E-1,-4.5821692E2,8.980925E0,9.030526E0,8.973815E0,-3.286282E0,8.713537E0,8.973009E0,9.014455E0,9.092321E0],"split_indices":[3,3,0,0,1,4,0,4,0,3,5,0,0,0,0,0,0,0,0],"split_type":[0,0,0,0,0,0,0,0,0,0,0,0,0,0,0,0,0,0,0],"sum_hessian":[1.75E6,1.20283E6,5.4717E5,5.95684E5,6.07146E5,3.92057E5,1.55113E5,5.57461E5,4.9685E4,3.28026E5,6.4031E4,5.04014E5,5.3447E4,4.6135E4,2.81891E5,1.237E3,6.2794E4,2.23346E5,5.8545E4],"tree_param":{"num_deleted":"0","num_feature":"8","num_nodes":"19","size_leaf_vector":"0"}},{"base_weights":[8.923656E2,8.914097E2,8.9443176E2,8.92687E2,8.898814E2,8.9234186E2,8.9967413E2,8.9146313E2,8.938135E2,8.8940155E2,8.9500714E2,8.932043E2,8.8783655E2,8.8895734E2,8.938026E2,8.8845416E2,8.9402783E2,8.6317004E2,8.8832983E2,8.924257E2,9.001069E2],"categories":[],"categories_nodes":[],"categories_segments":[],"categories_sizes":[],"default_left":[true,true,true,true,true,true,false,false,false,true,false,true,true,false,false,false,true,false,false,false,false],"id":51,"left_children":[1,3,5,7,9,11,-1,-1,-1,13,-1,15,17,-1,-1,-1,19,-1,-1,-1,-1],"loss_changes":[2.752512E6,1.572864E6,5.275648E6,9.8304E4,5.57056E5,7.53664E5,0E0,0E0,0E0,1.96608E5,0E0,5.07904E5,8.192E3,0E0,0E0,0E0,1.949696E6,0E0,0E0,0E0,0E0],"parents":[2147483647,0,0,1,1,2,2,3,3,4,4,5,5,9,9,11,11,12,12,16,16],"right_children":[2,4,6,8,10,12,-1,-1,-1,14,-1,16,18,-1,-1,-1,20,-1,-1,-1,-1],"split_conditions":[3.9365685E-1,-1.9173151E-1,-2.1569082E-1,1.240283E-2,1.2976631E0,5.146009E0,8.996741E0,8.914631E0,8.938134E0,3.8611907E-1,8.950071E0,7.206794E-1,-4.1720587E2,8.889573E0,8.938025E0,8.8845415E0,-3.28611E0,8.6317005E0,8.883298E0,8.924257E0,9.001068E0],"split_indices":[3,3,0,5,1,4,0,0,0,4,0,3,5,0,0,0,0,0,0,0,0],"split_type":[0,0,0,0,0,0,0,0,0,0,0,0,0,0,0,0,0,0,0,0,0],"sum_hessian":[1.75E6,1.196788E6,5.53212E5,6.51635E5,5.45153E5,3.95654E5,1.57558E5,3.12695E5,3.3894E5,4.98645E5,4.6508E4,3.31918E5,6.3736E4,4.53116E5,4.5529E4,4.9202E4,2.82716E5,1.284E3,6.2452E4,2.23864E5,5.8852E4],"tree_param":{"num_deleted":"0","num_feature":"8","num_nodes":"21","size_leaf_vector":"0"}},{"base_weights":[8.8344196E2,8.825211E2,8.854907E2,8.816466E2,8.8471234E2,8.8334326E2,8.903981E2,8.8492645E2,8.811261E2,8.810786E2,8.850996E2,8.807273E2,8.861326E2,8.540318E2,8.81364E2,8.859316E2,8.8036523E2,8.803893E2,8.8706964E2],"categories":[],"categories_nodes":[],"categories_segments":[],"categories_sizes":[],"default_left":[true,true,true,true,false,true,false,false,true,true,true,false,false,false,false,true,false,false,false],"id":52,"left_children":[1,3,5,7,-1,9,-1,-1,11,13,15,-1,-1,-1,-1,17,-1,-1,-1],"loss_changes":[2.62144E6,1.572864E6,4.947968E6,7.20896E5,0E0,7.20896E5,0E0,0E0,7.20896E5,5.24288E5,6.5536E4,0E0,0E0,0E0,0E0,3.60448E5,0E0,0E0,0E0],"parents":[2147483647,0,0,1,1,2,2,3,3,5,5,8,8,9,9,10,10,15,15],"right_children":[2,4,6,8,-1,10,-1,-1,12,14,16,-1,-1,-1,-1,18,-1,-1,-1],"split_conditions":[4.2397475E-1,1.8737727E-1,-3.638361E-1,-5.9294766E-1,8.847123E0,-2.2908702E-1,8.90398E0,8.849264E0,1.302496E0,-4.3675897E2,5.126641E0,8.807273E0,8.861326E0,8.540318E0,8.81364E0,8.293627E-1,8.803652E0,8.803893E0,8.870696E0],"split_indices":[3,4,0,3,0,5,0,0,1,5,4,0,0,0,0,3,0,0,0],"split_type":[0,0,0,0,0,0,0,0,0,0,0,0,0,0,0,0,0,0,0],"sum_hessian":[1.75E6,1.207623E6,5.42377E5,8.63433E5,3.4419E5,3.77404E5,1.64973E5,1.18015E5,7.45418E5,1.65068E5,2.12336E5,6.90579E5,5.4839E4,1.755E3,1.63313E5,1.8044E5,3.1896E4,3.0872E4,1.49568E5],"tree_param":{"num_deleted":"0","num_feature":"8","num_nodes":"19","size_leaf_vector":"0"}},{"base_weights":[8.746076E2,8.7370825E2,8.766334E2,8.728621E2,8.758845E2,8.73675E2,8.8018677E2,8.7588934E2,8.723352E2,8.4585986E2,8.7384314E2,8.8125977E2,8.758338E2,8.719343E2,8.7726105E2,8.720307E2,8.7546484E2,8.6896643E2,8.7943555E2],"categories":[],"categories_nodes":[],"categories_segments":[],"categories_sizes":[],"default_left":[true,true,true,true,false,true,true,false,true,false,true,false,true,false,false,false,false,false,false],"id":53,"left_children":[1,3,5,7,-1,9,11,-1,13,-1,15,-1,17,-1,-1,-1,-1,-1,-1],"loss_changes":[2.490368E6,1.507328E6,4.882432E6,6.5536E5,0E0,6.38976E5,3.76832E5,0E0,7.20896E5,0E0,8.192E4,0E0,4.34176E5,0E0,0E0,0E0,0E0,0E0,0E0],"parents":[2147483647,0,0,1,1,2,2,3,3,5,5,6,6,8,8,10,10,12,12],"right_children":[2,4,6,8,-1,10,12,-1,14,-1,16,-1,18,-1,-1,-1,-1,-1,-1],"split_conditions":[4.366845E-1,1.9839105E-1,-3.3172476E0,-5.6633496E-1,8.758845E0,-4.0520032E2,5.025934E-1,8.758893E0,1.2682769E0,8.458598E0,-2.2907075E-1,8.812597E0,-3.717982E-1,8.719343E0,8.772611E0,8.720306E0,8.754648E0,8.689664E0,8.794355E0],"split_indices":[3,4,0,3,0,5,1,0,1,0,5,0,4,0,0,0,0,0,0],"split_type":[0,0,0,0,0,0,0,0,0,0,0,0,0,0,0,0,0,0,0],"sum_hessian":[1.75E6,1.212238E6,5.37762E5,8.73173E5,3.39065E5,2.93579E5,2.44183E5,1.29208E5,7.43965E5,1.794E3,2.91785E5,1.95733E5,4.845E4,6.88139E5,5.5826E4,1.38045E5,1.5374E5,1.6752E4,3.1698E4],"tree_param":{"num_deleted":"0","num_feature":"8","num_nodes":"19","size_leaf_vector":"0"}},{"base_weights":[8.658616E2,8.6493964E2,8.678723E2,8.6630524E2,8.6354266E2,8.6585956E2,8.7297974E2,8.6511743E2,8.673732E2,8.6309674E2,8.6843756E2,8.66712E2,8.614235E2,8.6258655E2,8.670385E2,8.62016E2,8.675047E2,8.3700073E2,8.6189215E2,8.659242E2,8.7346185E2],"categories":[],"categories_nodes":[],"categories_segments":[],"categories_sizes":[],"default_left":[true,true,true,true,true,true,false,false,false,true,false,true,true,false,false,false,true,false,false,false,false],"id":54,"left_children":[1,3,5,7,9,11,-1,-1,-1,13,-1,15,17,-1,-1,-1,19,-1,-1,-1,-1],"loss_changes":[2.62144E6,1.572864E6,4.9152E6,3.2768E4,5.57056E5,7.53664E5,0E0,0E0,0E0,3.60448E5,0E0,4.9152E5,8.192E3,0E0,0E0,0E0,1.900544E6,0E0,0E0,0E0,0E0],"parents":[2147483647,0,0,1,1,2,2,3,3,4,4,5,5,9,9,11,11,12,12,16,16],"right_children":[2,4,6,8,10,12,-1,-1,-1,14,-1,16,18,-1,-1,-1,20,-1,-1,-1,-1],"split_conditions":[4.0297985E-1,-2.2901383E-1,-2.001318E-1,1.2399599E-2,1.2633808E0,5.1456313E0,8.729797E0,8.651175E0,8.673732E0,3.3346903E-1,8.684376E0,7.2570217E-1,-4.5900082E2,8.625865E0,8.670385E0,8.62016E0,-3.28611E0,8.3700075E0,8.618921E0,8.659242E0,8.734618E0],"split_indices":[3,3,0,5,1,4,0,0,0,4,0,3,5,0,0,0,0,0,0,0,0],"split_type":[0,0,0,0,0,0,0,0,0,0,0,0,0,0,0,0,0,0,0,0,0],"sum_hessian":[1.75E6,1.200153E6,5.49847E5,6.06589E5,5.93564E5,3.94536E5,1.55311E5,2.87572E5,3.19017E5,5.4417E5,4.9394E4,3.30777E5,6.3759E4,4.82002E5,6.2168E4,4.7931E4,2.82846E5,1.234E3,6.2525E4,2.23654E5,5.9192E4],"tree_param":{"num_deleted":"0","num_feature":"8","num_nodes":"21","size_leaf_vector":"0"}},{"base_weights":[8.57203E2,8.5629083E2,8.5919366E2,8.575836E2,8.5486743E2,8.571947E2,8.642425E2,8.563097E2,8.5858563E2,8.5442303E2,8.5976294E2,8.5802704E2,8.52776E2,8.5379785E2,8.5740515E2,8.533835E2,8.58807E2,8.28722E2,8.5324866E2,8.5725195E2,8.6474384E2],"categories":[],"categories_nodes":[],"categories_segments":[],"categories_sizes":[],"default_left":[true,true,true,true,true,true,false,false,false,true,false,true,true,false,false,false,true,false,false,false,false],"id":55,"left_children":[1,3,5,7,9,11,-1,-1,-1,13,-1,15,17,-1,-1,-1,19,-1,-1,-1,-1],"loss_changes":[2.490368E6,1.507328E6,4.816896E6,6.5536E4,5.24288E5,7.20896E5,0E0,0E0,0E0,2.62144E5,0E0,4.75136E5,4.096E3,0E0,0E0,0E0,1.867776E6,0E0,0E0,0E0,0E0],"parents":[2147483647,0,0,1,1,2,2,3,3,4,4,5,5,9,9,11,11,12,12,16,16],"right_children":[2,4,6,8,10,12,-1,-1,-1,14,-1,16,18,-1,-1,-1,20,-1,-1,-1,-1],"split_conditions":[4.0363002E-1,-2.103841E-1,-2.0944121E-1,-7.4588805E-2,1.3291546E0,5.162489E0,8.642425E0,8.563097E0,8.585856E0,1.22930214E-1,8.59763E0,7.2762E-1,-4.555934E2,8.537978E0,8.574051E0,8.533834E0,-3.28611E0,8.28722E0,8.532486E0,8.572519E0,8.647438E0],"split_indices":[3,3,0,5,1,4,0,0,0,4,0,3,5,0,0,0,0,0,0,0,0],"split_type":[0,0,0,0,0,0,0,0,0,0,0,0,0,0,0,0,0,0,0,0,0],"sum_hessian":[1.75E6,1.200372E6,5.49628E5,6.28731E5,5.71641E5,3.93859E5,1.55769E5,2.77188E5,3.51543E5,5.24229E5,4.7412E4,3.31268E5,6.2591E4,4.33611E5,9.0618E4,4.7797E4,2.83471E5,1.24E3,6.1351E4,2.24748E5,5.8723E4],"tree_param":{"num_deleted":"0","num_feature":"8","num_nodes":"21","size_leaf_vector":"0"}},{"base_weights":[8.4863104E2,8.477212E2,8.5059863E2,8.4906323E2,8.4633496E2,8.4862024E2,8.556195E2,8.4588794E2,8.5114154E2,8.494528E2,8.4429553E2,8.453947E2,8.498944E2,8.4494055E2,8.502534E2,8.203518E2,8.447511E2,8.486986E2,8.560933E2],"categories":[],"categories_nodes":[],"categories_segments":[],"categories_sizes":[],"default_left":[true,true,true,false,true,true,false,true,false,true,true,false,false,false,true,false,false,false,false],"id":56,"left_children":[1,3,5,-1,7,9,-1,11,-1,13,15,-1,-1,-1,17,-1,-1,-1,-1],"loss_changes":[2.490368E6,1.507328E6,4.784128E6,0E0,5.57056E5,7.20896E5,0E0,3.60448E5,0E0,4.9152E5,8.192E3,0E0,0E0,0E0,1.835008E6,0E0,0E0,0E0,0E0],"parents":[2147483647,0,0,1,1,2,2,4,4,5,5,7,7,9,9,10,10,14,14],"right_children":[2,4,6,-1,8,10,-1,12,-1,14,16,-1,-1,-1,18,-1,-1,-1,-1],"split_conditions":[3.9405158E-1,-2.2795282E-1,-1.9507015E-1,8.490632E0,1.2051598E0,5.1382923E0,8.556195E0,3.5209006E-1,8.5114155E0,7.2806036E-1,-4.594154E2,8.453947E0,8.498944E0,8.449406E0,-3.286282E0,8.203518E0,8.447511E0,8.486986E0,8.560933E0],"split_indices":[3,3,0,0,1,4,0,4,0,3,5,0,0,0,0,0,0,0,0],"split_type":[0,0,0,0,0,0,0,0,0,0,0,0,0,0,0,0,0,0,0],"sum_hessian":[1.75E6,1.196936E6,5.53064E5,6.07855E5,5.89081E5,3.96858E5,1.56206E5,5.39119E5,4.9962E4,3.32626E5,6.4232E4,4.80218E5,5.8901E4,5.0284E4,2.82342E5,1.233E3,6.2999E4,2.23092E5,5.925E4],"tree_param":{"num_deleted":"0","num_feature":"8","num_nodes":"19","size_leaf_vector":"0"}},{"base_weights":[8.401448E2,8.3926904E2,8.42093E2,8.384466E2,8.414078E2,8.4016174E2,8.4700977E2,8.4147015E2,8.379349E2,8.3792896E2,8.41836E2,8.375462E2,8.426976E2,8.117343E2,8.38198E2,8.365881E2,8.4255383E2,8.408143E2,8.472915E2],"categories":[],"categories_nodes":[],"categories_segments":[],"categories_sizes":[],"default_left":[true,true,true,true,false,true,false,false,true,true,true,false,false,false,false,false,true,false,false],"id":57,"left_children":[1,3,5,7,-1,9,-1,-1,11,13,15,-1,-1,-1,-1,-1,17,-1,-1],"loss_changes":[2.359296E6,1.441792E6,4.456448E6,6.5536E5,0E0,7.53664E5,0E0,0E0,6.88128E5,4.99712E5,1.47456E5,0E0,0E0,0E0,0E0,0E0,9.0112E5,0E0,0E0],"parents":[2147483647,0,0,1,1,2,2,3,3,5,5,8,8,9,9,10,10,16,16],"right_children":[2,4,6,8,-1,10,-1,-1,12,14,16,-1,-1,-1,-1,-1,18,-1,-1],"split_conditions":[4.2393282E-1,2.048749E-1,-2.1222508E-1,-5.7567537E-1,8.414078E0,-2.2907075E-1,8.470098E0,8.414701E0,1.2484026E0,-4.5821692E2,7.1575546E-1,8.375462E0,8.426975E0,8.117343E0,8.38198E0,8.365881E0,-4.1695566E0,8.408142E0,8.472915E0],"split_indices":[3,4,0,3,0,5,0,0,1,5,3,0,0,0,0,0,0,0,0],"split_type":[0,0,0,0,0,0,0,0,0,0,0,0,0,0,0,0,0,0,0],"sum_hessian":[1.75E6,1.20761E6,5.4239E5,8.72488E5,3.35122E5,3.89549E5,1.52841E5,1.2606E5,7.46428E5,1.67141E5,2.22408E5,6.90279E5,5.6149E4,1.73E3,1.65411E5,2.6902E4,1.95506E5,1.4313E5,5.2376E4],"tree_param":{"num_deleted":"0","num_feature":"8","num_nodes":"19","size_leaf_vector":"0"}},{"base_weights":[8.317434E2,8.308922E2,8.336689E2,8.3009326E2,8.3300024E2,8.308603E2,8.370718E2,8.3320825E2,8.2960913E2,8.0383984E2,8.310201E2,8.380376E2,8.326434E2,8.2923456E2,8.342712E2,8.292361E2,8.326164E2,8.2610394E2,8.3634485E2],"categories":[],"categories_nodes":[],"categories_segments":[],"categories_sizes":[],"default_left":[true,true,true,true,false,true,true,false,true,false,true,false,true,false,false,false,false,false,false],"id":58,"left_children":[1,3,5,7,-1,9,11,-1,13,-1,15,-1,17,-1,-1,-1,-1,-1,-1],"loss_changes":[2.228224E6,1.376256E6,4.42368E6,6.5536E5,0E0,6.06208E5,3.44064E5,0E0,6.5536E5,0E0,1.31072E5,0E0,3.62496E5,0E0,0E0,0E0,0E0,0E0,0E0],"parents":[2147483647,0,0,1,1,2,2,3,3,5,5,6,6,8,8,10,10,12,12],"right_children":[2,4,6,8,-1,10,12,-1,14,-1,16,-1,18,-1,-1,-1,-1,-1,-1],"split_conditions":[4.4109118E-1,2.1025695E-1,-3.28611E0,-5.9736335E-1,8.330002E0,-4.3516455E2,5.29043E-1,8.332083E0,1.2429588E0,8.038398E0,-2.2907075E-1,8.380376E0,-3.5660392E-1,8.292345E0,8.342711E0,8.29236E0,8.326163E0,8.261039E0,8.363448E0],"split_indices":[3,4,0,3,0,5,1,0,1,0,5,0,4,0,0,0,0,0,0],"split_type":[0,0,0,0,0,0,0,0,0,0,0,0,0,0,0,0,0,0,0],"sum_hessian":[1.75E6,1.213833E6,5.36167E5,8.80525E5,3.33308E5,2.9387E5,2.42297E5,1.18206E5,7.62319E5,1.757E3,2.92113E5,1.9876E5,4.3537E4,7.05792E5,5.6527E4,1.38193E5,1.5392E5,1.5817E4,2.772E4],"tree_param":{"num_deleted":"0","num_feature":"8","num_nodes":"19","size_leaf_vector":"0"}},{"base_weights":[8.2342596E2,8.225505E2,8.253401E2,8.2171204E2,8.246324E2,8.234128E2,8.3019666E2,8.247633E2,8.212059E2,8.2422375E2,8.191112E2,8.2081537E2,8.259259E2,8.196108E2,8.2497516E2,8.2348267E2,8.306593E2],"categories":[],"categories_nodes":[],"categories_segments":[],"categories_sizes":[],"default_left":[true,true,true,true,false,true,false,false,true,true,false,false,false,false,true,false,false],"id":59,"left_children":[1,3,5,7,-1,9,-1,-1,11,13,-1,-1,-1,-1,15,-1,-1],"loss_changes":[2.359296E6,1.441792E6,4.456448E6,6.5536E5,0E0,7.04512E5,0E0,0E0,6.88128E5,4.75136E5,0E0,0E0,0E0,0E0,1.72032E6,0E0,0E0],"parents":[2147483647,0,0,1,1,2,2,3,3,5,5,8,8,9,9,14,14],"right_children":[2,4,6,8,-1,10,-1,-1,12,14,-1,-1,-1,-1,16,-1,-1],"split_conditions":[4.054972E-1,1.849629E-1,-2.1533912E-1,-5.827976E-1,8.246324E0,5.163531E0,8.301967E0,8.247633E0,1.2444191E0,7.187361E-1,8.191112E0,8.208154E0,8.259259E0,8.196108E0,-3.286282E0,8.234826E0,8.306593E0],"split_indices":[3,4,0,3,0,4,0,0,1,3,0,0,0,0,0,0,0],"split_type":[0,0,0,0,0,0,0,0,0,0,0,0,0,0,0,0,0],"sum_hessian":[1.75E6,1.201063E6,5.48937E5,8.56511E5,3.44552E5,3.93106E5,1.55831E5,1.21627E5,7.34884E5,3.3059E5,6.2516E4,6.78895E5,5.5989E4,4.6461E4,2.84129E5,2.25154E5,5.8975E4],"tree_param":{"num_deleted":"0","num_feature":"8","num_nodes":"17","size_leaf_vector":"0"}},{"base_weights":[8.151918E2,8.1433923E2,8.170838E2,8.155972E2,8.130162E2,8.152046E2,8.218712E2,8.144445E2,8.1663916E2,8.1259296E2,8.176048E2,8.160329E2,8.109543E2,8.1218146E2,8.166959E2,8.1135455E2,8.1675134E2,7.882233E2,8.114036E2,8.152641E2,8.223687E2],"categories":[],"categories_nodes":[],"categories_segments":[],"categories_sizes":[],"default_left":[true,true,true,true,true,true,false,false,false,true,false,true,true,false,false,false,true,false,false,false,false],"id":60,"left_children":[1,3,5,7,9,11,-1,-1,-1,13,-1,15,17,-1,-1,-1,19,-1,-1,-1,-1],"loss_changes":[2.228224E6,1.376256E6,4.227072E6,6.5536E4,4.9152E5,7.20896E5,0E0,0E0,0E0,2.62144E5,0E0,4.42368E5,1.2288E4,0E0,0E0,0E0,1.687552E6,0E0,0E0,0E0,0E0],"parents":[2147483647,0,0,1,1,2,2,3,3,4,4,5,5,9,9,11,11,12,12,16,16],"right_children":[2,4,6,8,10,12,-1,-1,-1,14,-1,16,18,-1,-1,-1,20,-1,-1,-1,-1],"split_conditions":[4.2125624E-1,-2.1914099E-1,-2.0846713E-1,1.24002565E-2,1.2307878E0,5.144843E0,8.218712E0,8.144445E0,8.166391E0,4.3165356E-1,8.176047E0,7.2171414E-1,-4.2915704E2,8.121815E0,8.166959E0,8.113545E0,-3.28611E0,7.882233E0,8.114036E0,8.15264E0,8.223687E0],"split_indices":[3,3,0,5,1,4,0,0,0,4,0,3,5,0,0,0,0,0,0,0,0],"split_type":[0,0,0,0,0,0,0,0,0,0,0,0,0,0,0,0,0,0,0,0,0],"sum_hessian":[1.75E6,1.2067E6,5.433E5,6.18253E5,5.88447E5,3.90276E5,1.53024E5,2.93906E5,3.24347E5,5.38916E5,4.9531E4,3.26467E5,6.3809E4,4.89973E5,4.8943E4,4.3614E4,2.82853E5,1.271E3,6.2538E4,2.23757E5,5.9096E4],"tree_param":{"num_deleted":"0","num_feature":"8","num_nodes":"21","size_leaf_vector":"0"}},{"base_weights":[8.070399E2,8.062114E2,8.0890826E2,8.074746E2,8.049518E2,8.061849E2,8.1219305E2,8.06339E2,8.08495E2,8.045525E2,8.0946515E2,7.804603E2,8.0634564E2,8.1326666E2,8.0825635E2,8.041163E2,8.0836206E2,8.0561835E2,8.1016364E2,8.015386E2,8.1150116E2,8.0655853E2,8.0176385E2],"categories":[],"categories_nodes":[],"categories_segments":[],"categories_sizes":[],"default_left":[true,true,true,true,true,true,true,false,false,true,false,false,true,false,true,false,false,true,false,false,false,false,false],"id":61,"left_children":[1,3,5,7,9,11,13,-1,-1,15,-1,-1,17,-1,19,-1,-1,21,-1,-1,-1,-1,-1],"loss_changes":[2.228224E6,1.31072E6,4.128768E6,3.2768E4,4.58752E5,5.89824E5,3.76832E5,0E0,0E0,2.94912E5,0E0,0E0,1.6384E5,0E0,4.89472E5,0E0,0E0,2.4576E5,0E0,0E0,0E0,0E0,0E0],"parents":[2147483647,0,0,1,1,2,2,3,3,4,4,5,5,6,6,9,9,12,12,14,14,17,17],"right_children":[2,4,6,8,10,12,14,-1,-1,16,-1,-1,18,-1,20,-1,-1,22,-1,-1,-1,-1,-1],"split_conditions":[4.3798223E-1,-2.3024032E-1,-3.28611E0,1.240283E-2,1.3123903E0,-3.5614783E2,4.765071E-1,8.06339E0,8.0849495E0,3.834702E-1,8.094651E0,7.804603E0,9.232847E0,8.132667E0,-3.8642067E-1,8.0411625E0,8.08362E0,4.9268255E0,8.101636E0,8.015386E0,8.115011E0,8.065585E0,8.017638E0],"split_indices":[3,3,0,5,1,5,1,0,0,4,0,0,3,0,4,0,0,4,0,0,0,0,0],"split_type":[0,0,0,0,0,0,0,0,0,0,0,0,0,0,0,0,0,0,0,0,0,0,0],"sum_hessian":[1.75E6,1.212699E6,5.37301E5,6.05185E5,6.07514E5,2.93887E5,2.43414E5,2.86795E5,3.1839E5,5.58296E5,4.9218E4,1.855E3,2.92032E5,1.91093E5,5.2321E4,5.0113E5,5.7166E4,2.45485E5,4.6547E4,1.7122E4,3.5199E4,1.97182E5,4.8303E4],"tree_param":{"num_deleted":"0","num_feature":"8","num_nodes":"23","size_leaf_vector":"0"}},{"base_weights":[7.9896954E2,7.981344E2,8.008243E2,7.9729865E2,8.001084E2,7.988711E2,8.052831E2,8.0037427E2,7.968196E2,7.967304E2,8.005301E2,7.9643884E2,8.014044E2,7.7160803E2,7.9699115E2,7.959902E2,8.012834E2,7.992975E2,8.056314E2],"categories":[],"categories_nodes":[],"categories_segments":[],"categories_sizes":[],"default_left":[true,true,true,true,false,true,false,false,true,true,true,false,false,false,false,false,true,false,false],"id":62,"left_children":[1,3,5,7,-1,9,-1,-1,11,13,15,-1,-1,-1,-1,-1,17,-1,-1],"loss_changes":[2.097152E6,1.376256E6,4.096E6,6.22592E5,0E0,7.04512E5,0E0,0E0,6.5536E5,4.66944E5,9.8304E4,0E0,0E0,0E0,0E0,0E0,9.33888E5,0E0,0E0],"parents":[2147483647,0,0,1,1,2,2,3,3,5,5,8,8,9,9,10,10,16,16],"right_children":[2,4,6,8,-1,10,-1,-1,12,14,16,-1,-1,-1,-1,-1,18,-1,-1],"split_conditions":[4.2202082E-1,1.5941504E-1,-3.619029E-1,-5.982777E-1,8.001083E0,-2.2908205E-1,8.052831E0,8.003742E0,1.2485547E0,-4.5900082E2,8.1543106E-1,7.9643884E0,8.014044E0,7.71608E0,7.969911E0,7.9599013E0,-6.6093755E0,7.9929748E0,8.0563135E0],"split_indices":[3,4,0,3,0,5,0,0,1,5,3,0,0,0,0,0,2,0,0],"split_type":[0,0,0,0,0,0,0,0,0,0,0,0,0,0,0,0,0,0,0],"sum_hessian":[1.75E6,1.206941E6,5.43059E5,8.48227E5,3.58714E5,3.77761E5,1.65298E5,1.14089E5,7.34138E5,1.65148E5,2.12613E5,6.78004E5,5.6134E4,1.727E3,1.63421E5,3.0408E4,1.82205E5,1.25205E5,5.7E4],"tree_param":{"num_deleted":"0","num_feature":"8","num_nodes":"19","size_leaf_vector":"0"}},{"base_weights":[7.909799E2,7.9015424E2,7.9281573E2,7.9138025E2,7.888686E2,7.908847E2,7.972325E2,7.902559E2,7.923963E2,7.8846246E2,7.9333093E2,7.887647E2,7.9252795E2,7.8784753E2,7.9111255E2,7.641309E2,7.890248E2,7.932951E2,7.881053E2,7.931093E2,7.8806494E2,7.8808234E2,7.94357E2],"categories":[],"categories_nodes":[],"categories_segments":[],"categories_sizes":[],"default_left":[true,true,true,true,true,true,false,false,false,true,false,true,true,false,false,false,true,true,false,false,false,false,false],"id":63,"left_children":[1,3,5,7,9,11,-1,-1,-1,13,-1,15,17,-1,-1,-1,19,21,-1,-1,-1,-1,-1],"loss_changes":[2.097152E6,1.31072E6,3.997696E6,6.5536E4,4.58752E5,6.88128E5,0E0,0E0,0E0,2.62144E5,0E0,4.58752E5,1.06496E5,0E0,0E0,0E0,1.6384E4,3.76832E5,0E0,0E0,0E0,0E0,0E0],"parents":[2147483647,0,0,1,1,2,2,3,3,4,4,5,5,9,9,11,11,12,12,16,16,17,17],"right_children":[2,4,6,8,10,12,-1,-1,-1,14,-1,16,18,-1,-1,-1,20,22,-1,-1,-1,-1,-1],"split_conditions":[4.2331472E-1,-2.1958137E-1,-3.6007336E-1,1.24002565E-2,1.2706599E0,-2.2907075E-1,7.972325E0,7.902559E0,7.923963E0,9.227545E-2,7.933309E0,-4.359732E2,5.1336083E0,7.878475E0,7.911125E0,7.6413093E0,-1.9605736E0,8.241096E-1,7.8810525E0,7.9310927E0,7.880649E0,7.880823E0,7.9435697E0],"split_indices":[3,3,0,5,1,5,0,0,0,4,0,5,4,0,0,0,5,3,0,0,0,0,0],"split_type":[0,0,0,0,0,0,0,0,0,0,0,0,0,0,0,0,0,0,0,0,0,0,0],"sum_hessian":[1.75E6,1.207396E6,5.42604E5,6.17703E5,5.89693E5,3.77664E5,1.6494E5,2.93602E5,3.24101E5,5.4066E5,4.9033E4,1.65122E5,2.12542E5,4.3908E5,1.0158E5,1.756E3,1.63366E5,1.80972E5,3.157E4,3.0929E4,1.32437E5,3.0752E4,1.5022E5],"tree_param":{"num_deleted":"0","num_feature":"8","num_nodes":"23","size_leaf_vector":"0"}},{"base_weights":[7.830701E2,7.82239E2,7.848928E2,7.8342206E2,7.809091E2,7.830683E2,7.895339E2,7.823036E2,7.8444226E2,7.8049194E2,7.853828E2,7.838747E2,7.7898663E2,7.798718E2,7.830783E2,7.7938806E2,7.8460785E2,7.566481E2,7.794003E2,7.831535E2,7.90037E2],"categories":[],"categories_nodes":[],"categories_segments":[],"categories_sizes":[],"default_left":[true,true,true,true,true,true,false,false,false,true,false,true,true,false,false,false,true,false,false,false,false],"id":64,"left_children":[1,3,5,7,9,11,-1,-1,-1,13,-1,15,17,-1,-1,-1,19,-1,-1,-1,-1],"loss_changes":[2.097152E6,1.31072E6,4.030464E6,9.8304E4,4.58752E5,6.88128E5,0E0,0E0,0E0,2.29376E5,0E0,4.75136E5,1.2288E4,0E0,0E0,0E0,1.605632E6,0E0,0E0,0E0,0E0],"parents":[2147483647,0,0,1,1,2,2,3,3,4,4,5,5,9,9,11,11,12,12,16,16],"right_children":[2,4,6,8,10,12,-1,-1,-1,14,-1,16,18,-1,-1,-1,20,-1,-1,-1,-1],"split_conditions":[4.0880564E-1,-2.0451984E-1,-1.9998088E-1,1.240283E-2,1.25524E0,5.1252346E0,7.8953385E0,7.8230357E0,7.8444223E0,6.9585875E-2,7.853828E0,7.20754E-1,-4.7618384E2,7.798718E0,7.830783E0,7.7938805E0,-3.28611E0,7.5664806E0,7.794003E0,7.831535E0,7.9003696E0],"split_indices":[3,3,0,5,1,4,0,0,0,4,0,3,5,0,0,0,0,0,0,0,0],"split_type":[0,0,0,0,0,0,0,0,0,0,0,0,0,0,0,0,0,0,0,0,0],"sum_hessian":[1.75E6,1.202224E6,5.47776E5,6.35939E5,5.66285E5,3.9332E5,1.54456E5,3.03734E5,3.32205E5,5.18147E5,4.8138E4,3.28272E5,6.5048E4,4.18181E5,9.9966E4,4.6256E4,2.82016E5,1.216E3,6.3832E4,2.22548E5,5.9468E4],"tree_param":{"num_deleted":"0","num_feature":"8","num_nodes":"21","size_leaf_vector":"0"}},{"base_weights":[7.752395E2,7.7440594E2,7.770431E2,7.756772E2,7.73128E2,7.75218E2,7.816604E2,7.745835E2,7.7665845E2,7.72719E2,7.7754193E2,7.7312805E2,7.767631E2,7.7228613E2,7.767188E2,7.4794196E2,7.7337115E2,7.7203235E2,7.775189E2,7.7738043E2,7.7242737E2,7.7589166E2,7.819067E2],"categories":[],"categories_nodes":[],"categories_segments":[],"categories_sizes":[],"default_left":[true,true,true,true,true,true,false,false,false,true,false,true,true,false,false,false,true,false,true,false,false,false,false],"id":65,"left_children":[1,3,5,7,9,11,-1,-1,-1,13,-1,15,17,-1,-1,-1,19,-1,21,-1,-1,-1,-1],"loss_changes":[2.097152E6,1.376256E6,4.063232E6,3.2768E4,4.9152E5,6.71744E5,0E0,0E0,0E0,3.60448E5,0E0,4.58752E5,2.21184E5,0E0,0E0,0E0,3.2768E4,0E0,7.94624E5,0E0,0E0,0E0,0E0],"parents":[2147483647,0,0,1,1,2,2,3,3,4,4,5,5,9,9,11,11,12,12,16,16,18,18],"right_children":[2,4,6,8,10,12,-1,-1,-1,14,-1,16,18,-1,-1,-1,20,-1,22,-1,-1,-1,-1],"split_conditions":[3.946861E-1,-2.3470384E-1,-2.0099978E-1,1.240283E-2,1.1964446E0,-2.2907075E-1,7.8166037E0,7.745835E0,7.7665844E0,4.184135E-1,7.775419E0,-5.3741077E2,7.104419E-1,7.7228613E0,7.767188E0,7.479419E0,-1.9577905E0,7.720323E0,-4.1694503E0,7.773804E0,7.7242737E0,7.7589164E0,7.8190665E0],"split_indices":[3,3,0,5,1,5,0,0,0,4,0,5,3,0,0,0,5,0,0,0,0,0,0],"split_type":[0,0,0,0,0,0,0,0,0,0,0,0,0,0,0,0,0,0,0,0,0,0,0],"sum_hessian":[1.75E6,1.197142E6,5.52858E5,5.99835E5,5.97307E5,3.9636E5,1.56498E5,2.8405E5,3.15785E5,5.46811E5,5.0496E4,1.68687E5,2.27673E5,4.93591E5,5.322E4,1.642E3,1.67045E5,3.1504E4,1.96169E5,3.1672E4,1.35373E5,1.43229E5,5.294E4],"tree_param":{"num_deleted":"0","num_feature":"8","num_nodes":"23","size_leaf_vector":"0"}},{"base_weights":[7.674872E2,7.666822E2,7.692699E2,7.658861E2,7.686363E2,7.675065E2,7.7380493E2,7.689631E2,7.654317E2,7.6829895E2,7.634158E2,7.650658E2,7.698125E2,7.6375757E2,7.689845E2,7.414907E2,7.6382697E2,7.675583E2,7.74247E2],"categories":[],"categories_nodes":[],"categories_segments":[],"categories_sizes":[],"default_left":[true,true,true,true,false,true,false,false,true,true,true,false,false,false,true,false,false,false,false],"id":66,"left_children":[1,3,5,7,-1,9,-1,-1,11,13,15,-1,-1,-1,17,-1,-1,-1,-1],"loss_changes":[2.031616E6,1.31072E6,3.76832E6,6.22592E5,0E0,6.88128E5,0E0,0E0,6.22592E5,4.42368E5,8.192E3,0E0,0E0,0E0,1.540096E6,0E0,0E0,0E0,0E0],"parents":[2147483647,0,0,1,1,2,2,3,3,5,5,8,8,9,9,10,10,14,14],"right_children":[2,4,6,8,-1,10,-1,-1,12,14,16,-1,-1,-1,18,-1,-1,-1,-1],"split_conditions":[4.1904578E-1,1.7818724E-1,-1.8915969E-1,-6.142336E-1,7.6863627E0,5.145707E0,7.738049E0,7.6896305E0,1.1949116E0,7.083386E-1,-4.8441168E2,7.6506577E0,7.698125E0,7.6375756E0,-3.28611E0,7.414907E0,7.6382694E0,7.675583E0,7.74247E0],"split_indices":[3,4,0,3,0,4,0,0,1,3,5,0,0,0,0,0,0,0,0],"split_type":[0,0,0,0,0,0,0,0,0,0,0,0,0,0,0,0,0,0,0],"sum_hessian":[1.75E6,1.205919E6,5.44081E5,8.57136E5,3.48783E5,3.91872E5,1.52209E5,1.10077E5,7.47059E5,3.28118E5,6.3754E4,6.89625E5,5.7434E4,4.3179E4,2.84939E5,1.207E3,6.2547E4,2.24298E5,6.0641E4],"tree_param":{"num_deleted":"0","num_feature":"8","num_nodes":"19","size_leaf_vector":"0"}},{"base_weights":[7.598123E2,7.589955E2,7.6158075E2,7.6019183E2,7.577E2,7.597953E2,7.6611096E2,7.591043E2,7.6117676E2,7.572918E2,7.620552E2,7.577329E2,7.6132E2,7.566182E2,7.59732E2,7.3345795E2,7.5797614E2,7.567011E2,7.6206433E2,7.6197144E2,7.570404E2,7.604581E2,7.663569E2],"categories":[],"categories_nodes":[],"categories_segments":[],"categories_sizes":[],"default_left":[true,true,true,true,true,true,false,false,false,true,false,true,true,false,false,false,true,false,true,false,false,false,false],"id":67,"left_children":[1,3,5,7,9,11,-1,-1,-1,13,-1,15,17,-1,-1,-1,19,-1,21,-1,-1,-1,-1],"loss_changes":[2.031616E6,1.31072E6,3.899392E6,6.5536E4,4.58752E5,6.71744E5,0E0,0E0,0E0,2.94912E5,0E0,4.42368E5,2.12992E5,0E0,0E0,0E0,4.9152E4,0E0,7.70048E5,0E0,0E0,0E0,0E0],"parents":[2147483647,0,0,1,1,2,2,3,3,4,4,5,5,9,9,11,11,12,12,16,16,18,18],"right_children":[2,4,6,8,10,12,-1,-1,-1,14,-1,16,18,-1,-1,-1,20,-1,22,-1,-1,-1,-1],"split_conditions":[3.9521277E-1,-2.1592525E-1,-1.9599271E-1,1.240283E-2,1.2123013E0,-2.2908205E-1,7.6611094E0,7.591043E0,7.6117673E0,3.688681E-2,7.6205516E0,-4.8044003E2,7.1494865E-1,7.566182E0,7.5973196E0,7.3345795E0,-1.9604225E0,7.567011E0,-4.1939735E0,7.6197143E0,7.570404E0,7.6045814E0,7.6635685E0],"split_indices":[3,3,0,5,1,5,0,0,0,4,0,5,3,0,0,0,5,0,0,0,0,0,0],"split_type":[0,0,0,0,0,0,0,0,0,0,0,0,0,0,0,0,0,0,0,0,0,0,0],"sum_hessian":[1.75E6,1.197346E6,5.52654E5,6.22176E5,5.7517E5,3.96537E5,1.56117E5,2.96055E5,3.26121E5,5.26042E5,4.9128E4,1.68759E5,2.27778E5,4.12488E5,1.13554E5,1.704E3,1.67055E5,3.1754E4,1.96024E5,3.1545E4,1.3551E5,1.42777E5,5.3247E4],"tree_param":{"num_deleted":"0","num_feature":"8","num_nodes":"23","size_leaf_vector":"0"}},{"base_weights":[7.522143E2,7.5140204E2,7.539632E2,7.505793E2,7.533032E2,7.5217633E2,7.584374E2,7.535744E2,7.5010925E2,7.5013763E2,7.5368115E2,7.497402E2,7.545211E2,7.2612115E2,7.5037836E2,7.4921063E2,7.544413E2,7.543504E2,7.494529E2,7.52853E2,7.587485E2],"categories":[],"categories_nodes":[],"categories_segments":[],"categories_sizes":[],"default_left":[true,true,true,true,false,true,false,false,true,true,true,false,false,false,true,false,true,false,false,false,false],"id":68,"left_children":[1,3,5,7,-1,9,-1,-1,11,13,15,-1,-1,-1,17,-1,19,-1,-1,-1,-1],"loss_changes":[2.031616E6,1.31072E6,3.866624E6,6.22592E5,0E0,6.5536E5,0E0,0E0,6.22592E5,4.34176E5,2.12992E5,0E0,0E0,0E0,4.9152E4,0E0,7.61856E5,0E0,0E0,0E0,0E0],"parents":[2147483647,0,0,1,1,2,2,3,3,5,5,8,8,9,9,10,10,14,14,16,16],"right_children":[2,4,6,8,-1,10,-1,-1,12,14,16,-1,-1,-1,18,-1,20,-1,-1,-1,-1],"split_conditions":[3.8962775E-1,1.5225331E-1,-2.1670224E-1,-6.002878E-1,7.533032E0,-2.2907075E-1,7.5843735E0,7.5357437E0,1.2495126E0,-4.8191852E2,7.263826E-1,7.4974017E0,7.545211E0,7.2612114E0,-1.9634662E0,7.492106E0,-4.2083592E0,7.5435038E0,7.494529E0,7.52853E0,7.5874844E0],"split_indices":[3,4,0,3,0,5,0,0,1,5,3,0,0,0,5,0,0,0,0,0,0],"split_type":[0,0,0,0,0,0,0,0,0,0,0,0,0,0,0,0,0,0,0,0,0],"sum_hessian":[1.75E6,1.195292E6,5.54708E5,8.3454E5,3.60752E5,3.96518E5,1.5819E5,1.12979E5,7.21561E5,1.68604E5,2.27914E5,6.66014E5,5.5547E4,1.703E3,1.66901E5,3.3265E4,1.94649E5,3.1385E4,1.35516E5,1.42338E5,5.2311E4],"tree_param":{"num_deleted":"0","num_feature":"8","num_nodes":"21","size_leaf_vector":"0"}},{"base_weights":[7.446922E2,7.439064E2,7.4642365E2,7.451137E2,7.426905E2,7.4469086E2,7.508224E2,7.440508E2,7.460683E2,7.42309E2,7.4691833E2,7.4546014E2,7.406592E2,7.4163116E2,7.4464014E2,7.412095E2,7.461566E2,7.4477344E2,7.514537E2],"categories":[],"categories_nodes":[],"categories_segments":[],"categories_sizes":[],"default_left":[true,true,true,true,true,true,false,false,false,true,false,true,false,false,false,false,true,false,false],"id":69,"left_children":[1,3,5,7,9,11,-1,-1,-1,13,-1,15,-1,-1,-1,-1,17,-1,-1],"loss_changes":[1.900544E6,1.245184E6,3.60448E6,3.2768E4,4.25984E5,6.71744E5,0E0,0E0,0E0,3.2768E5,0E0,4.25984E5,0E0,0E0,0E0,0E0,1.507328E6,0E0,0E0],"parents":[2147483647,0,0,1,1,2,2,3,3,4,4,5,5,9,9,11,11,16,16],"right_children":[2,4,6,8,10,12,-1,-1,-1,14,-1,16,-1,-1,-1,-1,18,-1,-1],"split_conditions":[4.1367108E-1,-2.3139916E-1,-2.080971E-1,1.240283E-2,1.2766562E0,5.1575885E0,7.5082235E0,7.4405074E0,7.460683E0,3.1861365E-2,7.469183E0,7.355009E-1,7.4065914E0,7.4163113E0,7.446401E0,7.4120946E0,-3.2864614E0,7.4477344E0,7.5145364E0],"split_indices":[3,3,0,5,1,4,0,0,0,4,0,3,0,0,0,0,0,0,0],"split_type":[0,0,0,0,0,0,0,0,0,0,0,0,0,0,0,0,0,0,0],"sum_hessian":[1.75E6,1.204006E6,5.45994E5,6.03832E5,6.00174E5,3.91818E5,1.54176E5,2.8608E5,3.17752E5,5.50666E5,4.9508E4,3.2888E5,6.2938E4,4.26855E5,1.23811E5,4.6451E4,2.82429E5,2.24061E5,5.8368E4],"tree_param":{"num_deleted":"0","num_feature":"8","num_nodes":"19","size_leaf_vector":"0"}},{"base_weights":[7.372453E2,7.364476E2,7.389595E2,7.3756415E2,7.35131E2,7.372466E2,7.434157E2,7.3649744E2,7.3854333E2,7.347216E2,7.394165E2,7.379908E2,7.3326514E2,7.340429E2,7.3696124E2,7.338805E2,7.387192E2,7.1214575E2,7.336651E2,7.3731726E2,7.437466E2],"categories":[],"categories_nodes":[],"categories_segments":[],"categories_sizes":[],"default_left":[true,true,true,true,true,true,false,false,false,true,false,true,true,false,false,false,true,false,false,false,false],"id":70,"left_children":[1,3,5,7,9,11,-1,-1,-1,13,-1,15,17,-1,-1,-1,19,-1,-1,-1,-1],"loss_changes":[1.900544E6,1.245184E6,3.702784E6,1.31072E5,4.25984E5,6.5536E5,0E0,0E0,0E0,2.29376E5,0E0,4.75136E5,1.2288E4,0E0,0E0,0E0,1.47456E6,0E0,0E0,0E0,0E0],"parents":[2147483647,0,0,1,1,2,2,3,3,4,4,5,5,9,9,11,11,12,12,16,16],"right_children":[2,4,6,8,10,12,-1,-1,-1,14,-1,16,18,-1,-1,-1,20,-1,-1,-1,-1],"split_conditions":[3.8749558E-1,-1.9632491E-1,-1.5656126E-1,1.240283E-2,1.2201806E0,5.1513214E0,7.434157E0,7.364974E0,7.385433E0,-1.6306606E-3,7.394165E0,7.083244E-1,-4.8044003E2,7.340429E0,7.369612E0,7.3388047E0,-3.3199942E0,7.1214576E0,7.336651E0,7.3731723E0,7.4374657E0],"split_indices":[3,3,0,5,1,4,0,0,0,4,0,3,5,0,0,0,0,0,0,0,0],"split_type":[0,0,0,0,0,0,0,0,0,0,0,0,0,0,0,0,0,0,0,0,0],"sum_hessian":[1.75E6,1.19452E6,5.5548E5,6.46054E5,5.48466E5,4.01367E5,1.54113E5,3.09567E5,3.36487E5,5.00802E5,4.7664E4,3.38002E5,6.3365E4,3.84588E5,1.16214E5,5.1033E4,2.86969E5,1.211E3,6.2154E4,2.2451E5,6.2459E4],"tree_param":{"num_deleted":"0","num_feature":"8","num_nodes":"21","size_leaf_vector":"0"}},{"base_weights":[7.298729E2,7.2908215E2,7.315694E2,7.302924E2,7.278513E2,7.2983466E2,7.3592004E2,7.292517E2,