{"learner":{"attributes":{"best_iteration":"999","best_ntree_limit":"1000","scikit_learn":"{\"n_estimators\": 1000, \"objective\": \"reg:squarederror\", \"max_depth\": 5, \"learning_rate\": 0.01, \"verbosity\": null, \"booster\": null, \"tree_method\": null, \"gamma\": null, \"min_child_weight\": null, \"max_delta_step\": null, \"subsample\": null, \"colsample_bytree\": 1, \"colsample_bylevel\": null, \"colsample_bynode\": null, \"reg_alpha\": null, \"reg_lambda\": null, \"scale_pos_weight\": null, \"base_score\": null, \"missing\": NaN, \"num_parallel_tree\": null, \"random_state\": null, \"n_jobs\": null, \"monotone_constraints\": null, \"interaction_constraints\": null, \"importance_type\": null, \"gpu_id\": null, \"validate_parameters\": null, \"predictor\": null, \"enable_categorical\": false, \"kwargs\": {\"alpha\": 1}, \"_estimator_type\": \"regressor\"}"},"feature_names":[],"feature_types":[],"gradient_booster":{"model":{"gbtree_model_param":{"num_trees":"1000","size_leaf_vector":"0"},"tree_info":[0,0,0,0,0,0,0,0,0,0,0,0,0,0,0,0,0,0,0,0,0,0,0,0,0,0,0,0,0,0,0,0,0,0,0,0,0,0,0,0,0,0,0,0,0,0,0,0,0,0,0,0,0,0,0,0,0,0,0,0,0,0,0,0,0,0,0,0,0,0,0,0,0,0,0,0,0,0,0,0,0,0,0,0,0,0,0,0,0,0,0,0,0,0,0,0,0,0,0,0,0,0,0,0,0,0,0,0,0,0,0,0,0,0,0,0,0,0,0,0,0,0,0,0,0,0,0,0,0,0,0,0,0,0,0,0,0,0,0,0,0,0,0,0,0,0,0,0,0,0,0,0,0,0,0,0,0,0,0,0,0,0,0,0,0,0,0,0,0,0,0,0,0,0,0,0,0,0,0,0,0,0,0,0,0,0,0,0,0,0,0,0,0,0,0,0,0,0,0,0,0,0,0,0,0,0,0,0,0,0,0,0,0,0,0,0,0,0,0,0,0,0,0,0,0,0,0,0,0,0,0,0,0,0,0,0,0,0,0,0,0,0,0,0,0,0,0,0,0,0,0,0,0,0,0,0,0,0,0,0,0,0,0,0,0,0,0,0,0,0,0,0,0,0,0,0,0,0,0,0,0,0,0,0,0,0,0,0,0,0,0,0,0,0,0,0,0,0,0,0,0,0,0,0,0,0,0,0,0,0,0,0,0,0,0,0,0,0,0,0,0,0,0,0,0,0,0,0,0,0,0,0,0,0,0,0,0,0,0,0,0,0,0,0,0,0,0,0,0,0,0,0,0,0,0,0,0,0,0,0,0,0,0,0,0,0,0,0,0,0,0,0,0,0,0,0,0,0,0,0,0,0,0,0,0,0,0,0,0,0,0,0,0,0,0,0,0,0,0,0,0,0,0,0,0,0,0,0,0,0,0,0,0,0,0,0,0,0,0,0,0,0,0,0,0,0,0,0,0,0,0,0,0,0,0,0,0,0,0,0,0,0,0,0,0,0,0,0,0,0,0,0,0,0,0,0,0,0,0,0,0,0,0,0,0,0,0,0,0,0,0,0,0,0,0,0,0,0,0,0,0,0,0,0,0,0,0,0,0,0,0,0,0,0,0,0,0,0,0,0,0,0,0,0,0,0,0,0,0,0,0,0,0,0,0,0,0,0,0,0,0,0,0,0,0,0,0,0,0,0,0,0,0,0,0,0,0,0,0,0,0,0,0,0,0,0,0,0,0,0,0,0,0,0,0,0,0,0,0,0,0,0,0,0,0,0,0,0,0,0,0,0,0,0,0,0,0,0,0,0,0,0,0,0,0,0,0,0,0,0,0,0,0,0,0,0,0,0,0,0,0,0,0,0,0,0,0,0,0,0,0,0,0,0,0,0,0,0,0,0,0,0,0,0,0,0,0,0,0,0,0,0,0,0,0,0,0,0,0,0,0,0,0,0,0,0,0,0,0,0,0,0,0,0,0,0,0,0,0,0,0,0,0,0,0,0,0,0,0,0,0,0,0,0,0,0,0,0,0,0,0,0,0,0,0,0,0,0,0,0,0,0,0,0,0,0,0,0,0,0,0,0,0,0,0,0,0,0,0,0,0,0,0,0,0,0,0,0,0,0,0,0,0,0,0,0,0,0,0,0,0,0,0,0,0,0,0,0,0,0,0,0,0,0,0,0,0,0,0,0,0,0,0,0,0,0,0,0,0,0,0,0,0,0,0,0,0,0,0,0,0,0,0,0,0,0,0,0,0,0,0,0,0,0,0,0,0,0,0,0,0,0,0,0,0,0,0,0,0,0,0,0,0,0,0,0,0,0,0,0,0,0,0,0,0,0,0,0,0,0,0,0,0,0,0,0,0,0,0,0,0,0,0,0,0,0,0,0,0,0,0,0,0,0,0,0,0,0,0,0,0,0,0,0,0,0,0,0,0,0,0,0,0,0,0,0,0,0,0,0,0,0,0,0,0,0,0,0,0,0,0,0,0,0,0,0,0,0,0,0,0,0,0,0,0,0,0,0,0,0,0,0,0,0,0,0,0,0,0,0,0,0,0,0,0,0,0,0,0,0,0,0,0,0,0,0,0,0,0,0,0,0,0,0,0,0,0,0,0,0,0,0,0,0,0,0,0,0,0,0,0,0,0,0,0,0,0,0,0,0,0,0,0,0,0,0,0,0,0,0,0,0,0,0,0,0,0,0,0,0,0,0,0,0,0,0,0,0,0,0,0,0,0,0,0,0,0,0,0,0],"trees":[{"base_weights":[1.6897548E3,1.6887318E3,1.6922134E3,1.6891074E3,1.6971335E3],"categories":[],"categories_nodes":[],"categories_segments":[],"categories_sizes":[],"default_left":[true,false,true,false,false],"id":0,"left_children":[1,-1,3,-1,-1],"loss_changes":[2.097152E6,0E0,4.980736E6,0E0,0E0],"parents":[2147483647,0,0,2,2],"right_children":[2,-1,4,-1,-1],"split_conditions":[4.9985978E-1,1.6887318E1,-1.3143566E0,1.6891073E1,1.6971334E1],"split_indices":[3,0,2,0,0],"split_type":[0,0,0,0,0],"sum_hessian":[1.75E6,1.236314E6,5.13686E5,3.15109E5,1.98577E5],"tree_param":{"num_deleted":"0","num_feature":"8","num_nodes":"5","size_leaf_vector":"0"}},{"base_weights":[1.6728573E3,1.6718838E3,1.6752656E3,1.6722299E3,1.6802834E3],"categories":[],"categories_nodes":[],"categories_segments":[],"categories_sizes":[],"default_left":[true,false,true,false,false],"id":1,"left_children":[1,-1,3,-1,-1],"loss_changes":[1.572864E6,0E0,4.849664E6,0E0,0E0],"parents":[2147483647,0,0,2,2],"right_children":[2,-1,4,-1,-1],"split_conditions":[5.242778E-1,1.6718838E1,-1.2803197E0,1.6722298E1,1.6802834E1],"split_indices":[3,0,2,0,0],"split_type":[0,0,0,0,0],"sum_hessian":[1.75E6,1.246767E6,5.03233E5,3.13749E5,1.89484E5],"tree_param":{"num_deleted":"0","num_feature":"8","num_nodes":"5","size_leaf_vector":"0"}},{"base_weights":[1.6561287E3,1.6550831E3,1.6585583E3,1.6555697E3,1.6632784E3],"categories":[],"categories_nodes":[],"categories_segments":[],"categories_sizes":[],"default_left":[true,false,true,false,false],"id":2,"left_children":[1,-1,3,-1,-1],"loss_changes":[2.097152E6,0E0,4.718592E6,0E0,0E0],"parents":[2147483647,0,0,2,2],"right_children":[2,-1,4,-1,-1],"split_conditions":[4.682808E-1,1.655083E1,-1.298971E0,1.6555696E1,1.6632784E1],"split_indices":[3,0,0,0,0],"split_type":[0,0,0,0,0],"sum_hessian":[1.75E6,1.223956E6,5.26044E5,3.22312E5,2.03732E5],"tree_param":{"num_deleted":"0","num_feature":"8","num_nodes":"5","size_leaf_vector":"0"}},{"base_weights":[1.6395675E3,1.6384838E3,1.6419556E3,1.6395724E3,1.6473651E3],"categories":[],"categories_nodes":[],"categories_segments":[],"categories_sizes":[],"default_left":[true,false,true,false,false],"id":3,"left_children":[1,-1,3,-1,-1],"loss_changes":[2.097152E6,0E0,4.325376E6,0E0,0E0],"parents":[2147483647,0,0,2,2],"right_children":[2,-1,4,-1,-1],"split_conditions":[4.1426146E-1,1.6384838E1,-3.6007065E-1,1.6395723E1,1.647365E1],"split_indices":[3,0,0,0,0],"split_type":[0,0,0,0,0],"sum_hessian":[1.75E6,1.204215E6,5.45785E5,3.79084E5,1.66701E5],"tree_param":{"num_deleted":"0","num_feature":"8","num_nodes":"5","size_leaf_vector":"0"}},{"base_weights":[1.6231718E3,1.6221957E3,1.6255323E3,1.622512E3,1.6302711E3],"categories":[],"categories_nodes":[],"categories_segments":[],"categories_sizes":[],"default_left":[true,false,true,false,false],"id":4,"left_children":[1,-1,3,-1,-1],"loss_changes":[2.097152E6,0E0,4.718592E6,0E0,0E0],"parents":[2147483647,0,0,2,2],"right_children":[2,-1,4,-1,-1],"split_conditions":[5.050576E-1,1.6221956E1,-1.4834052E0,1.6225119E1,1.6302711E1],"split_indices":[3,0,2,0,0],"split_type":[0,0,0,0,0],"sum_hessian":[1.75E6,1.238559E6,5.11441E5,3.12568E5,1.98873E5],"tree_param":{"num_deleted":"0","num_feature":"8","num_nodes":"5","size_leaf_vector":"0"}},{"base_weights":[1.6069401E3,1.6059252E3,1.6092997E3,1.6063915E3,1.6138959E3],"categories":[],"categories_nodes":[],"categories_segments":[],"categories_sizes":[],"default_left":[true,false,true,false,false],"id":5,"left_children":[1,-1,3,-1,-1],"loss_changes":[2.097152E6,0E0,4.456448E6,0E0,0E0],"parents":[2147483647,0,0,2,2],"right_children":[2,-1,4,-1,-1],"split_conditions":[4.68825E-1,1.6059252E1,-1.298934E0,1.6063915E1,1.6138958E1],"split_indices":[3,0,0,0,0],"split_type":[0,0,0,0,0],"sum_hessian":[1.75E6,1.224151E6,5.25849E5,3.22277E5,2.03572E5],"tree_param":{"num_deleted":"0","num_feature":"8","num_nodes":"5","size_leaf_vector":"0"}},{"base_weights":[1.5908707E3,1.589891E3,1.5931981E3,1.5902809E3,1.5978002E3],"categories":[],"categories_nodes":[],"categories_segments":[],"categories_sizes":[],"default_left":[true,false,true,false,false],"id":6,"left_children":[1,-1,3,-1,-1],"loss_changes":[2.097152E6,0E0,4.456448E6,0E0,0E0],"parents":[2147483647,0,0,2,2],"right_children":[2,-1,4,-1,-1],"split_conditions":[4.8930657E-1,1.589891E1,-1.2515297E0,1.5902808E1,1.5978002E1],"split_indices":[3,0,2,0,0],"split_type":[0,0,0,0,0],"sum_hessian":[1.75E6,1.23201E6,5.1799E5,3.17242E5,2.00748E5],"tree_param":{"num_deleted":"0","num_feature":"8","num_nodes":"5","size_leaf_vector":"0"}},{"base_weights":[1.5749622E3,1.5739722E3,1.5772742E3,1.5744241E3,1.581807E3],"categories":[],"categories_nodes":[],"categories_segments":[],"categories_sizes":[],"default_left":[true,false,true,false,false],"id":7,"left_children":[1,-1,3,-1,-1],"loss_changes":[1.835008E6,0E0,4.325376E6,0E0,0E0],"parents":[2147483647,0,0,2,2],"right_children":[2,-1,4,-1,-1],"split_conditions":[4.7332087E-1,1.5739721E1,-1.2992952E0,1.5744241E1,1.5818069E1],"split_indices":[3,0,0,0,0],"split_type":[0,0,0,0,0],"sum_hessian":[1.75E6,1.225855E6,5.24145E5,3.22014E5,2.02131E5],"tree_param":{"num_deleted":"0","num_feature":"8","num_nodes":"5","size_leaf_vector":"0"}},{"base_weights":[1.5592125E3,1.5582611E3,1.5614893E3,1.5586124E3,1.5660352E3],"categories":[],"categories_nodes":[],"categories_segments":[],"categories_sizes":[],"default_left":[true,false,true,false,false],"id":8,"left_children":[1,-1,3,-1,-1],"loss_changes":[1.572864E6,0E0,4.325376E6,0E0,0E0],"parents":[2147483647,0,0,2,2],"right_children":[2,-1,4,-1,-1],"split_conditions":[4.9602127E-1,1.5582611E1,-1.280233E0,1.5586123E1,1.5660351E1],"split_indices":[3,0,2,0,0],"split_type":[0,0,0,0,0],"sum_hessian":[1.75E6,1.234715E6,5.15285E5,3.15783E5,1.99502E5],"tree_param":{"num_deleted":"0","num_feature":"8","num_nodes":"5","size_leaf_vector":"0"}},{"base_weights":[1.5436204E3,1.5426726E3,1.5458773E3,1.5430256E3,1.5503535E3],"categories":[],"categories_nodes":[],"categories_segments":[],"categories_sizes":[],"default_left":[true,false,true,false,false],"id":9,"left_children":[1,-1,3,-1,-1],"loss_changes":[1.572864E6,0E0,4.194304E6,0E0,0E0],"parents":[2147483647,0,0,2,2],"right_children":[2,-1,4,-1,-1],"split_conditions":[4.9173206E-1,1.5426725E1,-1.2802067E0,1.5430256E1,1.5503535E1],"split_indices":[3,0,2,0,0],"split_type":[0,0,0,0,0],"sum_hessian":[1.75E6,1.232964E6,5.17036E5,3.16041E5,2.00995E5],"tree_param":{"num_deleted":"0","num_feature":"8","num_nodes":"5","size_leaf_vector":"0"}},{"base_weights":[1.5281842E3,1.5271978E3,1.5304341E3,1.5285746E3,1.5256484E3,1.5275929E3,1.5346458E3],"categories":[],"categories_nodes":[],"categories_segments":[],"categories_sizes":[],"default_left":[true,true,true,false,false,false,false],"id":10,"left_children":[1,3,5,-1,-1,-1,-1],"loss_changes":[1.835008E6,2.62144E5,4.063232E6,0E0,0E0,0E0,0E0],"parents":[2147483647,0,0,1,1,2,2],"right_children":[2,4,6,-1,-1,-1,-1],"split_conditions":[4.4994378E-1,-1.9809164E-1,-1.2803197E0,1.5285746E1,1.5256484E1,1.52759285E1,1.53464575E1],"split_indices":[3,3,2,0,0,0,0],"split_type":[0,0,0,0,0,0,0],"sum_hessian":[1.75E6,1.217034E6,5.32966E5,6.43858E5,5.73176E5,3.18477E5,2.14489E5],"tree_param":{"num_deleted":"0","num_feature":"8","num_nodes":"7","size_leaf_vector":"0"}},{"base_weights":[1.5129025E3,1.511944E3,1.5151271E3,1.5132539E3,1.5104338E3,1.5123115E3,1.5193876E3],"categories":[],"categories_nodes":[],"categories_segments":[],"categories_sizes":[],"default_left":[true,true,true,false,false,false,false],"id":11,"left_children":[1,3,5,-1,-1,-1,-1],"loss_changes":[1.835008E6,2.62144E5,4.063232E6,0E0,0E0,0E0,0E0],"parents":[2147483647,0,0,1,1,2,2],"right_children":[2,4,6,-1,-1,-1,-1],"split_conditions":[4.6709394E-1,-1.8934372E-1,-1.3016529E0,1.5132539E1,1.5104338E1,1.5123115E1,1.5193875E1],"split_indices":[3,3,2,0,0,0,0],"split_type":[0,0,0,0,0,0,0],"sum_hessian":[1.75E6,1.223533E6,5.26467E5,6.54652E5,5.68881E5,3.17204E5,2.09263E5],"tree_param":{"num_deleted":"0","num_feature":"8","num_nodes":"7","size_leaf_vector":"0"}},{"base_weights":[1.4977734E3,1.4967881E3,1.4999753E3,1.4979974E3,1.4951642E3,1.4977603E3,1.5050626E3],"categories":[],"categories_nodes":[],"categories_segments":[],"categories_sizes":[],"default_left":[true,true,true,false,false,false,false],"id":12,"left_children":[1,3,5,-1,-1,-1,-1],"loss_changes":[1.835008E6,2.62144E5,3.801088E6,0E0,0E0,0E0,0E0],"parents":[2147483647,0,0,1,1,2,2],"right_children":[2,4,6,-1,-1,-1,-1],"split_conditions":[4.2917648E-1,-1.5827629E-1,-3.6007065E-1,1.4979974E1,1.4951641E1,1.4977602E1,1.5050626E1],"split_indices":[3,3,0,0,0,0,0],"split_type":[0,0,0,0,0,0,0],"sum_hessian":[1.75E6,1.209444E6,5.40556E5,6.92646E5,5.16798E5,3.76784E5,1.63772E5],"tree_param":{"num_deleted":"0","num_feature":"8","num_nodes":"7","size_leaf_vector":"0"}},{"base_weights":[1.4827958E3,1.4818805E3,1.4849681E3,1.4822158E3,1.4892644E3],"categories":[],"categories_nodes":[],"categories_segments":[],"categories_sizes":[],"default_left":[true,false,true,false,false],"id":13,"left_children":[1,-1,3,-1,-1],"loss_changes":[1.572864E6,0E0,3.93216E6,0E0,0E0],"parents":[2147483647,0,0,2,2],"right_children":[2,-1,4,-1,-1],"split_conditions":[4.88716E-1,1.4818805E1,-1.2875435E0,1.4822158E1,1.4892644E1],"split_indices":[3,0,2,0,0],"split_type":[0,0,0,0,0],"sum_hessian":[1.75E6,1.231748E6,5.18252E5,3.16095E5,2.02157E5],"tree_param":{"num_deleted":"0","num_feature":"8","num_nodes":"5","size_leaf_vector":"0"}},{"base_weights":[1.4679678E3,1.4670322E3,1.4701284E3,1.4683717E3,1.4655579E3,1.4674098E3,1.4742515E3],"categories":[],"categories_nodes":[],"categories_segments":[],"categories_sizes":[],"default_left":[true,true,true,false,false,false,false],"id":14,"left_children":[1,3,5,-1,-1,-1,-1],"loss_changes":[1.572864E6,2.62144E5,3.801088E6,0E0,0E0,0E0,0E0],"parents":[2147483647,0,0,1,1,2,2],"right_children":[2,4,6,-1,-1,-1,-1],"split_conditions":[4.621603E-1,-2.015992E-1,-1.2675838E0,1.4683717E1,1.4655579E1,1.4674098E1,1.4742515E1],"split_indices":[3,3,2,0,0,0,0],"split_type":[0,0,0,0,0,0,0],"sum_hessian":[1.75E6,1.221689E6,5.28311E5,6.39593E5,5.82096E5,3.18598E5,2.09713E5],"tree_param":{"num_deleted":"0","num_feature":"8","num_nodes":"7","size_leaf_vector":"0"}},{"base_weights":[1.4532881E3,1.452319E3,1.4554171E3,1.4536371E3,1.4507388E3,1.4532522E3,1.4603196E3],"categories":[],"categories_nodes":[],"categories_segments":[],"categories_sizes":[],"default_left":[true,true,true,false,false,false,false],"id":15,"left_children":[1,3,5,-1,-1,-1,-1],"loss_changes":[1.835008E6,5.24288E5,3.670016E6,0E0,0E0,0E0,0E0],"parents":[2147483647,0,0,1,1,2,2],"right_children":[2,4,6,-1,-1,-1,-1],"split_conditions":[4.109771E-1,-1.8872473E-1,-3.601302E-1,1.453637E1,1.4507387E1,1.4532521E1,1.4603195E1],"split_indices":[3,3,0,0,0,0,0],"split_type":[0,0,0,0,0,0,0],"sum_hessian":[1.75E6,1.203018E6,5.46982E5,6.55388E5,5.4763E5,3.79637E5,1.67345E5],"tree_param":{"num_deleted":"0","num_feature":"8","num_nodes":"7","size_leaf_vector":"0"}},{"base_weights":[1.4387552E3,1.4378824E3,1.4408572E3,1.4379296E3,1.4447611E3],"categories":[],"categories_nodes":[],"categories_segments":[],"categories_sizes":[],"default_left":[true,false,true,false,false],"id":16,"left_children":[1,-1,3,-1,-1],"loss_changes":[1.31072E6,0E0,3.801088E6,0E0,0E0],"parents":[2147483647,0,0,2,2],"right_children":[2,-1,4,-1,-1],"split_conditions":[5.01492E-1,1.4378824E1,-3.2864614E0,1.4379295E1,1.4447611E1],"split_indices":[3,0,0,0,0],"split_type":[0,0,0,0,0],"sum_hessian":[1.75E6,1.237007E6,5.12993E5,2.9336E5,2.19633E5],"tree_param":{"num_deleted":"0","num_feature":"8","num_nodes":"5","size_leaf_vector":"0"}},{"base_weights":[1.4243678E3,1.4234736E3,1.4264633E3,1.4248037E3,1.4220698E3,1.4235515E3,1.4301866E3],"categories":[],"categories_nodes":[],"categories_segments":[],"categories_sizes":[],"default_left":[true,true,true,false,false,false,false],"id":17,"left_children":[1,3,5,-1,-1,-1,-1],"loss_changes":[1.572864E6,2.62144E5,3.670016E6,0E0,0E0,0E0,0E0],"parents":[2147483647,0,0,1,1,2,2],"right_children":[2,4,6,-1,-1,-1,-1],"split_conditions":[4.7667998E-1,-2.0969012E-1,-3.287094E0,1.4248036E1,1.4220698E1,1.4235515E1,1.4301867E1],"split_indices":[3,3,0,0,0,0,0],"split_type":[0,0,0,0,0,0,0],"sum_hessian":[1.75E6,1.227103E6,5.22897E5,6.296E5,5.97503E5,2.93645E5,2.29252E5],"tree_param":{"num_deleted":"0","num_feature":"8","num_nodes":"7","size_leaf_vector":"0"}},{"base_weights":[1.4101241E3,1.4091975E3,1.4122047E3,1.4105161E3,1.4077058E3,1.4100988E3,1.4170613E3,1.4071296E3,1.4140768E3],"categories":[],"categories_nodes":[],"categories_segments":[],"categories_sizes":[],"default_left":[true,true,true,false,true,false,false,false,false],"id":18,"left_children":[1,3,5,-1,7,-1,-1,-1,-1],"loss_changes":[1.572864E6,5.24288E5,3.538944E6,0E0,1.31072E5,0E0,0E0,0E0,0E0],"parents":[2147483647,0,0,1,1,2,2,4,4],"right_children":[2,4,6,-1,8,-1,-1,-1,-1],"split_conditions":[4.3397272E-1,-1.9926196E-1,-3.6008507E-1,1.4105161E1,1.3417346E0,1.4100987E1,1.4170612E1,1.4071296E1,1.4140767E1],"split_indices":[3,3,0,0,1,0,0,0,0],"split_type":[0,0,0,0,0,0,0,0,0],"sum_hessian":[1.75E6,1.211216E6,5.38784E5,6.42384E5,5.68832E5,3.76025E5,1.62759E5,5.21854E5,4.6978E4],"tree_param":{"num_deleted":"0","num_feature":"8","num_nodes":"9","size_leaf_vector":"0"}},{"base_weights":[1.396023E3,1.3951158E3,1.3980831E3,1.3962671E3,1.3936073E3,1.3959034E3,1.4027208E3],"categories":[],"categories_nodes":[],"categories_segments":[],"categories_sizes":[],"default_left":[true,true,true,false,false,false,false],"id":19,"left_children":[1,3,5,-1,-1,-1,-1],"loss_changes":[1.572864E6,2.62144E5,3.473408E6,0E0,0E0,0E0,0E0],"parents":[2147483647,0,0,1,1,2,2],"right_children":[2,4,6,-1,-1,-1,-1],"split_conditions":[4.4573277E-1,-1.6139993E-1,-5.343336E-1,1.396267E1,1.3936072E1,1.3959034E1,1.4027208E1],"split_indices":[3,3,0,0,0,0,0],"split_type":[0,0,0,0,0,0,0],"sum_hessian":[1.75E6,1.215491E6,5.34509E5,6.88859E5,5.26632E5,3.63817E5,1.70692E5],"tree_param":{"num_deleted":"0","num_feature":"8","num_nodes":"7","size_leaf_vector":"0"}},{"base_weights":[1.3820627E3,1.3812233E3,1.3840841E3,1.3804741E3,1.3835336E3,1.3812772E3,1.3878456E3],"categories":[],"categories_nodes":[],"categories_segments":[],"categories_sizes":[],"default_left":[true,true,true,false,false,false,false],"id":20,"left_children":[1,3,5,-1,-1,-1,-1],"loss_changes":[1.31072E6,2.62144E5,3.538944E6,0E0,0E0,0E0,0E0],"parents":[2147483647,0,0,1,1,2,2],"right_children":[2,4,6,-1,-1,-1,-1],"split_conditions":[5.014827E-1,2.7802995E-1,-3.2829223E0,1.3804741E1,1.3835336E1,1.3812772E1,1.3878455E1],"split_indices":[3,4,0,0,0,0,0],"split_type":[0,0,0,0,0,0,0],"sum_hessian":[1.75E6,1.237001E6,5.12999E5,9.34538E5,3.02463E5,2.93993E5,2.19006E5],"tree_param":{"num_deleted":"0","num_feature":"8","num_nodes":"7","size_leaf_vector":"0"}},{"base_weights":[1.3682421E3,1.3673978E3,1.3702496E3,1.3687192E3,1.3660865E3,1.367669E3,1.3742455E3,1.3655648E3,1.3721895E3],"categories":[],"categories_nodes":[],"categories_segments":[],"categories_sizes":[],"default_left":[true,true,true,false,true,false,false,false,false],"id":21,"left_children":[1,3,5,-1,7,-1,-1,-1,-1],"loss_changes":[1.31072E6,2.62144E5,3.473408E6,0E0,1.31072E5,0E0,0E0,0E0,0E0],"parents":[2147483647,0,0,1,1,2,2,4,4],"right_children":[2,4,6,-1,8,-1,-1,-1,-1],"split_conditions":[4.9027267E-1,-2.2330585E-1,-1.4317234E0,1.3687192E1,1.3508743E0,1.3676689E1,1.3742455E1,1.3655648E1,1.3721894E1],"split_indices":[3,3,2,0,1,0,0,0,0],"split_type":[0,0,0,0,0,0,0,0,0],"sum_hessian":[1.75E6,1.232367E6,5.17633E5,6.1327E5,6.19097E5,3.14722E5,2.02911E5,5.70552E5,4.8545E4],"tree_param":{"num_deleted":"0","num_feature":"8","num_nodes":"9","size_leaf_vector":"0"}},{"base_weights":[1.3545597E3,1.3537083E3,1.356555E3,1.3549401E3,1.3523431E3,1.3540093E3,1.3604635E3,1.3517981E3,1.3584608E3],"categories":[],"categories_nodes":[],"categories_segments":[],"categories_sizes":[],"default_left":[true,true,true,false,true,false,false,false,false],"id":22,"left_children":[1,3,5,-1,7,-1,-1,-1,-1],"loss_changes":[1.31072E6,2.62144E5,3.407872E6,0E0,1.31072E5,0E0,0E0,0E0,0E0],"parents":[2147483647,0,0,1,1,2,2,4,4],"right_children":[2,4,6,-1,8,-1,-1,-1,-1],"split_conditions":[4.764703E-1,-1.9757043E-1,-1.2824703E0,1.35494E1,1.3239417E0,1.3540092E1,1.3604634E1,1.3517981E1,1.3584608E1],"split_indices":[3,3,2,0,1,0,0,0,0],"split_type":[0,0,0,0,0,0,0,0,0],"sum_hessian":[1.75E6,1.227048E6,5.22952E5,6.44497E5,5.82551E5,3.16891E5,2.06061E5,5.35102E5,4.7449E4],"tree_param":{"num_deleted":"0","num_feature":"8","num_nodes":"9","size_leaf_vector":"0"}},{"base_weights":[1.3410142E3,1.3401244E3,1.3429967E3,1.3413967E3,1.3386772E3,1.3409705E3,1.3476383E3,1.3381213E3,1.3449187E3],"categories":[],"categories_nodes":[],"categories_segments":[],"categories_sizes":[],"default_left":[true,true,true,false,true,false,false,false,false],"id":23,"left_children":[1,3,5,-1,7,-1,-1,-1,-1],"loss_changes":[1.572864E6,5.24288E5,3.2768E6,0E0,1.96608E5,0E0,0E0,0E0,0E0],"parents":[2147483647,0,0,1,1,2,2,4,4],"right_children":[2,4,6,-1,8,-1,-1,-1,-1],"split_conditions":[4.2598403E-1,-1.9916232E-1,-3.6008507E-1,1.3413967E1,1.3941368E0,1.3409704E1,1.3476383E1,1.3381213E1,1.3449186E1],"split_indices":[3,3,0,0,1,0,0,0,0],"split_type":[0,0,0,0,0,0,0,0,0],"sum_hessian":[1.75E6,1.208335E6,5.41665E5,6.42499E5,5.65836E5,3.77271E5,1.64394E5,5.19753E5,4.6083E4],"tree_param":{"num_deleted":"0","num_feature":"8","num_nodes":"9","size_leaf_vector":"0"}},{"base_weights":[1.3276041E3,1.3267732E3,1.3295581E3,1.3260381E3,1.3291104E3,1.3268169E3,1.3330822E3],"categories":[],"categories_nodes":[],"categories_segments":[],"categories_sizes":[],"default_left":[true,true,true,false,false,false,false],"id":24,"left_children":[1,3,5,-1,-1,-1,-1],"loss_changes":[1.31072E6,3.93216E5,3.2768E6,0E0,0E0,0E0,0E0],"parents":[2147483647,0,0,1,1,2,2],"right_children":[2,4,6,-1,-1,-1,-1],"split_conditions":[4.8001093E-1,2.931348E-1,-3.28611E0,1.3260381E1,1.3291103E1,1.3268168E1,1.3330821E1],"split_indices":[3,4,0,0,0,0,0],"split_type":[0,0,0,0,0,0,0],"sum_hessian":[1.75E6,1.22837E6,5.2163E5,9.34892E5,2.93478E5,2.93617E5,2.28013E5],"tree_param":{"num_deleted":"0","num_feature":"8","num_nodes":"7","size_leaf_vector":"0"}},{"base_weights":[1.314328E3,1.3134645E3,1.3162744E3,1.3126752E3,1.3157694E3,1.3143236E3,1.3208868E3,1.3160098E3,1.3120818E3,1.3116411E3,1.318185E3],"categories":[],"categories_nodes":[],"categories_segments":[],"categories_sizes":[],"default_left":[true,true,true,true,false,false,false,false,true,false,false],"id":25,"left_children":[1,3,5,7,-1,-1,-1,-1,9,-1,-1],"loss_changes":[1.31072E6,5.24288E5,3.145728E6,1.31072E5,0E0,0E0,0E0,0E0,3.93216E5,0E0,0E0],"parents":[2147483647,0,0,1,1,2,2,3,3,8,8],"right_children":[2,4,6,8,-1,-1,-1,-1,10,-1,-1],"split_conditions":[4.3789315E-1,2.580948E-1,-3.347524E-1,-5.6498826E-1,1.3157694E1,1.3143236E1,1.3208868E1,1.3160097E1,1.4253228E0,1.3116411E1,1.318185E1],"split_indices":[3,4,0,3,0,0,0,0,1,0,0],"split_type":[0,0,0,0,0,0,0,0,0,0,0],"sum_hessian":[1.75E6,1.212666E6,5.37334E5,9.03752E5,3.08914E5,3.77818E5,1.59516E5,1.36206E5,7.67546E5,7.16067E5,5.1479E4],"tree_param":{"num_deleted":"0","num_feature":"8","num_nodes":"11","size_leaf_vector":"0"}},{"base_weights":[1.3011848E3,1.3003289E3,1.3031117E3,1.29954E3,1.3025991E3,1.3011788E3,1.3076752E3],"categories":[],"categories_nodes":[],"categories_segments":[],"categories_sizes":[],"default_left":[true,true,true,false,false,false,false],"id":26,"left_children":[1,3,5,-1,-1,-1,-1],"loss_changes":[1.31072E6,5.24288E5,3.080192E6,0E0,0E0,0E0,0E0],"parents":[2147483647,0,0,1,1,2,2],"right_children":[2,4,6,-1,-1,-1,-1],"split_conditions":[4.3654013E-1,2.5145423E-1,-3.3523983E-1,1.29954E1,1.30259905E1,1.3011788E1,1.3076752E1],"split_indices":[3,4,0,0,0,0,0],"split_type":[0,0,0,0,0,0,0],"sum_hessian":[1.75E6,1.21218E6,5.3782E5,9.00042E5,3.12138E5,3.78006E5,1.59814E5],"tree_param":{"num_deleted":"0","num_feature":"8","num_nodes":"7","size_leaf_vector":"0"}},{"base_weights":[1.288173E3,1.2873895E3,1.2900604E3,1.2866547E3,1.2895592E3,1.2874498E3,1.2936321E3],"categories":[],"categories_nodes":[],"categories_segments":[],"categories_sizes":[],"default_left":[true,true,true,false,false,false,false],"id":27,"left_children":[1,3,5,-1,-1,-1,-1],"loss_changes":[1.048576E6,3.93216E5,3.145728E6,0E0,0E0,0E0,0E0],"parents":[2147483647,0,0,1,1,2,2],"right_children":[2,4,6,-1,-1,-1,-1],"split_conditions":[5.0180846E-1,2.5801992E-1,-3.0811749E0,1.2866547E1,1.2895592E1,1.2874498E1,1.293632E1],"split_indices":[3,4,0,0,0,0,0],"split_type":[0,0,0,0,0,0,0],"sum_hessian":[1.75E6,1.237157E6,5.12843E5,9.24562E5,3.12595E5,2.96495E5,2.16348E5],"tree_param":{"num_deleted":"0","num_feature":"8","num_nodes":"7","size_leaf_vector":"0"}},{"base_weights":[1.2752913E3,1.2744874E3,1.2771722E3,1.2756969E3,1.2731708E3,1.2747196E3,1.2808542E3,1.2726648E3,1.2791945E3],"categories":[],"categories_nodes":[],"categories_segments":[],"categories_sizes":[],"default_left":[true,true,true,false,true,false,false,false,false],"id":28,"left_children":[1,3,5,-1,7,-1,-1,-1,-1],"loss_changes":[1.31072E6,3.93216E5,3.080192E6,0E0,1.96608E5,0E0,0E0,0E0,0E0],"parents":[2147483647,0,0,1,1,2,2,4,4],"right_children":[2,4,6,-1,8,-1,-1,-1,-1],"split_conditions":[4.750486E-1,-2.0221533E-1,-1.4802424E0,1.27569685E1,1.459394E0,1.2747196E1,1.2808542E1,1.2726647E1,1.27919445E1],"split_indices":[3,3,2,0,1,0,0,0,0],"split_type":[0,0,0,0,0,0,0,0,0],"sum_hessian":[1.75E6,1.226509E6,5.23491E5,6.38787E5,5.87722E5,3.14409E5,2.09082E5,5.42372E5,4.535E4],"tree_param":{"num_deleted":"0","num_feature":"8","num_nodes":"9","size_leaf_vector":"0"}},{"base_weights":[1.2625385E3,1.2617101E3,1.2644109E3,1.2629508E3,1.2603467E3,1.2624967E3,1.2688516E3,1.2598252E3,1.2663958E3],"categories":[],"categories_nodes":[],"categories_segments":[],"categories_sizes":[],"default_left":[true,true,true,false,true,false,false,false,false],"id":29,"left_children":[1,3,5,-1,7,-1,-1,-1,-1],"loss_changes":[1.31072E6,5.24288E5,2.94912E6,0E0,2.62144E5,0E0,0E0,0E0,0E0],"parents":[2147483647,0,0,1,1,2,2,4,4],"right_children":[2,4,6,-1,8,-1,-1,-1,-1],"split_conditions":[4.40869E-1,-2.0528108E-1,-3.6007065E-1,1.2629508E1,1.43964E0,1.2624967E1,1.2688516E1,1.2598251E1,1.2663958E1],"split_indices":[3,3,0,0,1,0,0,0,0],"split_type":[0,0,0,0,0,0,0,0,0],"sum_hessian":[1.75E6,1.213757E6,5.36243E5,6.35023E5,5.78734E5,3.74919E5,1.61324E5,5.33003E5,4.5731E4],"tree_param":{"num_deleted":"0","num_feature":"8","num_nodes":"9","size_leaf_vector":"0"}},{"base_weights":[1.2499131E3,1.249103E3,1.2517646E3,1.24834E3,1.251298E3,1.2493812E3,1.2553079E3,1.2479972E3,1.2536274E3,1.2514043E3,1.247284E3],"categories":[],"categories_nodes":[],"categories_segments":[],"categories_sizes":[],"default_left":[true,true,true,true,false,false,false,true,false,false,false],"id":30,"left_children":[1,3,5,7,-1,-1,-1,9,-1,-1,-1],"loss_changes":[1.31072E6,5.24288E5,2.94912E6,1.31072E5,0E0,0E0,0E0,5.24288E5,0E0,0E0,0E0],"parents":[2147483647,0,0,1,1,2,2,3,3,7,7],"right_children":[2,4,6,8,-1,-1,-1,10,-1,-1,-1],"split_conditions":[4.5213154E-1,2.4977106E-1,-1.2802067E0,1.3178904E0,1.25129795E1,1.2493812E1,1.2553079E1,-5.3997445E-1,1.2536274E1,1.2514043E1,1.247284E1],"split_indices":[3,4,2,1,0,0,0,3,0,0,0],"split_type":[0,0,0,0,0,0,0,0,0,0,0],"sum_hessian":[1.75E6,1.217849E6,5.32151E5,9.04131E5,3.13718E5,3.18349E5,2.13802E5,8.49301E5,5.483E4,1.46683E5,7.02618E5],"tree_param":{"num_deleted":"0","num_feature":"8","num_nodes":"11","size_leaf_vector":"0"}},{"base_weights":[1.237414E3,1.2366174E3,1.2392458E3,1.2378933E3,1.2353392E3,1.2368837E3,1.2427811E3,1.2348423E3,1.2411775E3],"categories":[],"categories_nodes":[],"categories_segments":[],"categories_sizes":[],"default_left":[true,true,true,false,true,false,false,false,false],"id":31,"left_children":[1,3,5,-1,7,-1,-1,-1,-1],"loss_changes":[1.31072E6,5.24288E5,2.883584E6,0E0,2.62144E5,0E0,0E0,0E0,0E0],"parents":[2147483647,0,0,1,1,2,2,4,4],"right_children":[2,4,6,-1,8,-1,-1,-1,-1],"split_conditions":[4.5810595E-1,-2.2602019E-1,-1.2916267E0,1.2378933E1,1.4010224E0,1.2368836E1,1.2427811E1,1.2348423E1,1.2411775E1],"split_indices":[3,3,2,0,1,0,0,0,0],"split_type":[0,0,0,0,0,0,0,0,0],"sum_hessian":[1.75E6,1.220129E6,5.29871E5,6.10119E5,6.1001E5,3.17844E5,2.12027E5,5.62347E5,4.7663E4],"tree_param":{"num_deleted":"0","num_feature":"8","num_nodes":"9","size_leaf_vector":"0"}},{"base_weights":[1.2250399E3,1.2242395E3,1.226856E3,1.2254668E3,1.222927E3,1.2249954E3,1.2311879E3,1.2224235E3,1.2287793E3],"categories":[],"categories_nodes":[],"categories_segments":[],"categories_sizes":[],"default_left":[true,true,true,false,true,false,false,false,false],"id":32,"left_children":[1,3,5,-1,7,-1,-1,-1,-1],"loss_changes":[1.31072E6,5.24288E5,2.818048E6,0E0,2.62144E5,0E0,0E0,0E0,0E0],"parents":[2147483647,0,0,1,1,2,2,4,4],"right_children":[2,4,6,-1,8,-1,-1,-1,-1],"split_conditions":[4.4476372E-1,-2.1147019E-1,-3.6010778E-1,1.2254667E1,1.4266577E0,1.2249953E1,1.2311878E1,1.2224235E1,1.2287793E1],"split_indices":[3,3,0,0,1,0,0,0,0],"split_type":[0,0,0,0,0,0,0,0,0],"sum_hessian":[1.75E6,1.215148E6,5.34852E5,6.2749E5,5.87658E5,3.74346E5,1.60506E5,5.41297E5,4.6361E4],"tree_param":{"num_deleted":"0","num_feature":"8","num_nodes":"9","size_leaf_vector":"0"}},{"base_weights":[1.2127896E3,1.2119896E3,1.2145896E3,1.2132769E3,1.2107109E3,1.2128099E3,1.2189696E3,1.2102037E3,1.2164346E3],"categories":[],"categories_nodes":[],"categories_segments":[],"categories_sizes":[],"default_left":[true,true,true,false,true,false,false,false,false],"id":33,"left_children":[1,3,5,-1,7,-1,-1,-1,-1],"loss_changes":[1.31072E6,5.24288E5,2.752512E6,0E0,3.2768E5,0E0,0E0,0E0,0E0],"parents":[2147483647,0,0,1,1,2,2,4,4],"right_children":[2,4,6,-1,8,-1,-1,-1,-1],"split_conditions":[4.3624026E-1,-2.3163296E-1,-2.8107584E-1,1.2132769E1,1.3081453E0,1.2128099E1,1.2189695E1,1.2102037E1,1.2164346E1],"split_indices":[3,3,0,0,1,0,0,0,0],"split_type":[0,0,0,0,0,0,0,0,0],"sum_hessian":[1.75E6,1.212079E6,5.37921E5,6.03555E5,6.08524E5,3.82702E5,1.55219E5,5.59175E5,4.9349E4],"tree_param":{"num_deleted":"0","num_feature":"8","num_nodes":"9","size_leaf_vector":"0"}},{"base_weights":[1.2006616E3,1.1998892E3,1.2024393E3,1.1991812E3,1.2021104E3,1.1999077E3,1.2055879E3,1.1988582E3,1.2042235E3,1.2019557E3,1.1981373E3],"categories":[],"categories_nodes":[],"categories_segments":[],"categories_sizes":[],"default_left":[true,true,true,true,false,false,false,true,false,false,false],"id":34,"left_children":[1,3,5,7,-1,-1,-1,9,-1,-1,-1],"loss_changes":[1.048576E6,5.24288E5,2.752512E6,1.31072E5,0E0,0E0,0E0,5.24288E5,0E0,0E0,0E0],"parents":[2147483647,0,0,1,1,2,2,3,3,7,7],"right_children":[2,4,6,8,-1,-1,-1,10,-1,-1,-1],"split_conditions":[4.586389E-1,2.886464E-1,-3.28611E0,1.2973571E0,1.2021103E1,1.1999077E1,1.2055879E1,-5.164306E-1,1.2042234E1,1.2019557E1,1.1981373E1],"split_indices":[3,4,0,1,0,0,0,3,0,0,0],"split_type":[0,0,0,0,0,0,0,0,0,0,0],"sum_hessian":[1.75E6,1.220345E6,5.29655E5,9.25817E5,2.94528E5,2.93799E5,2.35856E5,8.70309E5,5.5508E4,1.63985E5,7.06324E5],"tree_param":{"num_deleted":"0","num_feature":"8","num_nodes":"11","size_leaf_vector":"0"}},{"base_weights":[1.188655E3,1.1879379E3,1.1903992E3,1.1873016E3,1.1901256E3,1.1879059E3,1.1937751E3,1.1900565E3,1.1867458E3,1.1863347E3,1.1921594E3],"categories":[],"categories_nodes":[],"categories_segments":[],"categories_sizes":[],"default_left":[true,true,true,true,false,false,false,false,true,false,false],"id":35,"left_children":[1,3,5,7,-1,-1,-1,-1,9,-1,-1],"loss_changes":[1.048576E6,3.93216E5,2.883584E6,1.31072E5,0E0,0E0,0E0,0E0,3.93216E5,0E0,0E0],"parents":[2147483647,0,0,1,1,2,2,3,3,8,8],"right_children":[2,4,6,8,-1,-1,-1,-1,10,-1,-1],"split_conditions":[5.0992316E-1,3.2439393E-1,-3.286282E0,-5.3078187E-1,1.1901256E1,1.1879059E1,1.1937751E1,1.1900565E1,1.2647259E0,1.1863347E1,1.1921594E1],"split_indices":[3,4,0,3,0,0,0,0,1,0,0],"split_type":[0,0,0,0,0,0,0,0,0,0,0],"sum_hessian":[1.75E6,1.240576E6,5.09424E5,9.61485E5,2.79091E5,2.93222E5,2.16202E5,1.61042E5,8.00443E5,7.44138E5,5.6305E4],"tree_param":{"num_deleted":"0","num_feature":"8","num_nodes":"11","size_leaf_vector":"0"}},{"base_weights":[1.1767686E3,1.1759949E3,1.1785172E3,1.1753064E3,1.1782235E3,1.1766204E3,1.1825199E3,1.1784961E3,1.174763E3,1.1743473E3,1.1802587E3],"categories":[],"categories_nodes":[],"categories_segments":[],"categories_sizes":[],"default_left":[true,true,true,true,false,false,false,false,true,false,false],"id":36,"left_children":[1,3,5,7,-1,-1,-1,-1,9,-1,-1],"loss_changes":[1.31072E6,5.24288E5,2.686976E6,2.62144E5,0E0,0E0,0E0,0E0,4.58752E5,0E0,0E0],"parents":[2147483647,0,0,1,1,2,2,3,3,8,8],"right_children":[2,4,6,8,-1,-1,-1,-1,10,-1,-1],"split_conditions":[4.4074652E-1,3.036322E-1,-5.410444E-1,-5.7783276E-1,1.1782235E1,1.1766203E1,1.1825199E1,1.1784961E1,1.2822309E0,1.1743473E1,1.1802587E1],"split_indices":[3,4,0,3,0,0,0,0,1,0,0],"split_type":[0,0,0,0,0,0,0,0,0,0,0],"sum_hessian":[1.75E6,1.213712E6,5.36288E5,9.2766E5,2.86052E5,3.64054E5,1.72234E5,1.34731E5,7.92929E5,7.37365E5,5.5564E4],"tree_param":{"num_deleted":"0","num_feature":"8","num_nodes":"11","size_leaf_vector":"0"}},{"base_weights":[1.165001E3,1.164263E3,1.1667229E3,1.1635674E3,1.166377E3,1.1645397E3,1.1701906E3,1.1663917E3,1.1630049E3,1.1625779E3,1.1684594E3],"categories":[],"categories_nodes":[],"categories_segments":[],"categories_sizes":[],"default_left":[true,true,true,true,false,false,false,false,true,false,false],"id":37,"left_children":[1,3,5,7,-1,-1,-1,-1,9,-1,-1],"loss_changes":[1.048576E6,5.24288E5,2.62144E6,1.31072E5,0E0,0E0,0E0,0E0,4.58752E5,0E0,0E0],"parents":[2147483647,0,0,1,1,2,2,3,3,8,8],"right_children":[2,4,6,8,-1,-1,-1,-1,10,-1,-1],"split_conditions":[4.7232598E-1,2.7368957E-1,-1.298934E0,-5.341277E-1,1.166377E1,1.1645396E1,1.1701905E1,1.1663917E1,1.283385E0,1.1625778E1,1.1684593E1],"split_indices":[3,4,0,3,0,0,0,0,1,0,0],"split_type":[0,0,0,0,0,0,0,0,0,0,0],"sum_hessian":[1.75E6,1.225477E6,5.24523E5,9.22541E5,3.02936E5,3.22075E5,2.02448E5,1.5288E5,7.69661E5,7.13977E5,5.5684E4],"tree_param":{"num_deleted":"0","num_feature":"8","num_nodes":"11","size_leaf_vector":"0"}},{"base_weights":[1.153351E3,1.1526073E3,1.155061E3,1.1538182E3,1.151397E3,1.1532162E3,1.1590404E3,1.1509286E3,1.1568583E3],"categories":[],"categories_nodes":[],"categories_segments":[],"categories_sizes":[],"default_left":[true,true,true,false,true,false,false,false,false],"id":38,"left_children":[1,3,5,-1,7,-1,-1,-1,-1],"loss_changes":[1.048576E6,5.24288E5,2.555904E6,0E0,2.62144E5,0E0,0E0,0E0,0E0],"parents":[2147483647,0,0,1,1,2,2,4,4],"right_children":[2,4,6,-1,8,-1,-1,-1,-1],"split_conditions":[4.5798084E-1,-2.266379E-1,-5.3420496E-1,1.1538182E1,1.3812416E0,1.1532162E1,1.1590404E1,1.1509286E1,1.1568583E1],"split_indices":[3,3,0,0,1,0,0,0,0],"split_type":[0,0,0,0,0,0,0,0,0],"sum_hessian":[1.75E6,1.220079E6,5.29921E5,6.09393E5,6.10686E5,3.62271E5,1.6765E5,5.6264E5,4.8046E4],"tree_param":{"num_deleted":"0","num_feature":"8","num_nodes":"9","size_leaf_vector":"0"}},{"base_weights":[1.1418175E3,1.1410957E3,1.143505E3,1.1404143E3,1.1431898E3,1.1410853E3,1.1465879E3,1.1401053E3,1.145201E3,1.1433492E3,1.1394656E3],"categories":[],"categories_nodes":[],"categories_segments":[],"categories_sizes":[],"default_left":[true,true,true,true,false,false,false,true,false,false,false],"id":39,"left_children":[1,3,5,7,-1,-1,-1,9,-1,-1,-1],"loss_changes":[1.048576E6,5.24288E5,2.62144E6,1.31072E5,0E0,0E0,0E0,5.24288E5,0E0,0E0,0E0],"parents":[2147483647,0,0,1,1,2,2,3,3,7,7],"right_children":[2,4,6,8,-1,-1,-1,10,-1,-1,-1],"split_conditions":[4.742726E-1,2.783609E-1,-3.2864614E0,1.2849479E0,1.1431898E1,1.1410853E1,1.14658785E1,-5.546501E-1,1.145201E1,1.1433492E1,1.1394655E1],"split_indices":[3,4,0,1,0,0,0,3,0,0,0],"split_type":[0,0,0,0,0,0,0,0,0,0,0],"sum_hessian":[1.75E6,1.226207E6,5.23793E5,9.25611E5,3.00596E5,2.93666E5,2.30127E5,8.69702E5,5.5909E4,1.42959E5,7.26743E5],"tree_param":{"num_deleted":"0","num_feature":"8","num_nodes":"11","size_leaf_vector":"0"}},{"base_weights":[1.1303993E3,1.129675E3,1.132073E3,1.129007E3,1.1317845E3,1.129943E3,1.1354066E3,1.1287012E3,1.1337434E3,1.1317203E3,1.1280317E3],"categories":[],"categories_nodes":[],"categories_segments":[],"categories_sizes":[],"default_left":[true,true,true,true,false,false,false,true,false,false,false],"id":40,"left_children":[1,3,5,7,-1,-1,-1,9,-1,-1,-1],"loss_changes":[1.048576E6,5.24288E5,2.490368E6,1.31072E5,0E0,0E0,0E0,5.24288E5,0E0,0E0,0E0],"parents":[2147483647,0,0,1,1,2,2,3,3,7,7],"right_children":[2,4,6,8,-1,-1,-1,10,-1,-1,-1],"split_conditions":[4.6277562E-1,2.9109633E-1,-1.3125485E0,1.276165E0,1.1317845E1,1.129943E1,1.1354066E1,-5.279171E-1,1.1337434E1,1.13172035E1,1.1280317E1],"split_indices":[3,4,0,1,0,0,0,3,0,0,0],"split_type":[0,0,0,0,0,0,0,0,0,0,0],"sum_hessian":[1.75E6,1.221923E6,5.28077E5,9.28384E5,2.93539E5,3.22409E5,2.05668E5,8.72315E5,5.6069E4,1.57996E5,7.14319E5],"tree_param":{"num_deleted":"0","num_feature":"8","num_nodes":"11","size_leaf_vector":"0"}},{"base_weights":[1.1190953E3,1.1183743E3,1.1207549E3,1.1176818E3,1.1204209E3,1.11902E3,1.1247395E3,1.120374E3,1.1171276E3,1.1198557E3,1.114898E3,1.1167098E3,1.1224398E3],"categories":[],"categories_nodes":[],"categories_segments":[],"categories_sizes":[],"default_left":[true,true,true,true,false,true,false,false,true,false,false,false,false],"id":41,"left_children":[1,3,5,7,-1,9,-1,-1,11,-1,-1,-1,-1],"loss_changes":[1.048576E6,5.24288E5,2.424832E6,1.31072E5,0E0,3.2768E4,0E0,0E0,4.58752E5,0E0,0E0,0E0,0E0],"parents":[2147483647,0,0,1,1,2,2,3,3,5,5,8,8],"right_children":[2,4,6,8,-1,10,-1,-1,12,-1,-1,-1,-1],"split_conditions":[4.5870578E-1,2.618428E-1,-4.2081362E-1,-5.2616954E-1,1.1204208E1,5.164721E0,1.1247395E1,1.120374E1,1.3065844E0,1.1198557E1,1.1148979E1,1.1167098E1,1.1224398E1],"split_indices":[3,4,0,3,0,4,0,0,1,0,0,0,0],"split_type":[0,0,0,0,0,0,0,0,0,0,0,0,0],"sum_hessian":[1.75E6,1.220382E6,5.29618E5,9.12284E5,3.08098E5,3.69169E5,1.60449E5,1.55413E5,7.56871E5,3.06721E5,6.2448E4,7.01897E5,5.4974E4],"tree_param":{"num_deleted":"0","num_feature":"8","num_nodes":"13","size_leaf_vector":"0"}},{"base_weights":[1.1079044E3,1.1071658E3,1.1095573E3,1.1083312E3,1.1059238E3,1.1079025E3,1.1136448E3,1.1054607E3,1.1112955E3,1.1087018E3,1.1037444E3],"categories":[],"categories_nodes":[],"categories_segments":[],"categories_sizes":[],"default_left":[true,true,true,false,true,true,false,false,false,false,false],"id":42,"left_children":[1,3,5,-1,7,9,-1,-1,-1,-1,-1],"loss_changes":[1.048576E6,5.24288E5,2.424832E6,0E0,2.62144E5,6.5536E4,0E0,0E0,0E0,0E0,0E0],"parents":[2147483647,0,0,1,1,2,2,4,4,5,5],"right_children":[2,4,6,-1,8,10,-1,-1,-1,-1,-1],"split_conditions":[4.3054578E-1,-2.146261E-1,-2.6485148E-1,1.1083311E1,1.4271274E0,5.167963E0,1.1136448E1,1.1054606E1,1.1112955E1,1.1087018E1,1.1037443E1],"split_indices":[3,3,0,0,1,4,0,0,0,0,0],"split_type":[0,0,0,0,0,0,0,0,0,0,0],"sum_hessian":[1.75E6,1.209913E6,5.40087E5,6.23721E5,5.86192E5,3.84641E5,1.55446E5,5.39855E5,4.6337E4,3.22406E5,6.2235E4],"tree_param":{"num_deleted":"0","num_feature":"8","num_nodes":"11","size_leaf_vector":"0"}},{"base_weights":[1.0968254E3,1.0960789E3,1.098463E3,1.0972793E3,1.0948368E3,1.0968789E3,1.1026279E3,1.0943564E3,1.1001184E3,1.0976611E3,1.092731E3],"categories":[],"categories_nodes":[],"categories_segments":[],"categories_sizes":[],"default_left":[true,true,true,false,true,true,false,false,false,false,false],"id":43,"left_children":[1,3,5,-1,7,9,-1,-1,-1,-1,-1],"loss_changes":[1.048576E6,6.5536E5,2.424832E6,0E0,3.2768E5,9.8304E4,0E0,0E0,0E0,0E0,0E0],"parents":[2147483647,0,0,1,1,2,2,4,4,5,5],"right_children":[2,4,6,-1,8,10,-1,-1,-1,-1,-1],"split_conditions":[4.0938985E-1,-2.2523023E-1,-1.4913198E-1,1.0972793E1,1.2757511E0,5.153818E0,1.1026279E1,1.0943564E1,1.10011835E1,1.0976611E1,1.0927309E1],"split_indices":[3,3,0,0,1,4,0,0,0,0,0],"split_type":[0,0,0,0,0,0,0,0,0,0,0],"sum_hessian":[1.75E6,1.202445E6,5.47555E5,6.11015E5,5.9143E5,3.96871E5,1.50684E5,5.42313E5,4.9117E4,3.33683E5,6.3188E4],"tree_param":{"num_deleted":"0","num_feature":"8","num_nodes":"11","size_leaf_vector":"0"}},{"base_weights":[1.0858572E3,1.0851438E3,1.0874735E3,1.0844673E3,1.0872007E3,1.0858525E3,1.0914558E3,1.087432E3,1.083944E3,1.0866393E3,1.08177E3,1.0835399E3,1.0890566E3],"categories":[],"categories_nodes":[],"categories_segments":[],"categories_sizes":[],"default_left":[true,true,true,true,false,true,false,false,true,false,false,false,false],"id":44,"left_children":[1,3,5,7,-1,9,-1,-1,11,-1,-1,-1,-1],"loss_changes":[1.048576E6,5.24288E5,2.29376E6,2.62144E5,0E0,6.5536E4,0E0,0E0,4.58752E5,0E0,0E0,0E0,0E0],"parents":[2147483647,0,0,1,1,2,2,3,3,5,5,8,8],"right_children":[2,4,6,8,-1,10,-1,-1,12,-1,-1,-1,-1],"split_conditions":[4.4307798E-1,2.7601728E-1,-2.9766214E-1,-5.6765306E-1,1.0872006E1,5.175021E0,1.0914557E1,1.087432E1,1.235014E0,1.0866392E1,1.08177E1,1.0835399E1,1.0890566E1],"split_indices":[3,4,0,3,0,4,0,0,1,0,0,0,0],"split_type":[0,0,0,0,0,0,0,0,0,0,0,0,0],"sum_hessian":[1.75E6,1.214539E6,5.35461E5,9.14353E5,3.00186E5,3.80753E5,1.54708E5,1.36868E5,7.77485E5,3.19011E5,6.1742E4,7.20739E5,5.6746E4],"tree_param":{"num_deleted":"0","num_feature":"8","num_nodes":"13","size_leaf_vector":"0"}},{"base_weights":[1.0749987E3,1.0742673E3,1.0766047E3,1.0754711E3,1.0730616E3,1.0750211E3,1.0806614E3,1.0725912E3,1.0782012E3,1.0757755E3,1.0709545E3],"categories":[],"categories_nodes":[],"categories_segments":[],"categories_sizes":[],"default_left":[true,true,true,false,true,true,false,false,false,false,false],"id":45,"left_children":[1,3,5,-1,7,9,-1,-1,-1,-1,-1],"loss_changes":[1.048576E6,6.5536E5,2.359296E6,0E0,3.2768E5,6.5536E4,0E0,0E0,0E0,0E0,0E0],"parents":[2147483647,0,0,1,1,2,2,4,4,5,5],"right_children":[2,4,6,-1,8,10,-1,-1,-1,-1,-1],"split_conditions":[4.1072655E-1,-2.3331577E-1,-1.8833092E-1,1.075471E1,1.2295934E0,5.1739006E0,1.0806614E1,1.0725912E1,1.0782011E1,1.0757755E1,1.0709544E1],"split_indices":[3,3,0,0,1,4,0,0,0,0,0],"split_type":[0,0,0,0,0,0,0,0,0,0,0],"sum_hessian":[1.75E6,1.2029E6,5.471E5,6.01498E5,6.01402E5,3.93677E5,1.53423E5,5.51161E5,5.0241E4,3.31848E5,6.1829E4],"tree_param":{"num_deleted":"0","num_feature":"8","num_nodes":"11","size_leaf_vector":"0"}},{"base_weights":[1.0642488E3,1.0635256E3,1.0658387E3,1.0645532E3,1.0622382E3,1.0641635E3,1.0696334E3,1.0617516E3,1.0674951E3],"categories":[],"categories_nodes":[],"categories_segments":[],"categories_sizes":[],"default_left":[true,true,true,false,true,false,false,false,false],"id":46,"left_children":[1,3,5,-1,7,-1,-1,-1,-1],"loss_changes":[9.17504E5,5.24288E5,2.359296E6,0E0,2.62144E5,0E0,0E0,0E0,0E0],"parents":[2147483647,0,0,1,1,2,2,4,4],"right_children":[2,4,6,-1,8,-1,-1,-1,-1],"split_conditions":[4.119572E-1,-1.7780748E-1,-3.6163902E-1,1.0645532E1,1.3638365E0,1.0641634E1,1.0696334E1,1.0617516E1,1.0674951E1],"split_indices":[3,3,0,0,1,0,0,0,0],"split_type":[0,0,0,0,0,0,0,0,0],"sum_hessian":[1.75E6,1.203363E6,5.46637E5,6.68752E5,5.34611E5,3.79405E5,1.67232E5,4.895E5,4.5111E4],"tree_param":{"num_deleted":"0","num_feature":"8","num_nodes":"9","size_leaf_vector":"0"}},{"base_weights":[1.0536063E3,1.0529279E3,1.0551696E3,1.0522958E3,1.0549847E3,1.0528999E3,1.057998E3,1.0551726E3,1.0517935E3,1.0514199E3,1.0567594E3],"categories":[],"categories_nodes":[],"categories_segments":[],"categories_sizes":[],"default_left":[true,true,true,true,false,false,false,false,true,false,false],"id":47,"left_children":[1,3,5,7,-1,-1,-1,-1,9,-1,-1],"loss_changes":[9.17504E5,5.24288E5,2.29376E6,2.62144E5,0E0,0E0,0E0,0E0,3.93216E5,0E0,0E0],"parents":[2147483647,0,0,1,1,2,2,3,3,8,8],"right_children":[2,4,6,8,-1,-1,-1,-1,10,-1,-1],"split_conditions":[4.5988306E-1,3.044334E-1,-3.2865434E0,-5.696347E-1,1.0549848E1,1.0528998E1,1.057998E1,1.0551725E1,1.2918391E0,1.0514199E1,1.0567594E1],"split_indices":[3,4,0,3,0,0,0,0,1,0,0],"split_type":[0,0,0,0,0,0,0,0,0,0,0],"sum_hessian":[1.75E6,1.220859E6,5.29141E5,9.34243E5,2.86616E5,2.93779E5,2.35362E5,1.38563E5,7.9568E5,7.40214E5,5.5466E4],"tree_param":{"num_deleted":"0","num_feature":"8","num_nodes":"11","size_leaf_vector":"0"}},{"base_weights":[1.0430703E3,1.0423862E3,1.0446227E3,1.0434899E3,1.0412322E3,1.0430072E3,1.0483846E3,1.0407881E3,1.0462303E3,1.0437999E3,1.0391112E3],"categories":[],"categories_nodes":[],"categories_segments":[],"categories_sizes":[],"default_left":[true,true,true,false,true,true,false,false,false,false,false],"id":48,"left_children":[1,3,5,-1,7,9,-1,-1,-1,-1,-1],"loss_changes":[9.17504E5,5.24288E5,2.162688E6,0E0,2.62144E5,9.8304E4,0E0,0E0,0E0,0E0,0E0],"parents":[2147483647,0,0,1,1,2,2,4,4,5,5],"right_children":[2,4,6,-1,8,10,-1,-1,-1,-1,-1],"split_conditions":[4.4494867E-1,-2.171117E-1,-3.6007065E-1,1.0434898E1,1.3265686E0,5.149353E0,1.0483847E1,1.0407881E1,1.0462303E1,1.0437999E1,1.0391111E1],"split_indices":[3,3,0,0,1,4,0,0,0,0,0],"split_type":[0,0,0,0,0,0,0,0,0,0,0],"sum_hessian":[1.75E6,1.215221E6,5.34779E5,6.20725E5,5.94496E5,3.74318E5,1.60461E5,5.46181E5,4.8315E4,3.10811E5,6.3507E4],"tree_param":{"num_deleted":"0","num_feature":"8","num_nodes":"11","size_leaf_vector":"0"}},{"base_weights":[1.0326396E3,1.0319365E3,1.0341843E3,1.0312074E3,1.0338832E3,1.0326421E3,1.0380913E3,1.0339808E3,1.0306763E3,1.0333788E3,1.0286823E3,1.0302766E3,1.0357722E3],"categories":[],"categories_nodes":[],"categories_segments":[],"categories_sizes":[],"default_left":[true,true,true,true,false,true,false,false,true,false,false,false,false],"id":49,"left_children":[1,3,5,7,-1,9,-1,-1,11,-1,-1,-1,-1],"loss_changes":[1.048576E6,6.5536E5,2.228224E6,2.62144E5,0E0,9.8304E4,0E0,0E0,4.58752E5,0E0,0E0,0E0,0E0],"parents":[2147483647,0,0,1,1,2,2,3,3,5,5,8,8],"right_children":[2,4,6,8,-1,10,-1,-1,12,-1,-1,-1,-1],"split_conditions":[4.1104484E-1,2.1908629E-1,-2.087675E-1,-5.4547244E-1,1.0338832E1,5.174754E0,1.0380913E1,1.0339808E1,1.3493308E0,1.0333788E1,1.0286822E1,1.0302766E1,1.0357722E1],"split_indices":[3,4,0,3,0,4,0,0,1,0,0,0,0],"split_type":[0,0,0,0,0,0,0,0,0,0,0,0,0],"sum_hessian":[1.75E6,1.203052E6,5.46948E5,8.75667E5,3.27385E5,3.92335E5,1.54613E5,1.40435E5,7.35232E5,3.30571E5,6.1764E4,6.81942E5,5.329E4],"tree_param":{"num_deleted":"0","num_feature":"8","num_nodes":"13","size_leaf_vector":"0"}},{"base_weights":[1.02231323E3,1.0216234E3,1.02384265E3,1.0209179E3,1.0235648E3,1.0222328E3,1.0275148E3,1.0236566E3,1.0203949E3,1.022982E3,1.0183987E3,1.019999E3,1.025397E3],"categories":[],"categories_nodes":[],"categories_segments":[],"categories_sizes":[],"default_left":[true,true,true,true,false,true,false,false,true,false,false,false,false],"id":50,"left_children":[1,3,5,7,-1,9,-1,-1,11,-1,-1,-1,-1],"loss_changes":[9.17504E5,6.5536E5,2.162688E6,2.62144E5,0E0,6.5536E4,0E0,0E0,4.58752E5,0E0,0E0,0E0,0E0],"parents":[2147483647,0,0,1,1,2,2,3,3,5,5,8,8],"right_children":[2,4,6,8,-1,10,-1,-1,12,-1,-1,-1,-1],"split_conditions":[4.205964E-1,2.3211533E-1,-3.6007065E-1,-5.4635423E-1,1.0235648E1,5.171379E0,1.0275147E1,1.0236566E1,1.3163135E0,1.0229819E1,1.0183987E1,1.019999E1,1.0253969E1],"split_indices":[3,4,0,3,0,4,0,0,1,0,0,0,0],"split_type":[0,0,0,0,0,0,0,0,0,0,0,0,0],"sum_hessian":[1.75E6,1.206462E6,5.43538E5,8.85281E5,3.21181E5,3.78073E5,1.65465E5,1.41632E5,7.43649E5,3.16052E5,6.2021E4,6.89297E5,5.4352E4],"tree_param":{"num_deleted":"0","num_feature":"8","num_nodes":"13","size_leaf_vector":"0"}},{"base_weights":[1.01209015E3,1.0113948E3,1.01360394E3,1.0106568E3,1.0132759E3,1.012106E3,1.0174688E3,1.013448E3,1.01013824E3,1.0128225E3,1.00821387E3,1.00973914E3,1.0151564E3],"categories":[],"categories_nodes":[],"categories_segments":[],"categories_sizes":[],"default_left":[true,true,true,true,false,true,false,false,true,false,false,false,false],"id":51,"left_children":[1,3,5,7,-1,9,-1,-1,11,-1,-1,-1,-1],"loss_changes":[9.17504E5,6.5536E5,2.162688E6,2.62144E5,0E0,9.8304E4,0E0,0E0,4.58752E5,0E0,0E0,0E0,0E0],"parents":[2147483647,0,0,1,1,2,2,3,3,5,5,8,8],"right_children":[2,4,6,8,-1,10,-1,-1,12,-1,-1,-1,-1],"split_conditions":[4.014153E-1,1.9787338E-1,-1.7147262E-1,-5.530634E-1,1.0132758E1,5.1726236E0,1.0174688E1,1.01344795E1,1.3407083E0,1.0128225E1,1.0082138E1,1.0097391E1,1.0151564E1],"split_indices":[3,4,0,3,0,4,0,0,1,0,0,0,0],"split_type":[0,0,0,0,0,0,0,0,0,0,0,0,0],"sum_hessian":[1.75E6,1.199595E6,5.50405E5,8.61973E5,3.37622E5,3.96857E5,1.53548E5,1.34742E5,7.27231E5,3.34938E5,6.1919E4,6.73845E5,5.3386E4],"tree_param":{"num_deleted":"0","num_feature":"8","num_nodes":"13","size_leaf_vector":"0"}},{"base_weights":[1.0019693E3,1.00132324E3,1.00345746E3,1.00066785E3,1.0032162E3,1.0012807E3,1.0061689E3,1.0034749E3,1.0001847E3,9.9981793E2,1.0049929E3],"categories":[],"categories_nodes":[],"categories_segments":[],"categories_sizes":[],"default_left":[true,true,true,true,false,false,false,false,true,false,false],"id":52,"left_children":[1,3,5,7,-1,-1,-1,-1,9,-1,-1],"loss_changes":[7.86432E5,5.24288E5,2.097152E6,2.62144E5,0E0,0E0,0E0,0E0,3.93216E5,0E0,0E0],"parents":[2147483647,0,0,1,1,2,2,3,3,8,8],"right_children":[2,4,6,8,-1,-1,-1,-1,10,-1,-1],"split_conditions":[4.5958334E-1,2.5087216E-1,-3.28611E0,-5.707087E-1,1.0032162E1,1.0012807E1,1.0061688E1,1.0034749E1,1.318534E0,9.998179E0,1.0049929E1],"split_indices":[3,4,0,3,0,0,0,0,1,0,0],"split_type":[0,0,0,0,0,0,0,0,0,0,0],"sum_hessian":[1.75E6,1.220724E6,5.29276E5,9.07174E5,3.1355E5,2.93788E5,2.35488E5,1.32914E5,7.7426E5,7.1958E5,5.468E4],"tree_param":{"num_deleted":"0","num_feature":"8","num_nodes":"11","size_leaf_vector":"0"}},{"base_weights":[9.9194965E2,9.912899E2,9.9343134E2,9.9232153E2,9.90135E2,9.918767E2,9.9701746E2,9.89717E2,9.950097E2,9.926041E2,9.8810406E2],"categories":[],"categories_nodes":[],"categories_segments":[],"categories_sizes":[],"default_left":[true,true,true,false,true,true,false,false,false,false,false],"id":53,"left_children":[1,3,5,-1,7,9,-1,-1,-1,-1,-1],"loss_changes":[9.17504E5,5.24288E5,2.031616E6,0E0,1.96608E5,6.5536E4,0E0,0E0,0E0,0E0,0E0],"parents":[2147483647,0,0,1,1,2,2,4,4,5,5],"right_children":[2,4,6,-1,8,10,-1,-1,-1,-1,-1],"split_conditions":[4.342001E-1,-2.0179054E-1,-3.6007065E-1,9.923215E0,1.4611465E0,5.185991E0,9.970175E0,9.897169E0,9.950097E0,9.926041E0,9.881041E0],"split_indices":[3,3,0,0,1,4,0,0,0,0,0],"split_type":[0,0,0,0,0,0,0,0,0,0,0],"sum_hessian":[1.75E6,1.211316E6,5.38684E5,6.39344E5,5.71972E5,3.75972E5,1.62712E5,5.26987E5,4.4985E4,3.14979E5,6.0993E4],"tree_param":{"num_deleted":"0","num_feature":"8","num_nodes":"11","size_leaf_vector":"0"}},{"base_weights":[9.820302E2,9.813701E2,9.834997E2,9.824006E2,9.8021375E2,9.8194934E2,9.8704443E2,9.797826E2,9.850286E2,9.826703E2,9.7823035E2],"categories":[],"categories_nodes":[],"categories_segments":[],"categories_sizes":[],"default_left":[true,true,true,false,true,true,false,false,false,false,false],"id":54,"left_children":[1,3,5,-1,7,9,-1,-1,-1,-1,-1],"loss_changes":[9.17504E5,5.24288E5,2.031616E6,0E0,2.29376E5,6.5536E4,0E0,0E0,0E0,0E0,0E0],"parents":[2147483647,0,0,1,1,2,2,4,4,5,5],"right_children":[2,4,6,-1,8,10,-1,-1,-1,-1,-1],"split_conditions":[4.252178E-1,-2.0258337E-1,-3.638567E-1,9.824005E0,1.3697048E0,5.178594E0,9.870444E0,9.797826E0,9.8502865E0,9.826703E0,9.782303E0],"split_indices":[3,3,0,0,1,4,0,0,0,0,0],"split_type":[0,0,0,0,0,0,0,0,0,0,0],"sum_hessian":[1.75E6,1.208058E6,5.41942E5,6.38366E5,5.69692E5,3.77228E5,1.64714E5,5.23059E5,4.6633E4,3.15754E5,6.1474E4],"tree_param":{"num_deleted":"0","num_feature":"8","num_nodes":"11","size_leaf_vector":"0"}},{"base_weights":[9.722099E2,9.71554E2,9.736657E2,9.708603E2,9.734087E2,9.7222205E2,9.773563E2,9.738576E2,9.7039026E2,9.7291626E2,9.684402E2,9.700296E2,9.751735E2],"categories":[],"categories_nodes":[],"categories_segments":[],"categories_sizes":[],"default_left":[true,true,true,true,false,true,false,false,true,false,false,false,false],"id":55,"left_children":[1,3,5,7,-1,9,-1,-1,11,-1,-1,-1,-1],"loss_changes":[9.17504E5,6.5536E5,1.96608E6,3.2768E5,0E0,9.8304E4,0E0,0E0,3.93216E5,0E0,0E0,0E0,0E0],"parents":[2147483647,0,0,1,1,2,2,3,3,5,5,8,8],"right_children":[2,4,6,8,-1,10,-1,-1,12,-1,-1,-1,-1],"split_conditions":[4.218576E-1,2.1861991E-1,-2.0105676E-1,-5.976725E-1,9.734087E0,5.1887302E0,9.773563E0,9.738576E0,1.3632215E0,9.729162E0,9.6844015E0,9.700295E0,9.751735E0],"split_indices":[3,4,0,3,0,4,0,0,1,0,0,0,0],"split_type":[0,0,0,0,0,0,0,0,0,0,0,0,0],"sum_hessian":[1.75E6,1.206896E6,5.43104E5,8.78747E5,3.28149E5,3.90581E5,1.52523E5,1.18842E5,7.59905E5,3.29785E5,6.0796E4,7.06821E5,5.3084E4],"tree_param":{"num_deleted":"0","num_feature":"8","num_nodes":"13","size_leaf_vector":"0"}},{"base_weights":[9.6248785E2,9.6182434E2,9.639305E2,9.627836E2,9.606059E2,9.6250696E2,9.6763916E2,9.6015753E2,9.65432E2,9.6321356E2,9.5881726E2],"categories":[],"categories_nodes":[],"categories_segments":[],"categories_sizes":[],"default_left":[true,true,true,false,true,true,false,false,false,false,false],"id":56,"left_children":[1,3,5,-1,7,9,-1,-1,-1,-1,-1],"loss_changes":[9.17504E5,5.24288E5,1.998848E6,0E0,2.29376E5,1.31072E5,0E0,0E0,0E0,0E0,0E0],"parents":[2147483647,0,0,1,1,2,2,4,4,5,5],"right_children":[2,4,6,-1,8,10,-1,-1,-1,-1,-1],"split_conditions":[4.002083E-1,-1.7637351E-1,-1.580975E-1,9.627836E0,1.3688033E0,5.1383038E0,9.676392E0,9.601575E0,9.65432E0,9.632135E0,9.588172E0],"split_indices":[3,3,0,0,1,4,0,0,0,0,0],"split_type":[0,0,0,0,0,0,0,0,0,0,0],"sum_hessian":[1.75E6,1.199158E6,5.50842E5,6.70487E5,5.28671E5,3.98244E5,1.52598E5,4.83912E5,4.4759E4,3.34013E5,6.4231E4],"tree_param":{"num_deleted":"0","num_feature":"8","num_nodes":"11","size_leaf_vector":"0"}},{"base_weights":[9.5286304E2,9.52247E2,9.5428E2,9.516545E2,9.541741E2,9.521915E2,9.5687604E2,9.541257E2,9.511642E2,9.5080493E2,9.5570984E2],"categories":[],"categories_nodes":[],"categories_segments":[],"categories_sizes":[],"default_left":[true,true,true,true,false,false,false,false,true,false,false],"id":57,"left_children":[1,3,5,7,-1,-1,-1,-1,9,-1,-1],"loss_changes":[7.86432E5,5.24288E5,1.933312E6,2.62144E5,0E0,0E0,0E0,0E0,3.93216E5,0E0,0E0],"parents":[2147483647,0,0,1,1,2,2,3,3,8,8],"right_children":[2,4,6,8,-1,-1,-1,-1,10,-1,-1],"split_conditions":[4.583179E-1,3.0430353E-1,-3.28611E0,-5.3849083E-1,9.54174E0,9.521915E0,9.56876E0,9.541257E0,1.2325366E0,9.508049E0,9.557098E0],"split_indices":[3,4,0,3,0,0,0,0,1,0,0],"split_type":[0,0,0,0,0,0,0,0,0,0,0],"sum_hessian":[1.75E6,1.220212E6,5.29788E5,9.33643E5,2.86569E5,2.938E5,2.35988E5,1.54259E5,7.79384E5,7.22501E5,5.6883E4],"tree_param":{"num_deleted":"0","num_feature":"8","num_nodes":"11","size_leaf_vector":"0"}},{"base_weights":[9.433344E2,9.426967E2,9.447483E2,9.4206573E2,9.445895E2,9.432509E2,9.481641E2,9.448214E2,9.415884E2,9.439415E2,9.396478E2,9.41236E2,9.4618896E2],"categories":[],"categories_nodes":[],"categories_segments":[],"categories_sizes":[],"default_left":[true,true,true,true,false,true,false,false,true,false,false,false,false],"id":58,"left_children":[1,3,5,7,-1,9,-1,-1,11,-1,-1,-1,-1],"loss_changes":[7.86432E5,5.89824E5,1.900544E6,3.2768E5,0E0,6.5536E4,0E0,0E0,3.93216E5,0E0,0E0,0E0,0E0],"parents":[2147483647,0,0,1,1,2,2,3,3,5,5,8,8],"right_children":[2,4,6,8,-1,10,-1,-1,12,-1,-1,-1,-1],"split_conditions":[4.2080396E-1,2.718809E-1,-3.6016092E-1,-5.745448E-1,9.445894E0,5.185423E0,9.481641E0,9.448214E0,1.3049911E0,9.439415E0,9.396478E0,9.41236E0,9.461889E0],"split_indices":[3,4,0,3,0,4,0,0,1,0,0,0,0],"split_type":[0,0,0,0,0,0,0,0,0,0,0,0,0],"sum_hessian":[1.75E6,1.206524E6,5.43476E5,9.05234E5,3.0129E5,3.78036E5,1.6544E5,1.33375E5,7.71859E5,3.17011E5,6.1025E4,7.17146E5,5.4713E4],"tree_param":{"num_deleted":"0","num_feature":"8","num_nodes":"13","size_leaf_vector":"0"}},{"base_weights":[9.339011E2,9.332712E2,9.353004E2,9.3261255E2,9.350916E2,9.3381854E2,9.386836E2,9.3547314E2,9.3215344E2,9.3200287E2,9.352248E2,9.3179926E2,9.367268E2],"categories":[],"categories_nodes":[],"categories_segments":[],"categories_sizes":[],"default_left":[true,true,true,true,false,true,false,false,true,false,false,false,false],"id":59,"left_children":[1,3,5,7,-1,9,-1,-1,11,-1,-1,-1,-1],"loss_changes":[7.86432E5,5.89824E5,1.867776E6,3.2768E5,0E0,9.8304E4,0E0,0E0,3.93216E5,0E0,0E0,0E0,0E0],"parents":[2147483647,0,0,1,1,2,2,3,3,5,5,8,8],"right_children":[2,4,6,8,-1,10,-1,-1,12,-1,-1,-1,-1],"split_conditions":[4.227779E-1,2.3404606E-1,-3.6196125E-1,-5.9211636E-1,9.350916E0,-2.2907075E-1,9.386836E0,9.354732E0,1.3047912E0,9.320028E0,9.352248E0,9.317992E0,9.367268E0],"split_indices":[3,4,0,3,0,5,0,0,1,0,0,0,0],"split_type":[0,0,0,0,0,0,0,0,0,0,0,0,0],"sum_hessian":[1.75E6,1.207208E6,5.42792E5,8.86866E5,3.20342E5,3.77652E5,1.6514E5,1.2237E5,7.64496E5,1.65122E5,2.1253E5,7.09738E5,5.4758E4],"tree_param":{"num_deleted":"0","num_feature":"8","num_nodes":"13","size_leaf_vector":"0"}},{"base_weights":[9.2456213E2,9.239263E2,9.259495E2,9.2323975E2,9.2570154E2,9.245401E2,9.294882E2,9.2621704E2,9.227914E2,9.2522577E2,9.2095294E2,9.2243744E2,9.2737036E2,9.2126196E2,9.259219E2,9.2473895E2,9.3050757E2],"categories":[],"categories_nodes":[],"categories_segments":[],"categories_sizes":[],"default_left":[true,true,true,true,false,true,false,false,true,true,false,false,false,false,true,false,false],"id":60,"left_children":[1,3,5,7,-1,9,-1,-1,11,13,-1,-1,-1,-1,15,-1,-1],"loss_changes":[7.86432E5,6.5536E5,1.900544E6,3.2768E5,0E0,1.31072E5,0E0,0E0,3.93216E5,6.5536E4,0E0,0E0,0E0,0E0,6.5536E5,0E0,0E0],"parents":[2147483647,0,0,1,1,2,2,3,3,5,5,8,8,9,9,14,14],"right_children":[2,4,6,8,-1,10,-1,-1,12,14,-1,-1,-1,-1,16,-1,-1],"split_conditions":[4.0387195E-1,2.0439793E-1,-2.1945384E-1,-6.108004E-1,9.257015E0,5.152029E0,9.294882E0,9.26217E0,1.3272707E0,7.4814284E-1,9.209529E0,9.224374E0,9.273704E0,9.21262E0,-3.2864614E0,9.24739E0,9.305076E0],"split_indices":[3,4,0,3,0,4,0,0,1,3,0,0,0,0,0,0,0],"split_type":[0,0,0,0,0,0,0,0,0,0,0,0,0,0,0,0,0],"sum_hessian":[1.75E6,1.200459E6,5.49541E5,8.6608E5,3.34379E5,3.93198E5,1.56343E5,1.1309E5,7.5299E5,3.29886E5,6.3312E4,6.99151E5,5.3839E4,4.9478E4,2.80408E5,2.23069E5,5.7339E4],"tree_param":{"num_deleted":"0","num_feature":"8","num_nodes":"17","size_leaf_vector":"0"}},{"base_weights":[9.153166E2,9.146961E2,9.1668896E2,9.140576E2,9.16499E2,9.1532806E2,9.201899E2,9.1689465E2,9.136102E2,9.1599805E2,9.117154E2,9.1326135E2,9.180743E2,9.1199023E2,9.1664746E2,9.154632E2,9.211354E2],"categories":[],"categories_nodes":[],"categories_segments":[],"categories_sizes":[],"default_left":[true,true,true,true,false,true,false,false,true,true,false,false,false,false,true,false,false],"id":61,"left_children":[1,3,5,7,-1,9,-1,-1,11,13,-1,-1,-1,-1,15,-1,-1],"loss_changes":[7.86432E5,5.89824E5,1.769472E6,3.2768E5,0E0,1.31072E5,0E0,0E0,3.93216E5,3.2768E4,0E0,0E0,0E0,0E0,6.71744E5,0E0,0E0],"parents":[2147483647,0,0,1,1,2,2,3,3,5,5,8,8,9,9,14,14],"right_children":[2,4,6,8,-1,10,-1,-1,12,14,-1,-1,-1,-1,16,-1,-1],"split_conditions":[4.1804928E-1,2.4419406E-1,-1.8684903E-1,-5.978014E-1,9.16499E0,5.177375E0,9.201899E0,9.168946E0,1.2705815E0,7.3815787E-1,9.117154E0,9.132613E0,9.180742E0,9.119903E0,-3.3187807E0,9.154632E0,9.211353E0],"split_indices":[3,4,0,3,0,4,0,0,1,3,0,0,0,0,0,0,0],"split_type":[0,0,0,0,0,0,0,0,0,0,0,0,0,0,0,0,0],"sum_hessian":[1.75E6,1.205597E6,5.44403E5,8.9069E5,3.14907E5,3.92206E5,1.52197E5,1.21049E5,7.69641E5,3.30637E5,6.1569E4,7.14044E5,5.5597E4,4.63E4,2.84337E5,2.25135E5,5.9202E4],"tree_param":{"num_deleted":"0","num_feature":"8","num_nodes":"17","size_leaf_vector":"0"}},{"base_weights":[9.0616345E2,9.0556665E2,9.075152E2,9.049092E2,9.072744E2,9.0553955E2,9.0992523E2,9.0762616E2,9.044659E2,9.041111E2,9.0889795E2],"categories":[],"categories_nodes":[],"categories_segments":[],"categories_sizes":[],"default_left":[true,true,true,true,false,false,false,false,true,false,false],"id":62,"left_children":[1,3,5,7,-1,-1,-1,-1,9,-1,-1],"loss_changes":[6.5536E5,5.89824E5,1.736704E6,2.62144E5,0E0,0E0,0E0,0E0,3.93216E5,0E0,0E0],"parents":[2147483647,0,0,1,1,2,2,3,3,8,8],"right_children":[2,4,6,8,-1,-1,-1,-1,10,-1,-1],"split_conditions":[4.4283938E-1,2.0257823E-1,-3.281878E0,-5.837661E-1,9.072744E0,9.055395E0,9.099252E0,9.0762615E0,1.2758166E0,9.041111E0,9.08898E0],"split_indices":[3,4,0,3,0,0,0,0,1,0,0],"split_type":[0,0,0,0,0,0,0,0,0,0,0],"sum_hessian":[1.75E6,1.214459E6,5.35541E5,8.77255E5,3.37204E5,2.94502E5,2.41039E5,1.2276E5,7.54495E5,6.98768E5,5.5727E4],"tree_param":{"num_deleted":"0","num_feature":"8","num_nodes":"11","size_leaf_vector":"0"}},{"base_weights":[8.971018E2,8.9650323E2,8.984434E2,8.958406E2,8.981924E2,8.97026E2,9.017072E2,8.9848627E2,8.9539246E2,8.952364E2,8.984165E2,8.9503705E2,8.9981506E2],"categories":[],"categories_nodes":[],"categories_segments":[],"categories_sizes":[],"default_left":[true,true,true,true,false,true,false,false,true,false,false,false,false],"id":63,"left_children":[1,3,5,7,-1,9,-1,-1,11,-1,-1,-1,-1],"loss_changes":[6.5536E5,5.89824E5,1.703936E6,2.62144E5,0E0,1.31072E5,0E0,0E0,3.93216E5,0E0,0E0,0E0,0E0],"parents":[2147483647,0,0,1,1,2,2,3,3,5,5,8,8],"right_children":[2,4,6,8,-1,10,-1,-1,12,-1,-1,-1,-1],"split_conditions":[4.3223903E-1,1.948068E-1,-3.6010778E-1,-5.7426524E-1,8.981924E0,-2.2908702E-1,9.017072E0,8.984862E0,1.2931566E0,8.952364E0,8.984165E0,8.95037E0,8.998151E0],"split_indices":[3,4,0,3,0,5,0,0,1,0,0,0,0],"split_type":[0,0,0,0,0,0,0,0,0,0,0,0,0],"sum_hessian":[1.75E6,1.210556E6,5.39444E5,8.69821E5,3.40735E5,3.763E5,1.63144E5,1.25693E5,7.44128E5,1.64819E5,2.11481E5,6.88963E5,5.5165E4],"tree_param":{"num_deleted":"0","num_feature":"8","num_nodes":"13","size_leaf_vector":"0"}},{"base_weights":[8.8813086E2,8.87551E2,8.8945386E2,8.8694104E2,8.892665E2,8.87494E2,8.9186053E2,8.895121E2,8.865012E2,8.8617596E2,8.9085126E2],"categories":[],"categories_nodes":[],"categories_segments":[],"categories_sizes":[],"default_left":[true,true,true,true,false,false,false,false,true,false,false],"id":64,"left_children":[1,3,5,7,-1,-1,-1,-1,9,-1,-1],"loss_changes":[6.5536E5,5.24288E5,1.703936E6,2.62144E5,0E0,0E0,0E0,0E0,3.2768E5,0E0,0E0],"parents":[2147483647,0,0,1,1,2,2,3,3,8,8],"right_children":[2,4,6,8,-1,-1,-1,-1,10,-1,-1],"split_conditions":[4.5049053E-1,2.3939711E-1,-3.28611E0,-5.725236E-1,8.892665E0,8.87494E0,8.918605E0,8.895121E0,1.3686322E0,8.861759E0,8.908512E0],"split_indices":[3,4,0,3,0,0,0,0,1,0,0],"split_type":[0,0,0,0,0,0,0,0,0,0,0],"sum_hessian":[1.75E6,1.217241E6,5.32759E5,8.98323E5,3.18918E5,2.93841E5,2.38918E5,1.3092E5,7.67403E5,7.14206E5,5.3197E4],"tree_param":{"num_deleted":"0","num_feature":"8","num_nodes":"11","size_leaf_vector":"0"}},{"base_weights":[8.792496E2,8.7866785E2,8.8056287E2,8.780463E2,8.803583E2,8.786193E2,8.829112E2,8.8066345E2,8.7761206E2,8.7728204E2,8.8193134E2],"categories":[],"categories_nodes":[],"categories_segments":[],"categories_sizes":[],"default_left":[true,true,true,true,false,false,false,false,true,false,false],"id":65,"left_children":[1,3,5,7,-1,-1,-1,-1,9,-1,-1],"loss_changes":[6.5536E5,5.24288E5,1.671168E6,2.62144E5,0E0,0E0,0E0,0E0,3.2768E5,0E0,0E0],"parents":[2147483647,0,0,1,1,2,2,3,3,8,8],"right_children":[2,4,6,8,-1,-1,-1,-1,10,-1,-1],"split_conditions":[4.3956012E-1,2.2501901E-1,-3.2863443E0,-5.808744E-1,8.803582E0,8.786193E0,8.829112E0,8.806634E0,1.3420432E0,8.77282E0,8.819313E0],"split_indices":[3,4,0,3,0,0,0,0,1,0,0],"split_type":[0,0,0,0,0,0,0,0,0,0,0],"sum_hessian":[1.75E6,1.213271E6,5.36729E5,8.87491E5,3.2578E5,2.93877E5,2.42852E5,1.2602E5,7.61471E5,7.07606E5,5.3865E4],"tree_param":{"num_deleted":"0","num_feature":"8","num_nodes":"11","size_leaf_vector":"0"}},{"base_weights":[8.704571E2,8.698815E2,8.717571E2,8.69254E2,8.7153613E2,8.698331E2,8.740826E2,8.7187885E2,8.6882794E2,8.7482837E2,8.697816E2,8.684982E2,8.7311096E2],"categories":[],"categories_nodes":[],"categories_segments":[],"categories_sizes":[],"default_left":[true,true,true,true,false,false,true,false,true,false,false,false,false],"id":66,"left_children":[1,3,5,7,-1,-1,9,-1,11,-1,-1,-1,-1],"loss_changes":[6.5536E5,5.24288E5,1.6384E6,2.62144E5,0E0,0E0,3.2768E4,0E0,3.2768E5,0E0,0E0,0E0,0E0],"parents":[2147483647,0,0,1,1,2,2,3,3,6,6,8,8],"right_children":[2,4,6,8,-1,-1,10,-1,12,-1,-1,-1,-1],"split_conditions":[4.3984348E-1,2.1035996E-1,-3.28611E0,-5.8577263E-1,8.715362E0,8.698331E0,5.811855E-1,8.718788E0,1.3394246E0,8.748283E0,8.697816E0,8.684982E0,8.73111E0],"split_indices":[3,4,0,3,0,0,1,0,1,0,0,0,0],"split_type":[0,0,0,0,0,0,0,0,0,0,0,0,0],"sum_hessian":[1.75E6,1.21337E6,5.3663E5,8.80168E5,3.33202E5,2.93877E5,2.42753E5,1.22638E5,7.5753E5,2.06709E5,3.6044E4,7.0357E5,5.396E4],"tree_param":{"num_deleted":"0","num_feature":"8","num_nodes":"13","size_leaf_vector":"0"}},{"base_weights":[8.6175256E2,8.6116833E2,8.630467E2,8.621765E2,8.601261E2,8.6174084E2,8.663794E2,8.597471E2,8.6437616E2,8.62392E2,8.5820856E2,8.5937195E2,8.636348E2,8.5823474E2,8.6303595E2,8.61914E2,8.6730194E2],"categories":[],"categories_nodes":[],"categories_segments":[],"categories_sizes":[],"default_left":[true,true,true,false,true,true,false,true,false,true,false,false,false,false,true,false,false],"id":67,"left_children":[1,3,5,-1,7,9,-1,11,-1,13,-1,-1,-1,-1,15,-1,-1],"loss_changes":[6.5536E5,5.24288E5,1.6384E6,0E0,2.29376E5,1.6384E5,0E0,6.5536E4,0E0,1.47456E5,0E0,0E0,0E0,0E0,6.22592E5,0E0,0E0],"parents":[2147483647,0,0,1,1,2,2,4,4,5,5,7,7,9,9,14,14],"right_children":[2,4,6,-1,8,10,-1,12,-1,14,-1,-1,-1,-1,16,-1,-1],"split_conditions":[4.197383E-1,-2.2383098E-1,-2.0219705E-1,8.621765E0,1.3279727E0,5.1848774E0,8.663794E0,4.662768E-1,8.643762E0,7.2616684E-1,8.582086E0,8.5937195E0,8.636348E0,8.582347E0,-3.3202305E0,8.61914E0,8.673019E0],"split_indices":[3,3,0,0,1,4,0,4,0,3,0,0,0,0,0,0,0],"split_type":[0,0,0,0,0,0,0,0,0,0,0,0,0,0,0,0,0],"sum_hessian":[1.75E6,1.206162E6,5.43838E5,6.12684E5,5.93478E5,3.90923E5,1.52915E5,5.45072E5,4.8406E4,3.29868E5,6.1055E4,4.97307E5,4.7765E4,4.4422E4,2.85446E5,2.26165E5,5.9281E4],"tree_param":{"num_deleted":"0","num_feature":"8","num_nodes":"17","size_leaf_vector":"0"}},{"base_weights":[8.531351E2,8.525487E2,8.544193E2,8.536002E2,8.515317E2,8.5313556E2,8.5776337E2,8.511639E2,8.557386E2,8.537678E2,8.496236E2,8.507712E2,8.5499536E2,8.4990546E2,8.5442645E2,8.5329584E2,8.586604E2],"categories":[],"categories_nodes":[],"categories_segments":[],"categories_sizes":[],"default_left":[true,true,true,false,true,true,false,true,false,true,false,false,false,false,true,false,false],"id":68,"left_children":[1,3,5,-1,7,9,-1,11,-1,13,-1,-1,-1,-1,15,-1,-1],"loss_changes":[6.5536E5,5.89824E5,1.6384E6,0E0,2.29376E5,1.6384E5,0E0,1.31072E5,0E0,1.31072E5,0E0,0E0,0E0,0E0,6.38976E5,0E0,0E0],"parents":[2147483647,0,0,1,1,2,2,4,4,5,5,7,7,9,9,14,14],"right_children":[2,4,6,-1,8,10,-1,12,-1,14,-1,-1,-1,-1,16,-1,-1],"split_conditions":[4.0783563E-1,-2.425074E-1,-1.606854E-1,8.536002E0,1.3417346E0,5.190645E0,8.577634E0,4.6893933E-1,8.557385E0,7.3675203E-1,8.496236E0,8.507711E0,8.549953E0,8.499054E0,-3.28611E0,8.532958E0,8.586604E0],"split_indices":[3,3,0,0,1,4,0,4,0,3,0,0,0,0,0,0,0],"split_type":[0,0,0,0,0,0,0,0,0,0,0,0,0,0,0,0,0],"sum_hessian":[1.75E6,1.201893E6,5.48107E5,5.90502E5,6.11391E5,3.96248E5,1.51859E5,5.62422E5,4.8969E4,3.35593E5,6.0655E4,5.10338E5,5.2084E4,4.908E4,2.86513E5,2.26289E5,6.0224E4],"tree_param":{"num_deleted":"0","num_feature":"8","num_nodes":"17","size_leaf_vector":"0"}},{"base_weights":[8.4460376E2,8.440509E2,8.458622E2,8.449882E2,8.430507E2,8.439995E2,8.481407E2,8.426831E2,8.4717957E2,8.4892413E2,8.442815E2],"categories":[],"categories_nodes":[],"categories_segments":[],"categories_sizes":[],"default_left":[true,true,true,false,true,false,true,false,false,false,false],"id":69,"left_children":[1,3,5,-1,7,-1,9,-1,-1,-1,-1],"loss_changes":[6.5536E5,4.58752E5,1.540096E6,0E0,1.96608E5,0E0,1.6384E4,0E0,0E0,0E0,0E0],"parents":[2147483647,0,0,1,1,2,2,4,4,6,6],"right_children":[2,4,6,-1,8,-1,10,-1,-1,-1,-1],"split_conditions":[4.479484E-1,-2.1149796E-1,-3.28611E0,8.449882E0,1.3326288E0,8.439995E0,5.414283E-1,8.426831E0,8.471795E0,8.489242E0,8.442815E0],"split_indices":[3,3,0,0,1,0,1,0,0,0,0],"split_type":[0,0,0,0,0,0,0,0,0,0,0],"sum_hessian":[1.75E6,1.216307E6,5.33693E5,6.2745E5,5.88857E5,2.93847E5,2.39846E5,5.40897E5,4.796E4,1.9919E5,4.0656E4],"tree_param":{"num_deleted":"0","num_feature":"8","num_nodes":"11","size_leaf_vector":"0"}},{"base_weights":[8.361578E2,8.3563214E2,8.374027E2,8.3507056E2,8.3725085E2,8.355581E2,8.398006E2,8.376477E2,8.346775E2,8.343812E2,8.3871826E2],"categories":[],"categories_nodes":[],"categories_segments":[],"categories_sizes":[],"default_left":[true,true,true,true,false,false,false,false,true,false,false],"id":70,"left_children":[1,3,5,7,-1,-1,-1,-1,9,-1,-1],"loss_changes":[5.24288E5,4.58752E5,1.572864E6,2.62144E5,0E0,0E0,0E0,0E0,2.62144E5,0E0,0E0],"parents":[2147483647,0,0,1,1,2,2,3,3,8,8],"right_children":[2,4,6,8,-1,-1,-1,-1,10,-1,-1],"split_conditions":[4.866904E-1,2.478534E-1,-3.28611E0,-5.995014E-1,8.372508E0,8.355581E0,8.3980055E0,8.376477E0,1.3474624E0,8.343812E0,8.387182E0],"split_indices":[3,4,0,3,0,0,0,0,1,0,0],"split_type":[0,0,0,0,0,0,0,0,0,0,0],"sum_hessian":[1.75E6,1.230982E6,5.19018E5,9.14284E5,3.16698E5,2.93548E5,2.2547E5,1.2071E5,7.93574E5,7.39556E5,5.4018E4],"tree_param":{"num_deleted":"0","num_feature":"8","num_nodes":"11","size_leaf_vector":"0"}},{"base_weights":[8.277962E2,8.272155E2,8.2904425E2,8.28215E2,8.2617444E2,8.277788E2,8.3234296E2,8.258035E2,8.30319E2,8.28418E2,8.243722E2,8.2541003E2,8.2959784E2,8.246443E2,8.291049E2,8.279994E2,8.331062E2],"categories":[],"categories_nodes":[],"categories_segments":[],"categories_sizes":[],"default_left":[true,true,true,false,true,true,false,true,false,true,false,false,false,false,true,false,false],"id":71,"left_children":[1,3,5,-1,7,9,-1,11,-1,13,-1,-1,-1,-1,15,-1,-1],"loss_changes":[6.5536E5,5.89824E5,1.6384E6,0E0,2.29376E5,1.96608E5,0E0,1.31072E5,0E0,1.96608E5,0E0,0E0,0E0,0E0,5.7344E5,0E0,0E0],"parents":[2147483647,0,0,1,1,2,2,4,4,5,5,7,7,9,9,14,14],"right_children":[2,4,6,-1,8,10,-1,12,-1,14,-1,-1,-1,-1,16,-1,-1],"split_conditions":[3.8823855E-1,-2.2683346E-1,-1.528011E-1,8.28215E0,1.3340955E0,5.147774E0,8.323429E0,4.2598063E-1,8.303189E0,7.2096217E-1,8.243722E0,8.2541E0,8.295979E0,8.246443E0,-3.28611E0,8.279994E0,8.331061E0],"split_indices":[3,3,0,0,1,4,0,4,0,3,0,0,0,0,0,0,0],"split_type":[0,0,0,0,0,0,0,0,0,0,0,0,0,0,0,0,0],"sum_hessian":[1.75E6,1.194775E6,5.55225E5,6.09161E5,5.85614E5,4.01463E5,1.53762E5,5.37694E5,4.792E4,3.37832E5,6.3631E4,4.87376E5,5.0318E4,5.2209E4,2.85623E5,2.23954E5,6.1669E4],"tree_param":{"num_deleted":"0","num_feature":"8","num_nodes":"17","size_leaf_vector":"0"}},{"base_weights":[8.195183E2,8.189644E2,8.2074927E2,8.183657E2,8.205876E2,8.1950635E2,8.2393353E2,8.207997E2,8.179401E2,8.177548E2,8.2081744E2,8.1760425E2,8.219646E2],"categories":[],"categories_nodes":[],"categories_segments":[],"categories_sizes":[],"default_left":[true,true,true,true,false,true,false,false,true,false,false,false,false],"id":72,"left_children":[1,3,5,7,-1,9,-1,-1,11,-1,-1,-1,-1],"loss_changes":[6.5536E5,5.24288E5,1.47456E6,2.62144E5,0E0,2.12992E5,0E0,0E0,3.60448E5,0E0,0E0,0E0,0E0],"parents":[2147483647,0,0,1,1,2,2,3,3,5,5,8,8],"right_children":[2,4,6,8,-1,10,-1,-1,12,-1,-1,-1,-1],"split_conditions":[4.233044E-1,2.2512126E-1,-1.9839102E-1,-5.685289E-1,8.205875E0,-2.2907075E-1,8.239335E0,8.207996E0,1.18642E0,8.177548E0,8.208175E0,8.176043E0,8.2196455E0],"split_indices":[3,4,0,3,0,5,0,0,1,0,0,0,0],"split_type":[0,0,0,0,0,0,0,0,0,0,0,0,0],"sum_hessian":[1.75E6,1.207386E6,5.42614E5,8.82434E5,3.24952E5,3.90464E5,1.5215E5,1.31059E5,7.51375E5,1.67423E5,2.23041E5,6.93684E5,5.7691E4],"tree_param":{"num_deleted":"0","num_feature":"8","num_nodes":"13","size_leaf_vector":"0"}},{"base_weights":[8.113231E2,8.1077716E2,8.125402E2,8.10172E2,8.1236224E2,8.113117E2,8.1568555E2,8.1267633E2,8.097606E2,8.095754E2,8.126137E2,8.094393E2,8.137925E2],"categories":[],"categories_nodes":[],"categories_segments":[],"categories_sizes":[],"default_left":[true,true,true,true,false,true,false,false,true,false,false,false,false],"id":73,"left_children":[1,3,5,7,-1,9,-1,-1,11,-1,-1,-1,-1],"loss_changes":[6.5536E5,5.24288E5,1.441792E6,2.62144E5,0E0,2.29376E5,0E0,0E0,3.2768E5,0E0,0E0,0E0,0E0],"parents":[2147483647,0,0,1,1,2,2,3,3,5,5,8,8],"right_children":[2,4,6,8,-1,10,-1,-1,12,-1,-1,-1,-1],"split_conditions":[4.26468E-1,2.0813102E-1,-2.0308071E-1,-5.8402395E-1,8.123622E0,-2.2908702E-1,8.156856E0,8.126763E0,1.2851243E0,8.095754E0,8.126137E0,8.094393E0,8.137924E0],"split_indices":[3,4,0,3,0,5,0,0,1,0,0,0,0],"split_type":[0,0,0,0,0,0,0,0,0,0,0,0,0],"sum_hessian":[1.75E6,1.208522E6,5.41478E5,8.74959E5,3.33563E5,3.89581E5,1.51897E5,1.23158E5,7.51801E5,1.67207E5,2.22374E5,6.96488E5,5.5313E4],"tree_param":{"num_deleted":"0","num_feature":"8","num_nodes":"13","size_leaf_vector":"0"}},{"base_weights":[8.0320996E2,8.0261523E2,8.043795E2,8.0327625E2,8.0144635E2,8.035169E2,7.9920935E2,8.0267126E2,8.049032E2,8.0281287E2,8.0811304E2],"categories":[],"categories_nodes":[],"categories_segments":[],"categories_sizes":[],"default_left":[true,true,false,true,false,true,false,false,true,false,false],"id":74,"left_children":[1,3,-1,5,-1,7,-1,-1,9,-1,-1],"loss_changes":[6.5536E5,2.62144E5,0E0,9.8304E4,0E0,1.96608E5,0E0,0E0,1.130496E6,0E0,0E0],"parents":[2147483647,0,0,1,1,3,3,5,5,8,8],"right_children":[2,4,-1,6,-1,8,-1,-1,10,-1,-1],"split_conditions":[2.5386065E-1,1.9345303E-1,8.043795E0,5.140333E0,8.014463E0,4.512558E-1,7.9920936E0,8.026712E0,-1.281718E0,8.028129E0,8.08113E0],"split_indices":[5,1,0,4,0,3,0,0,2,0,0],"split_type":[0,0,0,0,0,0,0,0,0,0,0],"sum_hessian":[1.75E6,1.160562E6,5.89438E5,7.40887E5,4.19675E5,6.99317E5,4.157E4,4.34727E5,2.6459E5,1.60389E5,1.04201E5],"tree_param":{"num_deleted":"0","num_feature":"8","num_nodes":"11","size_leaf_vector":"0"}},{"base_weights":[7.9517786E2,7.946195E2,7.9638416E2,7.9549927E2,7.9355145E2,7.9517566E2,7.9957416E2,7.931661E2,7.976147E2,7.958178E2,7.9186E2,7.928251E2,7.9701624E2,7.920579E2,7.964943E2,7.9539746E2,8.003876E2],"categories":[],"categories_nodes":[],"categories_segments":[],"categories_sizes":[],"default_left":[true,true,true,false,true,true,false,true,false,true,false,false,false,false,true,false,false],"id":75,"left_children":[1,3,5,-1,7,9,-1,11,-1,13,-1,-1,-1,-1,15,-1,-1],"loss_changes":[6.5536E5,5.24288E5,1.507328E6,0E0,2.29376E5,2.29376E5,0E0,3.2768E4,0E0,2.29376E5,0E0,0E0,0E0,0E0,5.7344E5,0E0,0E0],"parents":[2147483647,0,0,1,1,2,2,4,4,5,5,7,7,9,9,14,14],"right_children":[2,4,6,-1,8,10,-1,12,-1,14,-1,-1,-1,-1,16,-1,-1],"split_conditions":[3.935449E-1,-1.8838033E-1,-1.3571101E-1,7.9549923E0,1.2623546E0,5.1209564E0,7.9957414E0,4.4403785E-1,7.9761467E0,7.2084796E-1,7.9185996E0,7.928251E0,7.9701624E0,7.920579E0,-3.286282E0,7.9539742E0,8.003876E0],"split_indices":[3,3,0,0,1,4,0,4,0,3,0,0,0,0,0,0,0],"split_type":[0,0,0,0,0,0,0,0,0,0,0,0,0,0,0,0,0],"sum_hessian":[1.75E6,1.196745E6,5.53255E5,6.55815E5,5.4093E5,4.01433E5,1.51822E5,4.94245E5,4.6685E4,3.36102E5,6.5331E4,4.54222E5,4.0023E4,5.1432E4,2.8467E5,2.22258E5,6.2412E4],"tree_param":{"num_deleted":"0","num_feature":"8","num_nodes":"17","size_leaf_vector":"0"}},{"base_weights":[7.8722614E2,7.861595E2,7.878811E2,7.8723035E2,7.8937976E2,7.8831903E2,7.860973E2,7.898684E2,7.8473505E2],"categories":[],"categories_nodes":[],"categories_segments":[],"categories_sizes":[],"default_left":[true,false,true,true,true,false,false,false,false],"id":76,"left_children":[1,-1,3,5,7,-1,-1,-1,-1],"loss_changes":[6.5536E5,0E0,4.58752E5,3.2768E5,1.31072E5,0E0,0E0,0E0,0E0],"parents":[2147483647,0,0,2,2,3,3,4,4],"right_children":[2,-1,4,6,8,-1,-1,-1,-1],"split_conditions":[-2.2908004E-1,7.8615947E0,4.143172E-1,-2.1906833E-1,5.1384077E0,7.88319E0,7.860973E0,7.898684E0,7.84735E0],"split_indices":[5,0,3,3,4,0,0,0,0],"split_type":[0,0,0,0,0,0,0,0,0],"sum_hessian":[1.75E6,6.66266E5,1.083734E6,7.55974E5,3.2776E5,3.85166E5,3.70808E5,2.96409E5,3.1351E4],"tree_param":{"num_deleted":"0","num_feature":"8","num_nodes":"9","size_leaf_vector":"0"}},{"base_weights":[7.793539E2,7.787789E2,7.804999E2,7.794248E2,7.7763464E2,7.7965625E2,7.754364E2,7.7884814E2,7.809881E2,7.789549E2,7.841461E2],"categories":[],"categories_nodes":[],"categories_segments":[],"categories_sizes":[],"default_left":[true,true,false,true,false,true,false,false,true,false,false],"id":77,"left_children":[1,3,-1,5,-1,7,-1,-1,9,-1,-1],"loss_changes":[6.5536E5,2.62144E5,0E0,9.8304E4,0E0,1.6384E5,0E0,0E0,1.097728E6,0E0,0E0],"parents":[2147483647,0,0,1,1,3,3,5,5,8,8],"right_children":[2,4,-1,6,-1,8,-1,-1,10,-1,-1],"split_conditions":[2.5710842E-1,1.9301158E-1,7.8049984E0,5.160693E0,7.776346E0,4.660854E-1,7.754364E0,7.788481E0,-1.2746222E0,7.789549E0,7.841461E0],"split_indices":[5,1,0,4,0,3,0,0,2,0,0],"split_type":[0,0,0,0,0,0,0,0,0,0,0],"sum_hessian":[1.75E6,1.165762E6,5.84238E5,7.44696E5,4.21066E5,7.0367E5,4.1026E4,4.38314E5,2.65356E5,1.61575E5,1.03781E5],"tree_param":{"num_deleted":"0","num_feature":"8","num_nodes":"11","size_leaf_vector":"0"}},{"base_weights":[7.7156036E2,7.7101965E2,7.7273883E2,7.719138E2,7.7000616E2,7.715393E2,7.758273E2,7.696458E2,7.7401135E2,7.721516E2,7.682514E2,7.693193E2,7.7347156E2,7.682991E2,7.7279987E2,7.717432E2,7.767199E2],"categories":[],"categories_nodes":[],"categories_segments":[],"categories_sizes":[],"default_left":[true,true,true,false,true,true,false,true,false,true,false,false,false,false,true,false,false],"id":78,"left_children":[1,3,5,-1,7,9,-1,11,-1,13,-1,-1,-1,-1,15,-1,-1],"loss_changes":[5.89824E5,5.24288E5,1.441792E6,0E0,2.29376E5,2.12992E5,0E0,6.5536E4,0E0,2.4576E5,0E0,0E0,0E0,0E0,5.7344E5,0E0,0E0],"parents":[2147483647,0,0,1,1,2,2,4,4,5,5,7,7,9,9,14,14],"right_children":[2,4,6,-1,8,10,-1,12,-1,14,-1,-1,-1,-1,16,-1,-1],"split_conditions":[4.0262705E-1,-2.0351833E-1,-1.755837E-1,7.719138E0,1.3755591E0,5.1651077E0,7.7582726E0,5.1718754E-1,7.7401133E0,7.2192514E-1,7.6825137E0,7.6931925E0,7.7347155E0,7.6829906E0,-3.28611E0,7.717432E0,7.767199E0],"split_indices":[3,3,0,0,1,4,0,4,0,3,0,0,0,0,0,0,0],"split_type":[0,0,0,0,0,0,0,0,0,0,0,0,0,0,0,0,0],"sum_hessian":[1.75E6,1.200031E6,5.49969E5,6.37155E5,5.62876E5,3.96303E5,1.53666E5,5.16595E5,4.6281E4,3.33889E5,6.2414E4,4.7615E5,4.0445E4,4.8261E4,2.85628E5,2.2514E5,6.0488E4],"tree_param":{"num_deleted":"0","num_feature":"8","num_nodes":"17","size_leaf_vector":"0"}},{"base_weights":[7.6384485E2,7.633111E2,7.650106E2,7.642182E2,7.623235E2,7.638283E2,7.680678E2,7.6197095E2,7.662681E2,7.644423E2,7.6058203E2,7.6163403E2,7.657102E2,7.607851E2,7.651041E2,7.640472E2,7.69088E2],"categories":[],"categories_nodes":[],"categories_segments":[],"categories_sizes":[],"default_left":[true,true,true,false,true,true,false,true,false,true,false,false,false,false,true,false,false],"id":79,"left_children":[1,3,5,-1,7,9,-1,11,-1,13,-1,-1,-1,-1,15,-1,-1],"loss_changes":[5.89824E5,5.24288E5,1.409024E6,0E0,2.29376E5,2.12992E5,0E0,9.8304E4,0E0,2.29376E5,0E0,0E0,0E0,0E0,5.89824E5,0E0,0E0],"parents":[2147483647,0,0,1,1,2,2,4,4,5,5,7,7,9,9,14,14],"right_children":[2,4,6,-1,8,10,-1,12,-1,14,-1,-1,-1,-1,16,-1,-1],"split_conditions":[4.049424E-1,-2.130597E-1,-1.7065099E-1,7.642182E0,1.3646257E0,5.1534266E0,7.680678E0,4.95821E-1,7.662681E0,7.543153E-1,7.60582E0,7.61634E0,7.657102E0,7.6078506E0,-3.28611E0,7.6404715E0,7.69088E0],"split_indices":[3,3,0,0,1,4,0,4,0,3,0,0,0,0,0,0,0],"split_type":[0,0,0,0,0,0,0,0,0,0,0,0,0,0,0,0,0],"sum_hessian":[1.75E6,1.200858E6,5.49142E5,6.25529E5,5.75329E5,3.96175E5,1.52967E5,5.28314E5,4.7015E4,3.32963E5,6.3212E4,4.84829E5,4.3485E4,5.1197E4,2.81766E5,2.2284E5,5.8926E4],"tree_param":{"num_deleted":"0","num_feature":"8","num_nodes":"17","size_leaf_vector":"0"}},{"base_weights":[7.562064E2,7.55162E2,7.5684784E2,7.561977E2,7.58297E2,7.5723456E2,7.5501587E2,7.587631E2,7.5383167E2],"categories":[],"categories_nodes":[],"categories_segments":[],"categories_sizes":[],"default_left":[true,false,true,true,true,false,false,false,false],"id":80,"left_children":[1,-1,3,5,7,-1,-1,-1,-1],"loss_changes":[6.5536E5,0E0,4.58752E5,3.60448E5,1.31072E5,0E0,0E0,0E0,0E0],"parents":[2147483647,0,0,2,2,3,3,4,4],"right_children":[2,-1,4,6,8,-1,-1,-1,-1],"split_conditions":[-2.2907242E-1,7.5516195E0,3.8850343E-1,-2.0013821E-1,5.1280813E0,7.5723453E0,7.5501585E0,7.587631E0,7.5383162E0],"split_indices":[5,0,3,3,4,0,0,0,0],"split_type":[0,0,0,0,0,0,0,0,0],"sum_hessian":[1.75E6,6.66272E5,1.083728E6,7.4847E5,3.35258E5,3.98341E5,3.50129E5,3.03419E5,3.1839E4],"tree_param":{"num_deleted":"0","num_feature":"8","num_nodes":"9","size_leaf_vector":"0"}},{"base_weights":[7.4864435E2,7.4811865E2,7.497908E2,7.490266E2,7.471529E2,7.486026E2,7.5279474E2,7.4679395E2,7.510321E2,7.469633E2,7.498195E2,7.464445E2,7.504614E2,7.459429E2,7.5047217E2,7.4902936E2,7.530744E2],"categories":[],"categories_nodes":[],"categories_segments":[],"categories_sizes":[],"default_left":[true,true,true,false,true,true,false,true,false,false,true,false,false,false,true,false,false],"id":81,"left_children":[1,3,5,-1,7,9,-1,11,-1,-1,13,-1,-1,-1,15,-1,-1],"loss_changes":[5.89824E5,5.24288E5,1.409024E6,0E0,2.62144E5,2.29376E5,0E0,1.31072E5,0E0,0E0,1.6384E4,0E0,0E0,0E0,1.6384E5,0E0,0E0],"parents":[2147483647,0,0,1,1,2,2,4,4,5,5,7,7,10,10,14,14],"right_children":[2,4,6,-1,8,10,-1,12,-1,-1,14,-1,-1,-1,16,-1,-1],"split_conditions":[4.0326488E-1,-2.1914715E-1,-2.0632647E-1,7.490266E0,1.2414461E0,-2.2908205E-1,7.5279474E0,4.64892E-1,7.5103207E0,7.469633E0,7.48554E-1,7.464445E0,7.504614E0,7.4594283E0,-6.904378E0,7.4902935E0,7.530744E0],"split_indices":[3,3,0,0,1,5,0,4,0,0,3,0,0,0,0,0,0],"split_type":[0,0,0,0,0,0,0,0,0,0,0,0,0,0,0,0,0],"sum_hessian":[1.75E6,1.200252E6,5.49748E5,6.18245E5,5.82007E5,3.94116E5,1.55632E5,5.3289E5,4.9117E4,1.68178E5,2.25938E5,4.86719E5,4.6171E4,3.2722E4,1.93216E5,1.24483E5,6.8733E4],"tree_param":{"num_deleted":"0","num_feature":"8","num_nodes":"17","size_leaf_vector":"0"}},{"base_weights":[7.4115796E2,7.4060693E2,7.4227386E2,7.4119867E2,7.394723E2,7.414129E2,7.3736304E2,7.406171E2,7.4272943E2,7.4073535E2,7.4579895E2],"categories":[],"categories_nodes":[],"categories_segments":[],"categories_sizes":[],"default_left":[true,true,false,true,false,true,false,false,true,false,false],"id":82,"left_children":[1,3,-1,5,-1,7,-1,-1,9,-1,-1],"loss_changes":[5.89824E5,2.62144E5,0E0,9.8304E4,0E0,2.29376E5,0E0,0E0,1.130496E6,0E0,0E0],"parents":[2147483647,0,0,1,1,3,3,5,5,8,8],"right_children":[2,4,-1,6,-1,8,-1,-1,10,-1,-1],"split_conditions":[2.642697E-1,2.27411E-1,7.4227386E0,5.1717362E0,7.394723E0,4.0139306E-1,7.37363E0,7.4061713E0,-1.2769163E0,7.4073534E0,7.457989E0],"split_indices":[5,1,0,4,0,3,0,0,2,0,0],"split_type":[0,0,0,0,0,0,0,0,0,0,0],"sum_hessian":[1.75E6,1.17198E6,5.7802E5,7.69865E5,4.02115E5,7.28958E5,4.0907E4,4.547E5,2.74258E5,1.66401E5,1.07857E5],"tree_param":{"num_deleted":"0","num_feature":"8","num_nodes":"11","size_leaf_vector":"0"}},{"base_weights":[7.337464E2,7.3318335E2,7.3485376E2,7.3376776E2,7.3204553E2,7.3398157E2,7.299929E2,7.331827E2,7.353115E2,7.3333435E2,7.383545E2],"categories":[],"categories_nodes":[],"categories_segments":[],"categories_sizes":[],"default_left":[true,true,false,true,false,true,false,false,true,false,false],"id":83,"left_children":[1,3,-1,5,-1,7,-1,-1,9,-1,-1],"loss_changes":[6.5536E5,2.62144E5,0E0,9.8304E4,0E0,2.29376E5,0E0,0E0,1.097728E6,0E0,0E0],"parents":[2147483647,0,0,1,1,3,3,5,5,8,8],"right_children":[2,4,-1,6,-1,8,-1,-1,10,-1,-1],"split_conditions":[2.5386435E-1,2.3544702E-1,7.3485374E0,5.1495066E0,7.320455E0,3.7520927E-1,7.299929E0,7.3318267E0,-1.2118542E0,7.3333435E0,7.383545E0],"split_indices":[5,1,0,4,0,3,0,0,2,0,0],"split_type":[0,0,0,0,0,0,0,0,0,0,0],"sum_hessian":[1.75E6,1.160564E6,5.89436E5,7.66323E5,3.94241E5,7.25069E5,4.1254E4,4.53326E5,2.71743E5,1.64865E5,1.06878E5],"tree_param":{"num_deleted":"0","num_feature":"8","num_nodes":"11","size_leaf_vector":"0"}},{"base_weights":[7.26409E2,7.2589197E2,7.2753143E2,7.2529767E2,7.2742834E2,7.263932E2,7.305002E2,7.277282E2,7.2489856E2,7.2699664E2,7.232798E2,7.2458484E2,7.287933E2,7.234759E2,7.276611E2,7.26622E2,7.315017E2],"categories":[],"categories_nodes":[],"categories_segments":[],"categories_sizes":[],"default_left":[true,true,true,true,false,true,false,false,true,true,false,false,false,false,true,false,false],"id":84,"left_children":[1,3,5,7,-1,9,-1,-1,11,13,-1,-1,-1,-1,15,-1,-1],"loss_changes":[5.89824E5,5.89824E5,1.343488E6,3.2768E5,0E0,2.29376E5,0E0,0E0,3.93216E5,2.62144E5,0E0,0E0,0E0,0E0,5.89824E5,0E0,0E0],"parents":[2147483647,0,0,1,1,2,2,3,3,5,5,8,8,9,9,14,14],"right_children":[2,4,6,8,-1,10,-1,-1,12,14,-1,-1,-1,-1,16,-1,-1],"split_conditions":[3.9858097E-1,2.0476925E-1,-1.556659E-1,-5.870765E-1,7.2742834E0,5.1270466E0,7.3050017E0,7.2772818E0,1.2722788E0,7.5521165E-1,7.2327976E0,7.245848E0,7.2879324E0,7.234759E0,-3.289533E0,7.26622E0,7.3150167E0],"split_indices":[3,4,0,3,0,4,0,0,1,3,0,0,0,0,0,0,0],"split_type":[0,0,0,0,0,0,0,0,0,0,0,0,0,0,0,0,0],"sum_hessian":[1.75E6,1.198573E6,5.51427E5,8.64607E5,3.33966E5,3.98779E5,1.52648E5,1.21692E5,7.42915E5,3.33841E5,6.4938E4,6.87699E5,5.5216E4,5.3174E4,2.80667E5,2.21053E5,5.9614E4],"tree_param":{"num_deleted":"0","num_feature":"8","num_nodes":"17","size_leaf_vector":"0"}},{"base_weights":[7.191449E2,7.181334E2,7.197662E2,7.191642E2,7.211547E2,7.2005896E2,7.179876E2,7.216195E2,7.1683307E2],"categories":[],"categories_nodes":[],"categories_segments":[],"categories_sizes":[],"default_left":[true,false,true,true,true,false,false,false,false],"id":85,"left_children":[1,-1,3,5,7,-1,-1,-1,-1],"loss_changes":[6.5536E5,0E0,3.93216E5,2.94912E5,1.47456E5,0E0,0E0,0E0,0E0],"parents":[2147483647,0,0,2,2,3,3,4,4],"right_children":[2,-1,4,6,8,-1,-1,-1,-1],"split_conditions":[-2.2906384E-1,7.181334E0,4.1562575E-1,-1.5603882E-1,5.125723E0,7.2005897E0,7.179876E0,7.216195E0,7.1683307E0],"split_indices":[5,0,3,3,4,0,0,0,0],"split_type":[0,0,0,0,0,0,0,0,0],"sum_hessian":[1.75E6,6.66277E5,1.083723E6,7.56362E5,3.27361E5,4.29283E5,3.27079E5,2.95423E5,3.1938E4],"tree_param":{"num_deleted":"0","num_feature":"8","num_nodes":"9","size_leaf_vector":"0"}},{"base_weights":[7.119535E2,7.1142053E2,7.1303674E2,7.1199915E2,7.1032404E2,7.122045E2,7.08261E2,7.1144727E2,7.134566E2,7.115363E2,7.1644354E2],"categories":[],"categories_nodes":[],"categories_segments":[],"categories_sizes":[],"default_left":[true,true,false,true,false,true,false,false,true,false,false],"id":86,"left_children":[1,3,-1,5,-1,7,-1,-1,9,-1,-1],"loss_changes":[5.89824E5,2.62144E5,0E0,9.8304E4,0E0,1.96608E5,0E0,0E0,1.06496E6,0E0,0E0],"parents":[2147483647,0,0,1,1,3,3,5,5,8,8],"right_children":[2,4,-1,6,-1,8,-1,-1,10,-1,-1],"split_conditions":[2.6585087E-1,2.2226226E-1,7.1303673E0,5.189829E0,7.10324E0,4.3210763E-1,7.0826097E0,7.1144724E0,-1.265534E0,7.115363E0,7.1644354E0],"split_indices":[5,1,0,4,0,3,0,0,2,0,0],"split_type":[0,0,0,0,0,0,0,0,0,0,0],"sum_hessian":[1.75E6,1.173357E6,5.76643E5,7.67637E5,4.0572E5,7.27483E5,4.0154E4,4.53676E5,2.73807E5,1.66806E5,1.07001E5],"tree_param":{"num_deleted":"0","num_feature":"8","num_nodes":"11","size_leaf_vector":"0"}},{"base_weights":[7.04834E2,7.0432385E2,7.059306E2,7.037423E2,7.058546E2,7.048011E2,7.0885254E2,7.0606116E2,7.0334033E2,7.053706E2,7.0173114E2,7.030214E2,7.071969E2,7.0193024E2,7.0603217E2,7.050171E2,7.0982935E2],"categories":[],"categories_nodes":[],"categories_segments":[],"categories_sizes":[],"default_left":[true,true,true,true,false,true,false,false,true,true,false,false,false,false,true,false,false],"id":87,"left_children":[1,3,5,7,-1,9,-1,-1,11,13,-1,-1,-1,-1,15,-1,-1],"loss_changes":[5.89824E5,5.89824E5,1.343488E6,3.2768E5,0E0,2.12992E5,0E0,0E0,4.25984E5,2.78528E5,0E0,0E0,0E0,0E0,5.89824E5,0E0,0E0],"parents":[2147483647,0,0,1,1,2,2,3,3,5,5,8,8,9,9,14,14],"right_children":[2,4,6,8,-1,10,-1,-1,12,14,-1,-1,-1,-1,16,-1,-1],"split_conditions":[3.8830453E-1,2.1458462E-1,-1.6213724E-1,-5.738158E-1,7.058546E0,5.158636E0,7.0885253E0,7.0606112E0,1.2207247E0,7.4794763E-1,7.017311E0,7.0302143E0,7.071969E0,7.0193024E0,-3.286282E0,7.050171E0,7.0982933E0],"split_indices":[3,4,0,3,0,4,0,0,1,3,0,0,0,0,0,0,0],"split_type":[0,0,0,0,0,0,0,0,0,0,0,0,0,0,0,0,0],"sum_hessian":[1.75E6,1.194792E6,5.55208E5,8.66207E5,3.28585E5,4.00599E5,1.54609E5,1.27725E5,7.38482E5,3.3772E5,6.2879E4,6.82249E5,5.6233E4,5.464E4,2.8308E5,2.23517E5,5.9563E4],"tree_param":{"num_deleted":"0","num_feature":"8","num_nodes":"17","size_leaf_vector":"0"}},{"base_weights":[6.977857E2,6.9679443E2,6.983945E2,6.977808E2,6.997497E2,6.986979E2,6.965648E2,7.001753E2,6.954912E2],"categories":[],"categories_nodes":[],"categories_segments":[],"categories_sizes":[],"default_left":[true,false,true,true,true,false,false,false,false],"id":88,"left_children":[1,-1,3,5,7,-1,-1,-1,-1],"loss_changes":[6.5536E5,0E0,4.25984E5,3.60448E5,1.31072E5,0E0,0E0,0E0,0E0],"parents":[2147483647,0,0,2,2,3,3,4,4],"right_children":[2,-1,4,6,8,-1,-1,-1,-1],"split_conditions":[-2.2906885E-1,6.967944E0,3.8092363E-1,-1.6207764E-1,5.151025E0,6.9869785E0,6.965648E0,7.001753E0,6.954912E0],"split_indices":[5,0,3,3,4,0,0,0,0],"split_type":[0,0,0,0,0,0,0,0,0],"sum_hessian":[1.75E6,6.66275E5,1.083725E6,7.46311E5,3.37414E5,4.2512E5,3.21191E5,3.06609E5,3.0805E4],"tree_param":{"num_deleted":"0","num_feature":"8","num_nodes":"9","size_leaf_vector":"0"}},{"base_weights":[6.9080786E2,6.9029175E2,6.9186816E2,6.9077936E2,6.891601E2,6.9097253E2,6.8726514E2,6.902352E2,6.9229877E2,6.8970935E2,6.921364E2,6.903795E2,6.952055E2],"categories":[],"categories_nodes":[],"categories_segments":[],"categories_sizes":[],"default_left":[true,true,false,true,false,true,false,true,true,false,false,false,false],"id":89,"left_children":[1,3,-1,5,-1,7,-1,9,11,-1,-1,-1,-1],"loss_changes":[5.24288E5,1.96608E5,0E0,9.8304E4,0E0,2.94912E5,0E0,3.2768E4,1.073152E6,0E0,0E0,0E0,0E0],"parents":[2147483647,0,0,1,1,3,3,5,5,7,7,8,8],"right_children":[2,4,-1,6,-1,8,-1,10,12,-1,-1,-1,-1],"split_conditions":[2.7060747E-1,3.105404E-1,6.9186816E0,5.1291428E0,6.8916006E0,4.5414716E-1,6.872651E0,3.801729E-1,-1.3596079E0,6.8970933E0,6.921364E0,6.9037952E0,6.952055E0],"split_indices":[5,1,0,4,0,3,0,4,2,0,0,0,0],"split_type":[0,0,0,0,0,0,0,0,0,0,0,0,0],"sum_hessian":[1.75E6,1.177488E6,5.72512E5,8.22466E5,3.55022E5,7.79423E5,4.3043E4,5.0125E5,2.78173E5,3.9293E5,1.0832E5,1.67692E5,1.10481E5],"tree_param":{"num_deleted":"0","num_feature":"8","num_nodes":"13","size_leaf_vector":"0"}},{"base_weights":[6.838998E2,6.8340405E2,6.849711E2,6.842631E2,6.824631E2,6.838452E2,6.8780255E2,6.83311E2,6.8512683E2,6.8211365E2,6.862477E2,6.823032E2,6.8498486E2,6.8177167E2,6.856893E2,6.813291E2,6.8564264E2,6.842671E2,6.8818616E2],"categories":[],"categories_nodes":[],"categories_segments":[],"categories_sizes":[],"default_left":[true,true,true,true,true,true,false,false,false,true,false,false,true,false,false,false,true,false,false],"id":90,"left_children":[1,3,5,7,9,11,-1,-1,-1,13,-1,-1,15,-1,-1,-1,17,-1,-1],"loss_changes":[5.24288E5,5.24288E5,1.294336E6,3.2768E4,2.94912E5,2.29376E5,0E0,0E0,0E0,1.80224E5,0E0,0E0,8.192E4,0E0,0E0,0E0,2.048E5,0E0,0E0],"parents":[2147483647,0,0,1,1,2,2,3,3,4,4,5,5,9,9,12,12,16,16],"right_children":[2,4,6,8,10,12,-1,-1,-1,14,-1,-1,16,-1,-1,-1,18,-1,-1],"split_conditions":[3.938473E-1,-2.132558E-1,-2.1052027E-1,1.240283E-2,1.2718426E0,-2.2907075E-1,6.8780255E0,6.8331094E0,6.8512683E0,4.4994175E-1,6.862477E0,6.823032E0,7.5496054E-1,6.8177166E0,6.8568926E0,6.813291E0,-6.6255255E0,6.842671E0,6.881861E0],"split_indices":[3,3,0,5,1,5,0,0,0,4,0,0,3,0,0,0,2,0,0],"split_type":[0,0,0,0,0,0,0,0,0,0,0,0,0,0,0,0,0,0,0],"sum_hessian":[1.75E6,1.196838E6,5.53162E5,6.25281E5,5.71557E5,3.95957E5,1.57205E5,2.97787E5,3.27494E5,5.23416E5,4.8141E4,1.68526E5,2.27431E5,4.77901E5,4.5515E4,3.4839E4,1.92592E5,1.2517E5,6.7422E4],"tree_param":{"num_deleted":"0","num_feature":"8","num_nodes":"19","size_leaf_vector":"0"}},{"base_weights":[6.7706085E2,6.765286E2,6.7810754E2,6.771114E2,6.75481E2,6.7732574E2,6.7353094E2,6.7660364E2,6.785315E2,6.7668536E2,6.813626E2],"categories":[],"categories_nodes":[],"categories_segments":[],"categories_sizes":[],"default_left":[true,true,false,true,false,true,false,false,true,false,false],"id":91,"left_children":[1,3,-1,5,-1,7,-1,-1,9,-1,-1],"loss_changes":[5.89824E5,2.62144E5,0E0,1.31072E5,0E0,1.6384E5,0E0,0E0,9.17504E5,0E0,0E0],"parents":[2147483647,0,0,1,1,3,3,5,5,8,8],"right_children":[2,4,-1,6,-1,8,-1,-1,10,-1,-1],"split_conditions":[2.5385693E-1,2.0044482E-1,6.7810755E0,5.1210346E0,6.75481E0,4.7246343E-1,6.735309E0,6.766036E0,-1.2949997E0,6.7668533E0,6.813626E0],"split_indices":[5,1,0,4,0,3,0,0,2,0,0],"split_type":[0,0,0,0,0,0,0,0,0,0,0],"sum_hessian":[1.75E6,1.160559E6,5.89441E5,7.45334E5,4.15225E5,7.03051E5,4.2283E4,4.4006E5,2.62991E5,1.59331E5,1.0366E5],"tree_param":{"num_deleted":"0","num_feature":"8","num_nodes":"11","size_leaf_vector":"0"}},{"base_weights":[6.702902E2,6.697813E2,6.713236E2,6.7034625E2,6.687451E2,6.705568E2,6.6682196E2,6.698507E2,6.717498E2,6.699545E2,6.745416E2],"categories":[],"categories_nodes":[],"categories_segments":[],"categories_sizes":[],"default_left":[true,true,false,true,false,true,false,false,true,false,false],"id":92,"left_children":[1,3,-1,5,-1,7,-1,-1,9,-1,-1],"loss_changes":[5.24288E5,2.62144E5,0E0,1.31072E5,0E0,1.6384E5,0E0,0E0,8.84736E5,0E0,0E0],"parents":[2147483647,0,0,1,1,3,3,5,5,8,8],"right_children":[2,4,-1,6,-1,8,-1,-1,10,-1,-1],"split_conditions":[2.6540345E-1,2.0790926E-1,6.713236E0,5.1220574E0,6.687451E0,4.8813373E-1,6.6682196E0,6.698507E0,-1.2609849E0,6.699545E0,6.745416E0],"split_indices":[5,1,0,4,0,3,0,0,2,0,0],"split_type":[0,0,0,0,0,0,0,0,0,0,0],"sum_hessian":[1.75E6,1.172965E6,5.77035E5,7.58674E5,4.14291E5,7.15726E5,4.2948E4,4.49959E5,2.65767E5,1.61897E5,1.0387E5],"tree_param":{"num_deleted":"0","num_feature":"8","num_nodes":"11","size_leaf_vector":"0"}},{"base_weights":[6.6358734E2,6.630789E2,6.64611E2,6.635895E2,6.619981E2,6.637784E2,6.601164E2,6.63059E2,6.650113E2,6.625304E2,6.6497125E2,6.631523E2,6.678425E2],"categories":[],"categories_nodes":[],"categories_segments":[],"categories_sizes":[],"default_left":[true,true,false,true,false,true,false,true,true,false,false,false,false],"id":93,"left_children":[1,3,-1,5,-1,7,-1,9,11,-1,-1,-1,-1],"loss_changes":[5.24288E5,2.29376E5,0E0,9.8304E4,0E0,2.29376E5,0E0,4.9152E4,1.015808E6,0E0,0E0,0E0,0E0],"parents":[2147483647,0,0,1,1,3,3,5,5,7,7,8,8],"right_children":[2,4,-1,6,-1,8,-1,10,12,-1,-1,-1,-1],"split_conditions":[2.6161423E-1,2.7147558E-1,6.64611E0,5.163912E0,6.619981E0,3.9141667E-1,6.601164E0,3.8098857E-1,-1.2935486E0,6.6253037E0,6.6497126E0,6.6315227E0,6.6784253E0],"split_indices":[5,1,0,4,0,3,0,4,2,0,0,0,0],"split_type":[0,0,0,0,0,0,0,0,0,0,0,0,0],"sum_hessian":[1.75E6,1.169677E6,5.80323E5,7.94001E5,3.75676E5,7.52856E5,4.1145E4,4.75786E5,2.7707E5,3.73012E5,1.02774E5,1.67394E5,1.09676E5],"tree_param":{"num_deleted":"0","num_feature":"8","num_nodes":"13","size_leaf_vector":"0"}},{"base_weights":[6.5695154E2,6.564349E2,6.5796765E2,6.569463E2,6.553629E2,6.5713617E2,6.5351196E2,6.550656E2,6.59314E2,6.564245E2,6.5836554E2,6.5590765E2,6.5831055E2,6.565188E2,6.611727E2],"categories":[],"categories_nodes":[],"categories_segments":[],"categories_sizes":[],"default_left":[true,true,false,true,true,true,false,false,false,true,true,false,false,false,false],"id":94,"left_children":[1,3,-1,5,7,9,-1,-1,-1,11,13,-1,-1,-1,-1],"loss_changes":[5.24288E5,2.29376E5,0E0,9.8304E4,1.6384E4,2.29376E5,0E0,0E0,0E0,3.2768E4,9.8304E5,0E0,0E0,0E0,0E0],"parents":[2147483647,0,0,1,1,3,3,4,4,5,5,9,9,10,10],"right_children":[2,4,-1,6,8,10,-1,-1,-1,12,14,-1,-1,-1,-1],"split_conditions":[2.5385758E-1,2.685143E-1,6.579676E0,5.14861E0,1.3540621E0,4.2315325E-1,6.5351195E0,6.550656E0,6.59314E0,3.828444E-1,-1.291683E0,6.5590763E0,6.583105E0,6.565188E0,6.611727E0],"split_indices":[5,1,0,4,1,3,0,0,0,4,2,0,0,0,0],"split_type":[0,0,0,0,0,0,0,0,0,0,0,0,0,0,0],"sum_hessian":[1.75E6,1.16056E6,5.8944E5,7.85279E5,3.75281E5,7.43957E5,4.1322E4,3.49175E5,2.6106E4,4.71522E5,2.72435E5,3.70367E5,1.01155E5,1.64471E5,1.07964E5],"tree_param":{"num_deleted":"0","num_feature":"8","num_nodes":"15","size_leaf_vector":"0"}},{"base_weights":[6.50382E2,6.4944183E2,6.509595E2,6.504019E2,6.5225146E2,6.5140625E2,6.4941327E2,6.526884E2,6.481513E2,6.490562E2,6.527139E2,6.486053E2,6.5238763E2],"categories":[],"categories_nodes":[],"categories_segments":[],"categories_sizes":[],"default_left":[true,false,true,true,true,false,true,false,false,true,false,false,false],"id":95,"left_children":[1,-1,3,5,7,-1,9,-1,-1,11,-1,-1,-1],"loss_changes":[5.89824E5,0E0,3.93216E5,3.2768E5,1.6384E5,0E0,3.2768E4,0E0,0E0,9.8304E4,0E0,0E0,0E0],"parents":[2147483647,0,0,2,2,3,3,4,4,6,6,9,9],"right_children":[2,-1,4,6,8,-1,10,-1,-1,12,-1,-1,-1],"split_conditions":[-2.290704E-1,6.494418E0,4.1922504E-1,-2.3300898E-1,5.1335115E0,6.5140624E0,1.2551763E0,6.526884E0,6.481513E0,5.098634E-1,6.527139E0,6.4860525E0,6.523876E0],"split_indices":[5,0,3,3,4,0,1,0,0,4,0,0,0],"split_type":[0,0,0,0,0,0,0,0,0,0,0,0,0],"sum_hessian":[1.75E6,6.66274E5,1.083726E6,7.57389E5,3.26337E5,3.75397E5,3.81992E5,2.94764E5,3.1573E4,3.44881E5,3.7111E4,3.0394E5,4.0941E4],"tree_param":{"num_deleted":"0","num_feature":"8","num_nodes":"13","size_leaf_vector":"0"}},{"base_weights":[6.4387823E2,6.4294745E2,6.444499E2,6.438896E2,6.4573395E2,6.4485626E2,6.4287103E2,6.46164E2,6.416735E2,6.425239E2,6.461961E2,6.420996E2,6.459005E2],"categories":[],"categories_nodes":[],"categories_segments":[],"categories_sizes":[],"default_left":[true,false,true,true,true,false,true,false,false,true,false,false,false],"id":96,"left_children":[1,-1,3,5,7,-1,9,-1,-1,11,-1,-1,-1],"loss_changes":[5.89824E5,0E0,3.93216E5,3.2768E5,1.6384E5,0E0,1.6384E4,0E0,0E0,6.5536E4,0E0,0E0,0E0],"parents":[2147483647,0,0,2,2,3,3,4,4,6,6,9,9],"right_children":[2,-1,4,6,8,-1,10,-1,-1,12,-1,-1,-1],"split_conditions":[-2.2906697E-1,6.4294744E0,4.1053626E-1,-2.1657662E-1,5.1320844E0,6.4485626E0,1.4937066E0,6.46164E0,6.416735E0,5.2244854E-1,6.461961E0,6.4209957E0,6.459005E0],"split_indices":[5,0,3,3,4,0,1,0,0,4,0,0,0],"split_type":[0,0,0,0,0,0,0,0,0,0,0,0,0],"sum_hessian":[1.75E6,6.66276E5,1.083724E6,7.54832E5,3.28892E5,3.86963E5,3.67869E5,2.97249E5,3.1643E4,3.33273E5,3.4596E4,2.96237E5,3.7036E4],"tree_param":{"num_deleted":"0","num_feature":"8","num_nodes":"13","size_leaf_vector":"0"}},{"base_weights":[6.374395E2,6.36518E2,6.3800543E2,6.374452E2,6.39279E2,6.3833154E2,6.363632E2,6.397065E2,6.352682E2,6.3598303E2,6.3973456E2,6.355971E2,6.394871E2],"categories":[],"categories_nodes":[],"categories_segments":[],"categories_sizes":[],"default_left":[true,false,true,true,true,false,true,false,false,true,false,false,false],"id":97,"left_children":[1,-1,3,5,7,-1,9,-1,-1,11,-1,-1,-1],"loss_changes":[5.24288E5,0E0,3.93216E5,3.2768E5,1.6384E5,0E0,3.2768E4,0E0,0E0,8.192E3,0E0,0E0,0E0],"parents":[2147483647,0,0,2,2,3,3,4,4,6,6,9,9],"right_children":[2,-1,4,6,8,-1,10,-1,-1,12,-1,-1,-1],"split_conditions":[-2.2906697E-1,6.36518E0,4.041794E-1,-1.7839822E-1,5.124035E0,6.383315E0,1.3892889E0,6.3970647E0,6.3526816E0,5.165058E-1,6.3973455E0,6.355971E0,6.394871E0],"split_indices":[5,0,3,3,4,0,1,0,0,4,0,0,0],"split_type":[0,0,0,0,0,0,0,0,0,0,0,0,0],"sum_hessian":[1.75E6,6.66276E5,1.083724E6,7.53004E5,3.3072E5,4.13607E5,3.39397E5,2.98721E5,3.1999E4,3.05173E5,3.4224E4,2.7506E5,3.0113E4],"tree_param":{"num_deleted":"0","num_feature":"8","num_nodes":"13","size_leaf_vector":"0"}},{"base_weights":[6.310651E2,6.301528E2,6.316254E2,6.3105145E2,6.328816E2,6.3193115E2,6.2990967E2,6.3328986E2,6.2890784E2,6.2951575E2,6.333381E2,6.291254E2,6.331397E2],"categories":[],"categories_nodes":[],"categories_segments":[],"categories_sizes":[],"default_left":[true,false,true,true,true,false,true,false,false,true,false,false,false],"id":98,"left_children":[1,-1,3,5,7,-1,9,-1,-1,11,-1,-1,-1],"loss_changes":[5.24288E5,0E0,3.93216E5,3.60448E5,1.55648E5,0E0,4.096E4,0E0,0E0,1.6384E4,0E0,0E0,0E0],"parents":[2147483647,0,0,2,2,3,3,4,4,6,6,9,9],"right_children":[2,-1,4,6,8,-1,10,-1,-1,12,-1,-1,-1],"split_conditions":[-2.290704E-1,6.3015275E0,3.735984E-1,-1.6931996E-1,5.1293116E0,6.3193116E0,1.3837359E0,6.3328986E0,6.289078E0,5.0262964E-1,6.3333807E0,6.291254E0,6.331397E0],"split_indices":[5,0,3,3,4,0,1,0,0,4,0,0,0],"split_type":[0,0,0,0,0,0,0,0,0,0,0,0,0],"sum_hessian":[1.75E6,6.66274E5,1.083726E6,7.44206E5,3.3952E5,4.20035E5,3.24171E5,3.07746E5,3.1774E4,2.90927E5,3.3244E4,2.62796E5,2.8131E4],"tree_param":{"num_deleted":"0","num_feature":"8","num_nodes":"13","size_leaf_vector":"0"}},{"base_weights":[6.2475446E2,6.2385126E2,6.253092E2,6.247495E2,6.2655914E2,6.25717E2,6.2373444E2,6.2697235E2,6.22626E2,6.23382E2,6.2699976E2,6.229325E2,6.2670764E2],"categories":[],"categories_nodes":[],"categories_segments":[],"categories_sizes":[],"default_left":[true,false,true,true,true,false,true,false,false,true,false,false,false],"id":99,"left_children":[1,-1,3,5,7,-1,9,-1,-1,11,-1,-1,-1],"loss_changes":[5.24288E5,0E0,3.93216E5,3.60448E5,1.55648E5,0E0,3.2768E4,0E0,0E0,1.06496E5,0E0,0E0,0E0],"parents":[2147483647,0,0,2,2,3,3,4,4,6,6,9,9],"right_children":[2,-1,4,6,8,-1,10,-1,-1,12,-1,-1,-1],"split_conditions":[-2.2906697E-1,6.2385125E0,3.9004546E-1,-2.21912E-1,5.124632E0,6.2571697E0,1.4120934E0,6.2697234E0,6.2262597E0,4.61859E-1,6.2699976E0,6.229325E0,6.2670765E0],"split_indices":[5,0,3,3,4,0,1,0,0,4,0,0,0],"split_type":[0,0,0,0,0,0,0,0,0,0,0,0,0],